<?xml version="1.0"?>
<MethodSetup Method="BDT::BDTG">
  <GeneralInfo>
    <Info name="TMVA Release" value="4.1.3 [262403]"/>
    <Info name="ROOT Release" value="5.34/01 [336385]"/>
    <Info name="Creator" value="mwalker"/>
    <Info name="Date" value="Mon Feb  4 11:23:27 2013"/>
    <Info name="Host" value="Linux lxbuild168.cern.ch 2.6.18-308.1.1.el5 #1 SMP Wed Mar 7 19:25:07 CET 2012 x86_64 x86_64 x86_64 GNU/Linux"/>
    <Info name="Dir" value="/afs/cern.ch/work/m/mwalker/Tracking/20121212_mvaPurity/PURITYV00ITER1"/>
    <Info name="Training events" value="838741"/>
    <Info name="TrainingTime" value="1.79211252e+03"/>
    <Info name="AnalysisType" value="Classification"/>
  </GeneralInfo>
  <Options>
    <Option name="V" modified="Yes">False</Option>
    <Option name="VerbosityLevel" modified="No">Default</Option>
    <Option name="VarTransform" modified="No">None</Option>
    <Option name="H" modified="Yes">False</Option>
    <Option name="CreateMVAPdfs" modified="No">False</Option>
    <Option name="IgnoreNegWeightsInTraining" modified="No">False</Option>
    <Option name="NTrees" modified="Yes">1000</Option>
    <Option name="RenormByClass" modified="No">False</Option>
    <Option name="BoostType" modified="Yes">Grad</Option>
    <Option name="AdaBoostR2Loss" modified="No">quadratic</Option>
    <Option name="UseBaggedGrad" modified="Yes">True</Option>
    <Option name="GradBaggingFraction" modified="Yes">5.000000e-01</Option>
    <Option name="Shrinkage" modified="Yes">1.000000e-01</Option>
    <Option name="AdaBoostBeta" modified="No">1.000000e+00</Option>
    <Option name="UseRandomisedTrees" modified="No">False</Option>
    <Option name="UseNvars" modified="No">3</Option>
    <Option name="UsePoissonNvars" modified="No">True</Option>
    <Option name="UseNTrainEvents" modified="No">838741</Option>
    <Option name="UseWeightedTrees" modified="No">True</Option>
    <Option name="UseYesNoLeaf" modified="No">True</Option>
    <Option name="NodePurityLimit" modified="No">5.000000e-01</Option>
    <Option name="SeparationType" modified="No">giniindex</Option>
    <Option name="nEventsMin" modified="No">693</Option>
    <Option name="nCuts" modified="Yes">20</Option>
    <Option name="UseFisherCuts" modified="No">False</Option>
    <Option name="MinLinCorrForFisher" modified="No">8.000000e-01</Option>
    <Option name="UseExclusiveVars" modified="No">False</Option>
    <Option name="PruneStrength" modified="No">0.000000e+00</Option>
    <Option name="PruneMethod" modified="No">nopruning</Option>
    <Option name="PruneBeforeBoost" modified="No">False</Option>
    <Option name="PruningValFraction" modified="No">5.000000e-01</Option>
    <Option name="NNodesMax" modified="Yes">15</Option>
    <Option name="MaxDepth" modified="Yes">3</Option>
    <Option name="DoBoostMonitor" modified="No">False</Option>
    <Option name="NegWeightTreatment" modified="No">ignorenegweights</Option>
  </Options>
  <Variables NVar="11">
    <Variable VarIndex="0" Expression="lostmidfrac" Label="lostmidfrac" Title="lostmidfrac" Unit="" Internal="lostmidfrac" Type="F" Min="0.00000000e+00" Max="4.28571433e-01"/>
    <Variable VarIndex="1" Expression="minlost" Label="minlost" Title="minlost" Unit="" Internal="minlost" Type="F" Min="0.00000000e+00" Max="5.00000000e+00"/>
    <Variable VarIndex="2" Expression="nhits" Label="nhits" Title="nhits" Unit="" Internal="nhits" Type="F" Min="3.00000000e+00" Max="6.50000000e+01"/>
    <Variable VarIndex="3" Expression="relpterr" Label="relpterr" Title="relpterr" Unit="" Internal="relpterr" Type="F" Min="3.60280974e-03" Max="7.20110229e+02"/>
    <Variable VarIndex="4" Expression="eta" Label="eta" Title="eta" Unit="" Internal="eta" Type="F" Min="-3.08579731e+00" Max="3.07093334e+00"/>
    <Variable VarIndex="5" Expression="chi2n_no1Dmod" Label="chi2n_no1Dmod" Title="chi2n_no1Dmod" Unit="" Internal="chi2n_no1Dmod" Type="F" Min="-8.09180832e+00" Max="2.65605444e+03"/>
    <Variable VarIndex="6" Expression="chi2n" Label="chi2n" Title="chi2n" Unit="" Internal="chi2n" Type="F" Min="1.64785412e-08" Max="2.11485931e+02"/>
    <Variable VarIndex="7" Expression="nlayerslost" Label="nlayerslost" Title="nlayerslost" Unit="" Internal="nlayerslost" Type="F" Min="0.00000000e+00" Max="3.00000000e+00"/>
    <Variable VarIndex="8" Expression="nlayers3D" Label="nlayers3D" Title="nlayers3D" Unit="" Internal="nlayers3D" Type="F" Min="0.00000000e+00" Max="1.40000000e+01"/>
    <Variable VarIndex="9" Expression="nlayers" Label="nlayers" Title="nlayers" Unit="" Internal="nlayers" Type="F" Min="1.00000000e+00" Max="1.90000000e+01"/>
    <Variable VarIndex="10" Expression="ndof" Label="ndof" Title="ndof" Unit="" Internal="ndof" Type="F" Min="-2.00000000e+00" Max="7.00000000e+01"/>
  </Variables>
  <Spectators NSpec="0"/>
  <Classes NClass="2">
    <Class Name="Signal" Index="0"/>
    <Class Name="Background" Index="1"/>
  </Classes>
  <Transformations NTransformations="0"/>
  <MVAPdfs/>
  <Weights NTrees="1000" AnalysisType="1">
    <BinaryTree type="DecisionTree" boostWeight="1.0000000000000000e+00" itree="0">
      <Node pos="s" depth="0" NCoef="0" IVar="2" Cut="5.9047617912292480e+00" cType="0" res="3.4281077980995178e-01" rms="3.6397907137870789e-01" purity="8.4281075000762939e-01" nType="0">
        <Node pos="l" depth="1" NCoef="0" IVar="2" Cut="8.7619047164916992e+00" cType="0" res="4.4692590832710266e-01" rms="2.2418126463890076e-01" purity="9.4692587852478027e-01" nType="0">
          <Node pos="l" depth="2" NCoef="0" IVar="10" Cut="2.0761905670166016e+01" cType="0" res="4.7715148329734802e-01" rms="1.4942038059234619e-01" purity="9.7715151309967041e-01" nType="0">
            <Node pos="l" depth="3" NCoef="0" IVar="-1" Cut="0.0000000000000000e+00" cType="1" res="9.8290480673313141e-02" rms="9.2057205736637115e-02" purity="9.9145239591598511e-01" nType="-99"/>
            <Node pos="r" depth="3" NCoef="0" IVar="-1" Cut="0.0000000000000000e+00" cType="1" res="9.2112399637699127e-02" rms="1.9463463127613068e-01" purity="9.6056199073791504e-01" nType="-99"/>
          </Node>
          <Node pos="r" depth="2" NCoef="0" IVar="10" Cut="6.2380952835083008e+00" cType="1" res="3.8217318058013916e-01" rms="3.2240295410156250e-01" purity="8.8217318058013916e-01" nType="0">
            <Node pos="l" depth="3" NCoef="0" IVar="-1" Cut="0.0000000000000000e+00" cType="1" res="8.5478484630584717e-02" rms="2.5949129462242126e-01" purity="9.2739242315292358e-01" nType="-99"/>
            <Node pos="r" depth="3" NCoef="0" IVar="-1" Cut="0.0000000000000000e+00" cType="1" res="4.4046908617019653e-02" rms="4.4888389110565186e-01" purity="7.2023451328277588e-01" nType="-99"/>
          </Node>
        </Node>
        <Node pos="r" depth="1" NCoef="0" IVar="8" Cut="2.0952382087707520e+00" cType="0" res="2.0240944623947144e-01" rms="4.5719844102859497e-01" purity="7.0240944623947144e-01" nType="0">
          <Node pos="l" depth="2" NCoef="0" IVar="2" Cut="3.0952382087707520e+00" cType="1" res="2.4930551648139954e-01" rms="4.3341290950775146e-01" purity="7.4930554628372192e-01" nType="0">
            <Node pos="l" depth="3" NCoef="0" IVar="-1" Cut="0.0000000000000000e+00" cType="1" res="7.4195362627506256e-02" rms="3.3522561192512512e-01" purity="8.7097680568695068e-01" nType="-99"/>
            <Node pos="r" depth="3" NCoef="0" IVar="-1" Cut="0.0000000000000000e+00" cType="1" res="2.6881668716669083e-02" rms="4.8159566521644592e-01" purity="6.3440835475921631e-01" nType="-99"/>
          </Node>
          <Node pos="r" depth="2" NCoef="0" IVar="4" Cut="-2.4605538845062256e+00" cType="1" res="-2.3855751752853394e-01" rms="4.3942043185234070e-01" purity="2.6144248247146606e-01" nType="0">
            <Node pos="l" depth="3" NCoef="0" IVar="-1" Cut="0.0000000000000000e+00" cType="1" res="-1.7657192423939705e-02" rms="4.9214386940002441e-01" purity="4.1171404719352722e-01" nType="-99"/>
            <Node pos="r" depth="3" NCoef="0" IVar="-1" Cut="0.0000000000000000e+00" cType="1" res="-4.9893684685230255e-02" rms="4.3331918120384216e-01" purity="2.5053158402442932e-01" nType="-99"/>
          </Node>
        </Node>
      </Node>
    </BinaryTree>
    <BinaryTree type="DecisionTree" boostWeight="1.0000000000000000e+00" itree="1">
      <Node pos="s" depth="0" NCoef="0" IVar="2" Cut="5.9523811340332031e+00" cType="0" res="3.0773907899856567e-01" rms="3.5658112168312073e-01" purity="8.4188640117645264e-01" nType="0">
        <Node pos="l" depth="1" NCoef="0" IVar="2" Cut="8.8095235824584961e+00" cType="0" res="4.0183436870574951e-01" rms="2.2339741885662079e-01" purity="9.4638377428054810e-01" nType="0">
          <Node pos="l" depth="2" NCoef="0" IVar="10" Cut="2.2857143402099609e+01" cType="0" res="4.2872539162635803e-01" rms="1.5196546912193298e-01" purity="9.7629785537719727e-01" nType="0">
            <Node pos="l" depth="3" NCoef="0" IVar="-1" Cut="0.0000000000000000e+00" cType="1" res="8.9486494660377502e-02" rms="8.8390469551086426e-02" purity="9.9212509393692017e-01" nType="-99"/>
            <Node pos="r" depth="3" NCoef="0" IVar="-1" Cut="0.0000000000000000e+00" cType="1" res="8.3624050021171570e-02" rms="1.9420516490936279e-01" purity="9.6073299646377563e-01" nType="-99"/>
          </Node>
          <Node pos="r" depth="2" NCoef="0" IVar="10" Cut="6.2857141494750977e+00" cType="1" res="3.4466525912284851e-01" rms="3.1953680515289307e-01" purity="8.8278776407241821e-01" nType="0">
            <Node pos="l" depth="3" NCoef="0" IVar="-1" Cut="0.0000000000000000e+00" cType="1" res="7.7546514570713043e-02" rms="2.5923359394073486e-01" purity="9.2754876613616943e-01" nType="-99"/>
            <Node pos="r" depth="3" NCoef="0" IVar="-1" Cut="0.0000000000000000e+00" cType="1" res="4.0270380675792694e-02" rms="4.4753092527389526e-01" purity="7.2297096252441406e-01" nType="-99"/>
          </Node>
        </Node>
        <Node pos="r" depth="1" NCoef="0" IVar="8" Cut="2.0952382087707520e+00" cType="0" res="1.8155932426452637e-01" rms="4.5048639178276062e-01" purity="7.0175760984420776e-01" nType="0">
          <Node pos="l" depth="2" NCoef="0" IVar="2" Cut="3.0952382087707520e+00" cType="1" res="2.2361357510089874e-01" rms="4.3078550696372986e-01" purity="7.4850308895111084e-01" nType="0">
            <Node pos="l" depth="3" NCoef="0" IVar="-1" Cut="0.0000000000000000e+00" cType="1" res="6.7192442715167999e-02" rms="3.3503463864326477e-01" purity="8.7114930152893066e-01" nType="-99"/>
            <Node pos="r" depth="3" NCoef="0" IVar="-1" Cut="0.0000000000000000e+00" cType="1" res="2.3891752585768700e-02" rms="4.8203885555267334e-01" purity="6.3281005620956421e-01" nType="-99"/>
          </Node>
          <Node pos="r" depth="2" NCoef="0" IVar="4" Cut="-2.4588770866394043e+00" cType="1" res="-2.1313343942165375e-01" rms="4.3989050388336182e-01" purity="2.6303604245185852e-01" nType="0">
            <Node pos="l" depth="3" NCoef="0" IVar="-1" Cut="0.0000000000000000e+00" cType="1" res="-1.3029593974351883e-02" rms="4.9440887570381165e-01" purity="4.2581728100776672e-01" nType="-99"/>
            <Node pos="r" depth="3" NCoef="0" IVar="-1" Cut="0.0000000000000000e+00" cType="1" res="-4.4933725148439407e-02" rms="4.3356761336326599e-01" purity="2.5096356868743896e-01" nType="-99"/>
          </Node>
        </Node>
      </Node>
    </BinaryTree>
    <BinaryTree type="DecisionTree" boostWeight="1.0000000000000000e+00" itree="2">
      <Node pos="s" depth="0" NCoef="0" IVar="2" Cut="5.9047617912292480e+00" cType="0" res="2.7697020769119263e-01" rms="3.4996771812438965e-01" purity="8.4160488843917847e-01" nType="0">
        <Node pos="l" depth="1" NCoef="0" IVar="2" Cut="8.7619047164916992e+00" cType="0" res="3.6168524622917175e-01" rms="2.2259961068630219e-01" purity="9.4601082801818848e-01" nType="0">
          <Node pos="l" depth="2" NCoef="0" IVar="10" Cut="2.0000000000000000e+01" cType="0" res="3.8703817129135132e-01" rms="1.4955030381679535e-01" purity="9.7702604532241821e-01" nType="0">
            <Node pos="l" depth="3" NCoef="0" IVar="-1" Cut="0.0000000000000000e+00" cType="1" res="8.2589402794837952e-02" rms="9.2482142150402069e-02" purity="9.9136841297149658e-01" nType="-99"/>
            <Node pos="r" depth="3" NCoef="0" IVar="-1" Cut="0.0000000000000000e+00" cType="1" res="7.7005766332149506e-02" rms="1.9512802362442017e-01" purity="9.6035319566726685e-01" nType="-99"/>
          </Node>
          <Node pos="r" depth="2" NCoef="0" IVar="10" Cut="6.2380952835083008e+00" cType="1" res="3.0792641639709473e-01" rms="3.2084542512893677e-01" purity="8.8024556636810303e-01" nType="0">
            <Node pos="l" depth="3" NCoef="0" IVar="-1" Cut="0.0000000000000000e+00" cType="1" res="7.0752538740634918e-02" rms="2.6286980509757996e-01" purity="9.2532277107238770e-01" nType="-99"/>
            <Node pos="r" depth="3" NCoef="0" IVar="-1" Cut="0.0000000000000000e+00" cType="1" res="3.5714704543352127e-02" rms="4.4930750131607056e-01" purity="7.1936899423599243e-01" nType="-99"/>
          </Node>
        </Node>
        <Node pos="r" depth="1" NCoef="0" IVar="8" Cut="2.0952382087707520e+00" cType="0" res="1.6330507397651672e-01" rms="4.4472119212150574e-01" purity="7.0151978731155396e-01" nType="0">
          <Node pos="l" depth="2" NCoef="0" IVar="2" Cut="3.0952382087707520e+00" cType="1" res="2.0160356163978577e-01" rms="4.2804834246635437e-01" purity="7.4874866008758545e-01" nType="0">
            <Node pos="l" depth="3" NCoef="0" IVar="-1" Cut="0.0000000000000000e+00" cType="1" res="6.1721708625555038e-02" rms="3.3325597643852234e-01" purity="8.7274718284606934e-01" nType="-99"/>
            <Node pos="r" depth="3" NCoef="0" IVar="-1" Cut="0.0000000000000000e+00" cType="1" res="2.1330064162611961e-02" rms="4.8233222961425781e-01" purity="6.3174074888229370e-01" nType="-99"/>
          </Node>
          <Node pos="r" depth="2" NCoef="0" IVar="4" Cut="2.3629980087280273e+00" cType="0" res="-1.9410479068756104e-01" rms="4.3834364414215088e-01" purity="2.6076927781105042e-01" nType="0">
            <Node pos="l" depth="3" NCoef="0" IVar="-1" Cut="0.0000000000000000e+00" cType="1" res="-1.1140660382807255e-02" rms="4.8938569426536560e-01" purity="3.9752250909805298e-01" nType="-99"/>
            <Node pos="r" depth="3" NCoef="0" IVar="-1" Cut="0.0000000000000000e+00" cType="1" res="-4.2343787848949432e-02" rms="4.2928951978683472e-01" purity="2.4516543745994568e-01" nType="-99"/>
          </Node>
        </Node>
      </Node>
    </BinaryTree>
    <BinaryTree type="DecisionTree" boostWeight="1.0000000000000000e+00" itree="3">
      <Node pos="s" depth="0" NCoef="0" IVar="8" Cut="3.3333332538604736e+00" cType="0" res="2.5067922472953796e-01" rms="3.4341046214103699e-01" purity="8.4267842769622803e-01" nType="0">
        <Node pos="l" depth="1" NCoef="0" IVar="2" Cut="6.6190476417541504e+00" cType="0" res="3.0893713235855103e-01" rms="2.7397391200065613e-01" purity="9.1191112995147705e-01" nType="0">
          <Node pos="l" depth="2" NCoef="0" IVar="10" Cut="1.8285715103149414e+01" cType="0" res="3.3621311187744141e-01" rms="1.9851285219192505e-01" purity="9.5738905668258667e-01" nType="0">
            <Node pos="l" depth="3" NCoef="0" IVar="-1" Cut="0.0000000000000000e+00" cType="1" res="7.6905906200408936e-02" rms="1.0294277966022491e-01" purity="9.8925852775573730e-01" nType="-99"/>
            <Node pos="r" depth="3" NCoef="0" IVar="-1" Cut="0.0000000000000000e+00" cType="1" res="6.7693255841732025e-02" rms="2.4425229430198669e-01" purity="9.3432956933975220e-01" nType="-99"/>
          </Node>
          <Node pos="r" depth="2" NCoef="0" IVar="10" Cut="4.1428570747375488e+00" cType="1" res="2.2844499349594116e-01" rms="4.1425135731697083e-01" purity="7.7770459651947021e-01" nType="0">
            <Node pos="l" depth="3" NCoef="0" IVar="-1" Cut="0.0000000000000000e+00" cType="1" res="5.6313205510377884e-02" rms="3.7663781642913818e-01" purity="8.2715874910354614e-01" nType="-99"/>
            <Node pos="r" depth="3" NCoef="0" IVar="-1" Cut="0.0000000000000000e+00" cType="1" res="-8.2668028771877289e-03" rms="4.9794632196426392e-01" purity="5.0811731815338135e-01" nType="-99"/>
          </Node>
        </Node>
        <Node pos="r" depth="1" NCoef="0" IVar="9" Cut="3.6666667461395264e+00" cType="1" res="1.0505441576242447e-01" rms="4.4203880429267883e-01" purity="6.6962021589279175e-01" nType="0">
          <Node pos="l" depth="2" NCoef="0" IVar="8" Cut="2.1428570747375488e+00" cType="0" res="1.9445054233074188e-01" rms="3.9260548353195190e-01" purity="7.6613527536392212e-01" nType="0">
            <Node pos="l" depth="3" NCoef="0" IVar="-1" Cut="0.0000000000000000e+00" cType="1" res="5.6512769311666489e-02" rms="3.3478623628616333e-01" purity="8.7108737230300903e-01" nType="-99"/>
            <Node pos="r" depth="3" NCoef="0" IVar="-1" Cut="0.0000000000000000e+00" cType="1" res="-3.5429466515779495e-02" rms="4.3787708878517151e-01" purity="2.6258578896522522e-01" nType="-99"/>
          </Node>
          <Node pos="r" depth="2" NCoef="0" IVar="2" Cut="4.7142858505249023e+00" cType="0" res="-2.4339854717254639e-01" rms="4.5127698779106140e-01" purity="2.9341879487037659e-01" nType="0">
            <Node pos="l" depth="3" NCoef="0" IVar="-1" Cut="0.0000000000000000e+00" cType="1" res="1.8168803304433823e-02" rms="4.7559162974357605e-01" purity="6.4128327369689941e-01" nType="-99"/>
            <Node pos="r" depth="3" NCoef="0" IVar="-1" Cut="0.0000000000000000e+00" cType="1" res="-6.9125145673751831e-02" rms="3.9172092080116272e-01" purity="1.8856596946716309e-01" nType="-99"/>
          </Node>
        </Node>
      </Node>
    </BinaryTree>
    <BinaryTree type="DecisionTree" boostWeight="1.0000000000000000e+00" itree="4">
      <Node pos="s" depth="0" NCoef="0" IVar="8" Cut="3.3333332538604736e+00" cType="0" res="2.2548010945320129e-01" rms="3.3562171459197998e-01" purity="8.4209686517715454e-01" nType="0">
        <Node pos="l" depth="1" NCoef="0" IVar="2" Cut="6.6190476417541504e+00" cType="0" res="2.7890256047248840e-01" rms="2.7133929729461670e-01" purity="9.1243779659271240e-01" nType="0">
          <Node pos="l" depth="2" NCoef="0" IVar="10" Cut="1.8285715103149414e+01" cType="0" res="3.0291983485221863e-01" rms="1.9900637865066528e-01" purity="9.5709085464477539e-01" nType="0">
            <Node pos="l" depth="3" NCoef="0" IVar="-1" Cut="0.0000000000000000e+00" cType="1" res="7.2608008980751038e-02" rms="1.0348191112279892e-01" purity="9.8914897441864014e-01" nType="-99"/>
            <Node pos="r" depth="3" NCoef="0" IVar="-1" Cut="0.0000000000000000e+00" cType="1" res="6.3097566366195679e-02" rms="2.4518501758575439e-01" purity="9.3377715349197388e-01" nType="-99"/>
          </Node>
          <Node pos="r" depth="2" NCoef="0" IVar="10" Cut="4.1428570747375488e+00" cType="1" res="2.0725646615028381e-01" rms="4.1019606590270996e-01" purity="7.7923291921615601e-01" nType="0">
            <Node pos="l" depth="3" NCoef="0" IVar="-1" Cut="0.0000000000000000e+00" cType="1" res="5.1714740693569183e-02" rms="3.7554645538330078e-01" purity="8.2852458953857422e-01" nType="-99"/>
            <Node pos="r" depth="3" NCoef="0" IVar="-1" Cut="0.0000000000000000e+00" cType="1" res="-6.9472752511501312e-03" rms="4.9757349491119385e-01" purity="5.1052856445312500e-01" nType="-99"/>
          </Node>
        </Node>
        <Node pos="r" depth="1" NCoef="0" IVar="9" Cut="3.6666667461395264e+00" cType="1" res="9.2900224030017853e-02" rms="4.2989656329154968e-01" purity="6.6752994060516357e-01" nType="0">
          <Node pos="l" depth="2" NCoef="0" IVar="8" Cut="2.1428570747375488e+00" cType="0" res="1.7419457435607910e-01" rms="3.8705939054489136e-01" purity="7.6465684175491333e-01" nType="0">
            <Node pos="l" depth="3" NCoef="0" IVar="-1" Cut="0.0000000000000000e+00" cType="1" res="5.1847930997610092e-02" rms="3.3682170510292053e-01" purity="8.6918503046035767e-01" nType="-99"/>
            <Node pos="r" depth="3" NCoef="0" IVar="-1" Cut="0.0000000000000000e+00" cType="1" res="-3.0763722956180573e-02" rms="4.4153138995170593e-01" purity="2.6972937583923340e-01" nType="-99"/>
          </Node>
          <Node pos="r" depth="2" NCoef="0" IVar="2" Cut="4.5714287757873535e+00" cType="0" res="-2.2595299780368805e-01" rms="4.4100412726402283e-01" purity="2.8657814860343933e-01" nType="0">
            <Node pos="l" depth="3" NCoef="0" IVar="-1" Cut="0.0000000000000000e+00" cType="1" res="1.4385458081960678e-02" rms="4.7804653644561768e-01" purity="6.3129180669784546e-01" nType="-99"/>
            <Node pos="r" depth="3" NCoef="0" IVar="-1" Cut="0.0000000000000000e+00" cType="1" res="-6.3201591372489929e-02" rms="3.8679316639900208e-01" purity="1.8235513567924500e-01" nType="-99"/>
          </Node>
        </Node>
      </Node>
    </BinaryTree>
    <BinaryTree type="DecisionTree" boostWeight="1.0000000000000000e+00" itree="5">
      <Node pos="s" depth="0" NCoef="0" IVar="8" Cut="3.3333332538604736e+00" cType="0" res="2.0341545343399048e-01" rms="3.2880151271820068e-01" purity="8.4218811988830566e-01" nType="0">
        <Node pos="l" depth="1" NCoef="0" IVar="8" Cut="4.4761905670166016e+00" cType="0" res="2.5103899836540222e-01" rms="2.7066531777381897e-01" purity="9.1175734996795654e-01" nType="0">
          <Node pos="l" depth="2" NCoef="0" IVar="2" Cut="8.7619047164916992e+00" cType="0" res="2.7682927250862122e-01" rms="1.8879547715187073e-01" purity="9.6119558811187744e-01" nType="0">
            <Node pos="l" depth="3" NCoef="0" IVar="-1" Cut="0.0000000000000000e+00" cType="1" res="6.7352637648582458e-02" rms="1.4338041841983795e-01" purity="9.7884893417358398e-01" nType="-99"/>
            <Node pos="r" depth="3" NCoef="0" IVar="-1" Cut="0.0000000000000000e+00" cType="1" res="5.4297633469104767e-02" rms="2.8909996151924133e-01" purity="9.0332877635955811e-01" nType="-99"/>
          </Node>
          <Node pos="r" depth="2" NCoef="0" IVar="6" Cut="2.2208120822906494e+00" cType="1" res="1.9349910318851471e-01" rms="3.9037004113197327e-01" purity="8.0145716667175293e-01" nType="0">
            <Node pos="l" depth="3" NCoef="0" IVar="-1" Cut="0.0000000000000000e+00" cType="1" res="4.5265868306159973e-02" rms="3.7372332811355591e-01" purity="8.2328891754150391e-01" nType="-99"/>
            <Node pos="r" depth="3" NCoef="0" IVar="-1" Cut="0.0000000000000000e+00" cType="1" res="-1.1895417235791683e-02" rms="4.9217319488525391e-01" purity="5.3084272146224976e-01" nType="-99"/>
          </Node>
        </Node>
        <Node pos="r" depth="1" NCoef="0" IVar="9" Cut="3.6666667461395264e+00" cType="1" res="8.5055299103260040e-02" rms="4.1842570900917053e-01" purity="6.6928583383560181e-01" nType="0">
          <Node pos="l" depth="2" NCoef="0" IVar="8" Cut="2.1428570747375488e+00" cType="0" res="1.5732192993164062e-01" rms="3.8110414147377014e-01" purity="7.6544445753097534e-01" nType="0">
            <Node pos="l" depth="3" NCoef="0" IVar="-1" Cut="0.0000000000000000e+00" cType="1" res="4.8170235008001328e-02" rms="3.3647939562797546e-01" purity="8.6948853731155396e-01" nType="-99"/>
            <Node pos="r" depth="3" NCoef="0" IVar="-1" Cut="0.0000000000000000e+00" cType="1" res="-2.8929941356182098e-02" rms="4.3924102187156677e-01" purity="2.6526162028312683e-01" nType="-99"/>
          </Node>
          <Node pos="r" depth="2" NCoef="0" IVar="2" Cut="4.7142858505249023e+00" cType="0" res="-1.9924384355545044e-01" rms="4.3714880943298340e-01" purity="2.9099488258361816e-01" nType="0">
            <Node pos="l" depth="3" NCoef="0" IVar="-1" Cut="0.0000000000000000e+00" cType="1" res="1.3871300965547562e-02" rms="4.7650158405303955e-01" purity="6.3581985235214233e-01" nType="-99"/>
            <Node pos="r" depth="3" NCoef="0" IVar="-1" Cut="0.0000000000000000e+00" cType="1" res="-5.6407678872346878e-02" rms="3.8976788520812988e-01" purity="1.8613235652446747e-01" nType="-99"/>
          </Node>
        </Node>
      </Node>
    </BinaryTree>
    <BinaryTree type="DecisionTree" boostWeight="1.0000000000000000e+00" itree="6">
      <Node pos="s" depth="0" NCoef="0" IVar="8" Cut="3.3333332538604736e+00" cType="0" res="1.8356287479400635e-01" rms="3.2300463318824768e-01" purity="8.4216600656509399e-01" nType="0">
        <Node pos="l" depth="1" NCoef="0" IVar="2" Cut="6.9047617912292480e+00" cType="0" res="2.2651538252830505e-01" rms="2.6938161253929138e-01" purity="9.1187345981597900e-01" nType="0">
          <Node pos="l" depth="2" NCoef="0" IVar="2" Cut="1.2523809432983398e+01" cType="0" res="2.4715630710124969e-01" rms="1.9816763699054718e-01" purity="9.5723021030426025e-01" nType="0">
            <Node pos="l" depth="3" NCoef="0" IVar="-1" Cut="0.0000000000000000e+00" cType="1" res="6.6045276820659637e-02" rms="1.0887695848941803e-01" purity="9.8794668912887573e-01" nType="-99"/>
            <Node pos="r" depth="3" NCoef="0" IVar="-1" Cut="0.0000000000000000e+00" cType="1" res="5.5519260466098785e-02" rms="2.4782948195934296e-01" purity="9.3194472789764404e-01" nType="-99"/>
          </Node>
          <Node pos="r" depth="2" NCoef="0" IVar="10" Cut="4.1428570747375488e+00" cType="1" res="1.6520492732524872e-01" rms="4.0797349810600281e-01" purity="7.7714860439300537e-01" nType="0">
            <Node pos="l" depth="3" NCoef="0" IVar="-1" Cut="0.0000000000000000e+00" cType="1" res="4.3605707585811615e-02" rms="3.7645912170410156e-01" purity="8.2627952098846436e-01" nType="-99"/>
            <Node pos="r" depth="3" NCoef="0" IVar="-1" Cut="0.0000000000000000e+00" cType="1" res="-9.6314251422882080e-03" rms="4.9709966778755188e-01" purity="5.1048415899276733e-01" nType="-99"/>
          </Node>
        </Node>
        <Node pos="r" depth="1" NCoef="0" IVar="9" Cut="3.6666667461395264e+00" cType="1" res="7.6371692121028900e-02" rms="4.0928128361701965e-01" purity="6.6820591688156128e-01" nType="0">
          <Node pos="l" depth="2" NCoef="0" IVar="8" Cut="2.1428570747375488e+00" cType="0" res="1.4260554313659668e-01" rms="3.7563368678092957e-01" purity="7.6583135128021240e-01" nType="0">
            <Node pos="l" depth="3" NCoef="0" IVar="-1" Cut="0.0000000000000000e+00" cType="1" res="4.5208849012851715e-02" rms="3.3450266718864441e-01" purity="8.7133663892745972e-01" nType="-99"/>
            <Node pos="r" depth="3" NCoef="0" IVar="-1" Cut="0.0000000000000000e+00" cType="1" res="-2.6723625138401985e-02" rms="4.3836116790771484e-01" purity="2.6344734430313110e-01" nType="-99"/>
          </Node>
          <Node pos="r" depth="2" NCoef="0" IVar="2" Cut="4.7142858505249023e+00" cType="0" res="-1.7989972233772278e-01" rms="4.3249219655990601e-01" purity="2.9047444462776184e-01" nType="0">
            <Node pos="l" depth="3" NCoef="0" IVar="-1" Cut="0.0000000000000000e+00" cType="1" res="1.1874991469085217e-02" rms="4.7783929109573364e-01" purity="6.3200002908706665e-01" nType="-99"/>
            <Node pos="r" depth="3" NCoef="0" IVar="-1" Cut="0.0000000000000000e+00" cType="1" res="-5.1277659833431244e-02" rms="3.8995945453643799e-01" purity="1.8651066720485687e-01" nType="-99"/>
          </Node>
        </Node>
      </Node>
    </BinaryTree>
    <BinaryTree type="DecisionTree" boostWeight="1.0000000000000000e+00" itree="7">
      <Node pos="s" depth="0" NCoef="0" IVar="8" Cut="3.3333332538604736e+00" cType="0" res="1.6541393101215363e-01" rms="3.1869015097618103e-01" purity="8.4189456701278687e-01" nType="0">
        <Node pos="l" depth="1" NCoef="0" IVar="2" Cut="6.6190476417541504e+00" cType="0" res="2.0430886745452881e-01" rms="2.6844424009323120e-01" purity="9.1181677579879761e-01" nType="0">
          <Node pos="l" depth="2" NCoef="0" IVar="6" Cut="3.8304183483123779e+00" cType="1" res="2.2300693392753601e-01" rms="1.9847573339939117e-01" purity="9.5712035894393921e-01" nType="0">
            <Node pos="l" depth="3" NCoef="0" IVar="-1" Cut="0.0000000000000000e+00" cType="1" res="5.7830255478620529e-02" rms="1.9331564009189606e-01" purity="9.5949876308441162e-01" nType="-99"/>
            <Node pos="r" depth="3" NCoef="0" IVar="-1" Cut="0.0000000000000000e+00" cType="1" res="2.6843333616852760e-02" rms="3.6374530196189880e-01" purity="8.3153605461120605e-01" nType="-99"/>
          </Node>
          <Node pos="r" depth="2" NCoef="0" IVar="10" Cut="4.1428570747375488e+00" cType="1" res="1.4869007468223572e-01" rms="4.0633404254913330e-01" purity="7.7705788612365723e-01" nType="0">
            <Node pos="l" depth="3" NCoef="0" IVar="-1" Cut="0.0000000000000000e+00" cType="1" res="3.9910066872835159e-02" rms="3.7766212224960327e-01" purity="8.2490444183349609e-01" nType="-99"/>
            <Node pos="r" depth="3" NCoef="0" IVar="-1" Cut="0.0000000000000000e+00" cType="1" res="-7.7925957739353180e-03" rms="4.9687358736991882e-01" purity="5.1489400863647461e-01" nType="-99"/>
          </Node>
        </Node>
        <Node pos="r" depth="1" NCoef="0" IVar="9" Cut="3.6666667461395264e+00" cType="1" res="6.8341150879859924e-02" rms="4.0248304605484009e-01" purity="6.6738492250442505e-01" nType="0">
          <Node pos="l" depth="2" NCoef="0" IVar="6" Cut="2.4461007118225098e+00" cType="1" res="1.2715105712413788e-01" rms="3.7326070666313171e-01" purity="7.6393347978591919e-01" nType="0">
            <Node pos="l" depth="3" NCoef="0" IVar="-1" Cut="0.0000000000000000e+00" cType="1" res="4.2154453694820404e-02" rms="3.1858024001121521e-01" purity="8.2728439569473267e-01" nType="-99"/>
            <Node pos="r" depth="3" NCoef="0" IVar="-1" Cut="0.0000000000000000e+00" cType="1" res="-2.1727925166487694e-02" rms="4.7917932271957397e-01" purity="5.0921887159347534e-01" nType="-99"/>
          </Node>
          <Node pos="r" depth="2" NCoef="0" IVar="2" Cut="4.5714287757873535e+00" cType="0" res="-1.5996885299682617e-01" rms="4.2947092652320862e-01" purity="2.9256701469421387e-01" nType="0">
            <Node pos="l" depth="3" NCoef="0" IVar="-1" Cut="0.0000000000000000e+00" cType="1" res="1.1375820264220238e-02" rms="4.7656145691871643e-01" purity="6.3554477691650391e-01" nType="-99"/>
            <Node pos="r" depth="3" NCoef="0" IVar="-1" Cut="0.0000000000000000e+00" cType="1" res="-4.6626754105091095e-02" rms="3.9099648594856262e-01" purity="1.8750995397567749e-01" nType="-99"/>
          </Node>
        </Node>
      </Node>
    </BinaryTree>
    <BinaryTree type="DecisionTree" boostWeight="1.0000000000000000e+00" itree="8">
      <Node pos="s" depth="0" NCoef="0" IVar="8" Cut="3.3333332538604736e+00" cType="0" res="1.4931575953960419e-01" rms="3.1488549709320068e-01" purity="8.4186887741088867e-01" nType="0">
        <Node pos="l" depth="1" NCoef="0" IVar="8" Cut="4.4761905670166016e+00" cType="0" res="1.8464469909667969e-01" rms="2.6736754179000854e-01" purity="9.1193693876266479e-01" nType="0">
          <Node pos="l" depth="2" NCoef="0" IVar="2" Cut="8.8095235824584961e+00" cType="0" res="2.0442587137222290e-01" rms="1.8813993036746979e-01" purity="9.6119391918182373e-01" nType="0">
            <Node pos="l" depth="3" NCoef="0" IVar="-1" Cut="0.0000000000000000e+00" cType="1" res="5.9630144387483597e-02" rms="1.4155048131942749e-01" purity="9.7936409711837769e-01" nType="-99"/>
            <Node pos="r" depth="3" NCoef="0" IVar="-1" Cut="0.0000000000000000e+00" cType="1" res="4.3863765895366669e-02" rms="2.9017174243927002e-01" purity="9.0187299251556396e-01" nType="-99"/>
          </Node>
          <Node pos="r" depth="2" NCoef="0" IVar="4" Cut="1.1761127710342407e+00" cType="1" res="1.4041283726692200e-01" rms="3.8645908236503601e-01" purity="8.0179536342620850e-01" nType="0">
            <Node pos="l" depth="3" NCoef="0" IVar="-1" Cut="0.0000000000000000e+00" cType="1" res="3.6586690694093704e-02" rms="3.6881053447723389e-01" purity="8.2761555910110474e-01" nType="-99"/>
            <Node pos="r" depth="3" NCoef="0" IVar="-1" Cut="0.0000000000000000e+00" cType="1" res="7.8532025218009949e-03" rms="4.5355531573295593e-01" purity="6.6733801364898682e-01" nType="-99"/>
          </Node>
        </Node>
        <Node pos="r" depth="1" NCoef="0" IVar="2" Cut="3.7619047164916992e+00" cType="1" res="6.1714109033346176e-02" rms="3.9621743559837341e-01" purity="6.6812801361083984e-01" nType="0">
          <Node pos="l" depth="2" NCoef="0" IVar="8" Cut="2.1428570747375488e+00" cType="0" res="1.1648651212453842e-01" rms="3.6777102947235107e-01" purity="7.6876628398895264e-01" nType="0">
            <Node pos="l" depth="3" NCoef="0" IVar="-1" Cut="0.0000000000000000e+00" cType="1" res="3.9983969181776047e-02" rms="3.3125558495521545e-01" purity="8.7120693922042847e-01" nType="-99"/>
            <Node pos="r" depth="3" NCoef="0" IVar="-1" Cut="0.0000000000000000e+00" cType="1" res="-2.8293902054429054e-02" rms="4.3422979116439819e-01" purity="2.5280898809432983e-01" nType="-99"/>
          </Node>
          <Node pos="r" depth="2" NCoef="0" IVar="2" Cut="4.7142858505249023e+00" cType="0" res="-1.3665306568145752e-01" rms="4.3067651987075806e-01" purity="3.0365008115768433e-01" nType="0">
            <Node pos="l" depth="3" NCoef="0" IVar="-1" Cut="0.0000000000000000e+00" cType="1" res="1.4292994514107704e-02" rms="4.7405591607093811e-01" purity="6.4958357810974121e-01" nType="-99"/>
            <Node pos="r" depth="3" NCoef="0" IVar="-1" Cut="0.0000000000000000e+00" cType="1" res="-4.2330972850322723e-02" rms="3.9460998773574829e-01" purity="1.9491568207740784e-01" nType="-99"/>
          </Node>
        </Node>
      </Node>
    </BinaryTree>
    <BinaryTree type="DecisionTree" boostWeight="1.0000000000000000e+00" itree="9">
      <Node pos="s" depth="0" NCoef="0" IVar="8" Cut="3.3333332538604736e+00" cType="0" res="1.3511534035205841e-01" rms="3.1107431650161743e-01" purity="8.4271502494812012e-01" nType="0">
        <Node pos="l" depth="1" NCoef="0" IVar="8" Cut="4.4761905670166016e+00" cType="0" res="1.6670174896717072e-01" rms="2.6671203970909119e-01" purity="9.1213905811309814e-01" nType="0">
          <Node pos="l" depth="2" NCoef="0" IVar="9" Cut="5.6666665077209473e+00" cType="0" res="1.8424056470394135e-01" rms="1.8906798958778381e-01" purity="9.6084260940551758e-01" nType="0">
            <Node pos="l" depth="3" NCoef="0" IVar="-1" Cut="0.0000000000000000e+00" cType="1" res="5.6524712592363358e-02" rms="1.5506872534751892e-01" purity="9.7474974393844604e-01" nType="-99"/>
            <Node pos="r" depth="3" NCoef="0" IVar="-1" Cut="0.0000000000000000e+00" cType="1" res="4.0395375341176987e-02" rms="2.9116916656494141e-01" purity="9.0089672803878784e-01" nType="-99"/>
          </Node>
          <Node pos="r" depth="2" NCoef="0" IVar="6" Cut="2.3202967643737793e+00" cType="1" res="1.2736485898494720e-01" rms="3.8505747914314270e-01" purity="8.0290436744689941e-01" nType="0">
            <Node pos="l" depth="3" NCoef="0" IVar="-1" Cut="0.0000000000000000e+00" cType="1" res="3.3354092389345169e-02" rms="3.7111476063728333e-01" purity="8.2312428951263428e-01" nType="-99"/>
            <Node pos="r" depth="3" NCoef="0" IVar="-1" Cut="0.0000000000000000e+00" cType="1" res="-1.9508043304085732e-02" rms="4.9124613404273987e-01" purity="5.2709126472473145e-01" nType="-99"/>
          </Node>
        </Node>
        <Node pos="r" depth="1" NCoef="0" IVar="9" Cut="3.6666667461395264e+00" cType="1" res="5.6166969239711761e-02" rms="3.9000785350799561e-01" purity="6.6919380426406860e-01" nType="0">
          <Node pos="l" depth="2" NCoef="0" IVar="8" Cut="2.1428570747375488e+00" cType="0" res="1.0467879474163055e-01" rms="3.6581245064735413e-01" purity="7.6632452011108398e-01" nType="0">
            <Node pos="l" depth="3" NCoef="0" IVar="-1" Cut="0.0000000000000000e+00" cType="1" res="3.7221122533082962e-02" rms="3.3165568113327026e-01" purity="8.7050211429595947e-01" nType="-99"/>
            <Node pos="r" depth="3" NCoef="0" IVar="-1" Cut="0.0000000000000000e+00" cType="1" res="-2.4190364405512810e-02" rms="4.3796974420547485e-01" purity="2.6215669512748718e-01" nType="-99"/>
          </Node>
          <Node pos="r" depth="2" NCoef="0" IVar="0" Cut="2.0408162847161293e-02" cType="0" res="-1.3342793285846710e-01" rms="4.2241379618644714e-01" purity="2.8958570957183838e-01" nType="0">
            <Node pos="l" depth="3" NCoef="0" IVar="-1" Cut="0.0000000000000000e+00" cType="1" res="2.0258408039808273e-02" rms="4.5333653688430786e-01" purity="5.9025096893310547e-01" nType="-99"/>
            <Node pos="r" depth="3" NCoef="0" IVar="-1" Cut="0.0000000000000000e+00" cType="1" res="-3.8329984992742538e-02" rms="4.0012007951736450e-01" purity="2.2816012799739838e-01" nType="-99"/>
          </Node>
        </Node>
      </Node>
    </BinaryTree>
    <BinaryTree type="DecisionTree" boostWeight="1.0000000000000000e+00" itree="10">
      <Node pos="s" depth="0" NCoef="0" IVar="8" Cut="2.6666667461395264e+00" cType="0" res="1.2194032222032547e-01" rms="3.0818721652030945e-01" purity="8.4241735935211182e-01" nType="0">
        <Node pos="l" depth="1" NCoef="0" IVar="6" Cut="7.5064764022827148e+00" cType="1" res="1.3146558403968811e-01" rms="2.9741644859313965e-01" purity="8.6765164136886597e-01" nType="0">
          <Node pos="l" depth="2" NCoef="0" IVar="6" Cut="1.4296698570251465e+00" cType="1" res="1.3660253584384918e-01" rms="2.9059401154518127e-01" purity="8.7307602167129517e-01" nType="0">
            <Node pos="l" depth="3" NCoef="0" IVar="-1" Cut="0.0000000000000000e+00" cType="1" res="4.4064186513423920e-02" rms="2.5596374273300171e-01" purity="9.0389877557754517e-01" nType="-99"/>
            <Node pos="r" depth="3" NCoef="0" IVar="-1" Cut="0.0000000000000000e+00" cType="1" res="2.4522237945348024e-03" rms="4.0958744287490845e-01" purity="7.0628452301025391e-01" nType="-99"/>
          </Node>
          <Node pos="r" depth="2" NCoef="0" IVar="9" Cut="5.6666665077209473e+00" cType="0" res="-2.0464840531349182e-01" rms="4.8604899644851685e-01" purity="5.1273149251937866e-01" nType="0">
            <Node pos="l" depth="3" NCoef="0" IVar="-1" Cut="0.0000000000000000e+00" cType="1" res="3.0109452083706856e-02" rms="3.1615328788757324e-01" purity="8.7732601165771484e-01" nType="-99"/>
            <Node pos="r" depth="3" NCoef="0" IVar="-1" Cut="0.0000000000000000e+00" cType="1" res="-7.2934150695800781e-02" rms="4.8935905098915100e-01" purity="3.9765062928199768e-01" nType="-99"/>
          </Node>
        </Node>
        <Node pos="r" depth="1" NCoef="0" IVar="2" Cut="4.4285712242126465e+00" cType="0" res="-9.1191545128822327e-02" rms="4.3985760211944580e-01" purity="2.7779015898704529e-01" nType="0">
          <Node pos="l" depth="2" NCoef="0" IVar="-1" Cut="0.0000000000000000e+00" cType="1" res="3.3908568322658539e-02" rms="4.5998111367225647e-01" purity="6.8542432785034180e-01" nType="-99"/>
          <Node pos="r" depth="2" NCoef="0" IVar="0" Cut="2.0408162847161293e-02" cType="0" res="-1.0757344216108322e-01" rms="4.3343505263328552e-01" purity="2.5160029530525208e-01" nType="0">
            <Node pos="l" depth="3" NCoef="0" IVar="-1" Cut="0.0000000000000000e+00" cType="1" res="-1.6459863632917404e-02" rms="4.4938915967941284e-01" purity="2.8294178843498230e-01" nType="-99"/>
            <Node pos="r" depth="3" NCoef="0" IVar="-1" Cut="0.0000000000000000e+00" cType="1" res="-3.5671602934598923e-02" rms="3.9751672744750977e-01" purity="1.9629690051078796e-01" nType="-99"/>
          </Node>
        </Node>
      </Node>
    </BinaryTree>
    <BinaryTree type="DecisionTree" boostWeight="1.0000000000000000e+00" itree="11">
      <Node pos="s" depth="0" NCoef="0" IVar="5" Cut="4.3568305969238281e+00" cType="1" res="1.0986923426389694e-01" rms="3.0707094073295593e-01" purity="8.4243208169937134e-01" nType="0">
        <Node pos="l" depth="1" NCoef="0" IVar="5" Cut="1.2346913814544678e+00" cType="1" res="1.2068177759647369e-01" rms="2.9362308979034424e-01" purity="8.5701310634613037e-01" nType="0">
          <Node pos="l" depth="2" NCoef="0" IVar="8" Cut="2.6666667461395264e+00" cType="0" res="1.4310377836227417e-01" rms="2.5701949000358582e-01" purity="8.9390659332275391e-01" nType="0">
            <Node pos="l" depth="3" NCoef="0" IVar="-1" Cut="0.0000000000000000e+00" cType="1" res="4.3013829737901688e-02" rms="2.4846054613590240e-01" purity="9.0974372625350952e-01" nType="-99"/>
            <Node pos="r" depth="3" NCoef="0" IVar="-1" Cut="0.0000000000000000e+00" cType="1" res="-2.8530299663543701e-02" rms="4.1218149662017822e-01" purity="2.3330608010292053e-01" nType="-99"/>
          </Node>
          <Node pos="r" depth="2" NCoef="0" IVar="2" Cut="8.1428575515747070e+00" cType="0" res="4.1151341050863266e-02" rms="3.8677823543548584e-01" purity="7.2615236043930054e-01" nType="0">
            <Node pos="l" depth="3" NCoef="0" IVar="-1" Cut="0.0000000000000000e+00" cType="1" res="4.1885614395141602e-02" rms="2.4044415354728699e-01" purity="9.3730318546295166e-01" nType="-99"/>
            <Node pos="r" depth="3" NCoef="0" IVar="-1" Cut="0.0000000000000000e+00" cType="1" res="-6.5073959376604762e-06" rms="4.3207162618637085e-01" purity="6.2849432229995728e-01" nType="-99"/>
          </Node>
        </Node>
        <Node pos="r" depth="1" NCoef="0" IVar="2" Cut="7.9523811340332031e+00" cType="0" res="-1.3299275934696198e-01" rms="4.6273818612098694e-01" purity="5.1492619514465332e-01" nType="0">
          <Node pos="l" depth="2" NCoef="0" IVar="2" Cut="1.3000000000000000e+01" cType="0" res="8.9022867381572723e-02" rms="3.2840910553932190e-01" purity="8.7015002965927124e-01" nType="0">
            <Node pos="l" depth="3" NCoef="0" IVar="-1" Cut="0.0000000000000000e+00" cType="1" res="5.0529565662145615e-02" rms="1.9115608930587769e-01" purity="9.6195310354232788e-01" nType="-99"/>
            <Node pos="r" depth="3" NCoef="0" IVar="-1" Cut="0.0000000000000000e+00" cType="1" res="1.1177628301084042e-02" rms="3.8854771852493286e-01" purity="8.0690258741378784e-01" nType="-99"/>
          </Node>
          <Node pos="r" depth="2" NCoef="0" IVar="6" Cut="1.1023255348205566e+01" cType="1" res="-1.9420458376407623e-01" rms="4.7548979520797729e-01" purity="4.1698759794235229e-01" nType="0">
            <Node pos="l" depth="3" NCoef="0" IVar="-1" Cut="0.0000000000000000e+00" cType="1" res="-3.9040599018335342e-02" rms="4.7091740369796753e-01" purity="4.2955267429351807e-01" nType="-99"/>
            <Node pos="r" depth="3" NCoef="0" IVar="-1" Cut="0.0000000000000000e+00" cType="1" res="-7.1834251284599304e-02" rms="4.7969886660575867e-01" purity="3.5536843538284302e-01" nType="-99"/>
          </Node>
        </Node>
      </Node>
    </BinaryTree>
    <BinaryTree type="DecisionTree" boostWeight="1.0000000000000000e+00" itree="12">
      <Node pos="s" depth="0" NCoef="0" IVar="2" Cut="5.6666665077209473e+00" cType="0" res="9.8865814507007599e-02" rms="3.0495783686637878e-01" purity="8.4203785657882690e-01" nType="0">
        <Node pos="l" depth="1" NCoef="0" IVar="2" Cut="8.5238094329833984e+00" cType="0" res="1.3598847389221191e-01" rms="2.1438363194465637e-01" purity="9.4658446311950684e-01" nType="0">
          <Node pos="l" depth="2" NCoef="0" IVar="10" Cut="8.7619047164916992e+00" cType="1" res="1.5007962286472321e-01" rms="1.4779864251613617e-01" purity="9.7722250223159790e-01" nType="0">
            <Node pos="l" depth="3" NCoef="0" IVar="-1" Cut="0.0000000000000000e+00" cType="1" res="5.7580024003982544e-02" rms="1.0090864449739456e-01" purity="9.8960775136947632e-01" nType="-99"/>
            <Node pos="r" depth="3" NCoef="0" IVar="-1" Cut="0.0000000000000000e+00" cType="1" res="5.1646038889884949e-02" rms="1.5412203967571259e-01" purity="9.7510510683059692e-01" nType="-99"/>
          </Node>
          <Node pos="r" depth="2" NCoef="0" IVar="10" Cut="6.2380952835083008e+00" cType="1" res="1.0590236634016037e-01" rms="3.1003430485725403e-01" purity="8.8116884231567383e-01" nType="0">
            <Node pos="l" depth="3" NCoef="0" IVar="-1" Cut="0.0000000000000000e+00" cType="1" res="4.1264917701482773e-02" rms="2.5602605938911438e-01" purity="9.2601799964904785e-01" nType="-99"/>
            <Node pos="r" depth="3" NCoef="0" IVar="-1" Cut="0.0000000000000000e+00" cType="1" res="-1.0435534641146660e-03" rms="4.3679842352867126e-01" purity="7.1961045265197754e-01" nType="-99"/>
          </Node>
        </Node>
        <Node pos="r" depth="1" NCoef="0" IVar="6" Cut="2.1982121467590332e+00" cType="1" res="4.9179382622241974e-02" rms="3.8941603899002075e-01" purity="7.0210856199264526e-01" nType="0">
          <Node pos="l" depth="2" NCoef="0" IVar="8" Cut="2.0952382087707520e+00" cType="0" res="7.7008731663227081e-02" rms="3.6662393808364868e-01" purity="7.4691617488861084e-01" nType="0">
            <Node pos="l" depth="3" NCoef="0" IVar="-1" Cut="0.0000000000000000e+00" cType="1" res="2.2974712774157524e-02" rms="3.5752597451210022e-01" purity="7.8649550676345825e-01" nType="-99"/>
            <Node pos="r" depth="3" NCoef="0" IVar="-1" Cut="0.0000000000000000e+00" cType="1" res="-2.2365448996424675e-02" rms="4.2806017398834229e-01" purity="2.4754723906517029e-01" nType="-99"/>
          </Node>
          <Node pos="r" depth="2" NCoef="0" IVar="5" Cut="6.7301130294799805e+00" cType="1" res="-9.2601634562015533e-02" rms="4.6409809589385986e-01" purity="4.7382912039756775e-01" nType="0">
            <Node pos="l" depth="3" NCoef="0" IVar="-1" Cut="0.0000000000000000e+00" cType="1" res="-1.2173927389085293e-02" rms="4.5435068011283875e-01" purity="4.9955019354820251e-01" nType="-99"/>
            <Node pos="r" depth="3" NCoef="0" IVar="-1" Cut="0.0000000000000000e+00" cType="1" res="-5.4376784712076187e-02" rms="4.7015661001205444e-01" purity="3.7506169080734253e-01" nType="-99"/>
          </Node>
        </Node>
      </Node>
    </BinaryTree>
    <BinaryTree type="DecisionTree" boostWeight="1.0000000000000000e+00" itree="13">
      <Node pos="s" depth="0" NCoef="0" IVar="8" Cut="4.6666665077209473e+00" cType="0" res="8.9234516024589539e-02" rms="3.0347001552581787e-01" purity="8.4193563461303711e-01" nType="0">
        <Node pos="l" depth="1" NCoef="0" IVar="9" Cut="5.6666665077209473e+00" cType="0" res="1.2805466353893280e-01" rms="1.8845000863075256e-01" purity="9.6043711900711060e-01" nType="0">
          <Node pos="l" depth="2" NCoef="0" IVar="10" Cut="8.9523811340332031e+00" cType="1" res="1.3486295938491821e-01" rms="1.5493702888488770e-01" purity="9.7454655170440674e-01" nType="0">
            <Node pos="l" depth="3" NCoef="0" IVar="-1" Cut="0.0000000000000000e+00" cType="1" res="5.5705320090055466e-02" rms="1.1595463007688522e-01" purity="9.8614382743835449e-01" nType="-99"/>
            <Node pos="r" depth="3" NCoef="0" IVar="-1" Cut="0.0000000000000000e+00" cType="1" res="4.8762537539005280e-02" rms="1.6231627762317657e-01" purity="9.7178703546524048e-01" nType="-99"/>
          </Node>
          <Node pos="r" depth="2" NCoef="0" IVar="6" Cut="1.6610113382339478e+00" cType="1" res="9.8601937294006348e-02" rms="2.9022189974784851e-01" purity="8.9939945936203003e-01" nType="0">
            <Node pos="l" depth="3" NCoef="0" IVar="-1" Cut="0.0000000000000000e+00" cType="1" res="3.6595277488231659e-02" rms="2.6511001586914062e-01" purity="9.1947036981582642e-01" nType="-99"/>
            <Node pos="r" depth="3" NCoef="0" IVar="-1" Cut="0.0000000000000000e+00" cType="1" res="-2.3966297507286072e-02" rms="4.6589276194572449e-01" purity="6.5297740697860718e-01" nType="-99"/>
          </Node>
        </Node>
        <Node pos="r" depth="1" NCoef="0" IVar="4" Cut="-1.3268784284591675e+00" cType="0" res="5.1499672234058380e-02" rms="3.7974211573600769e-01" purity="7.2674715518951416e-01" nType="0">
          <Node pos="l" depth="2" NCoef="0" IVar="4" Cut="1.3952590227127075e+00" cType="1" res="7.2531364858150482e-02" rms="3.6603954434394836e-01" purity="7.6268863677978516e-01" nType="0">
            <Node pos="l" depth="3" NCoef="0" IVar="-1" Cut="0.0000000000000000e+00" cType="1" res="2.6139991357922554e-02" rms="3.4222403168678284e-01" purity="8.1260251998901367e-01" nType="-99"/>
            <Node pos="r" depth="3" NCoef="0" IVar="-1" Cut="0.0000000000000000e+00" cType="1" res="-7.4769314378499985e-03" rms="4.2850103974342346e-01" purity="5.7573747634887695e-01" nType="-99"/>
          </Node>
          <Node pos="r" depth="2" NCoef="0" IVar="6" Cut="4.4763154983520508e+00" cType="1" res="-3.6290392279624939e-02" rms="4.2107844352722168e-01" purity="5.7672089338302612e-01" nType="0">
            <Node pos="l" depth="3" NCoef="0" IVar="-1" Cut="0.0000000000000000e+00" cType="1" res="-3.5548857413232327e-03" rms="4.1179314255714417e-01" purity="6.0535633563995361e-01" nType="-99"/>
            <Node pos="r" depth="3" NCoef="0" IVar="-1" Cut="0.0000000000000000e+00" cType="1" res="-5.9803575277328491e-02" rms="4.4765856862068176e-01" purity="2.7122977375984192e-01" nType="-99"/>
          </Node>
        </Node>
      </Node>
    </BinaryTree>
    <BinaryTree type="DecisionTree" boostWeight="1.0000000000000000e+00" itree="14">
      <Node pos="s" depth="0" NCoef="0" IVar="2" Cut="5.9047617912292480e+00" cType="0" res="8.0711320042610168e-02" rms="3.0190962553024292e-01" purity="8.4210449457168579e-01" nType="0">
        <Node pos="l" depth="1" NCoef="0" IVar="2" Cut="8.7619047164916992e+00" cType="0" res="1.1150687932968140e-01" rms="2.1289451420307159e-01" purity="9.4683873653411865e-01" nType="0">
          <Node pos="l" depth="2" NCoef="0" IVar="10" Cut="2.2285715103149414e+01" cType="0" res="1.2315993756055832e-01" rms="1.4829395711421967e-01" purity="9.7707021236419678e-01" nType="0">
            <Node pos="l" depth="3" NCoef="0" IVar="-1" Cut="0.0000000000000000e+00" cType="1" res="5.5088169872760773e-02" rms="8.5379533469676971e-02" purity="9.9266755580902100e-01" nType="-99"/>
            <Node pos="r" depth="3" NCoef="0" IVar="-1" Cut="0.0000000000000000e+00" cType="1" res="4.4225741177797318e-02" rms="1.9054870307445526e-01" purity="9.6170145273208618e-01" nType="-99"/>
          </Node>
          <Node pos="r" depth="2" NCoef="0" IVar="10" Cut="6.2380952835083008e+00" cType="1" res="8.6719416081905365e-02" rms="3.0668041110038757e-01" purity="8.8253277540206909e-01" nType="0">
            <Node pos="l" depth="3" NCoef="0" IVar="-1" Cut="0.0000000000000000e+00" cType="1" res="3.7458006292581558e-02" rms="2.5476789474487305e-01" purity="9.2652189731597900e-01" nType="-99"/>
            <Node pos="r" depth="3" NCoef="0" IVar="-1" Cut="0.0000000000000000e+00" cType="1" res="-2.2068580146878958e-03" rms="4.3354716897010803e-01" purity="7.2335058450698853e-01" nType="-99"/>
          </Node>
        </Node>
        <Node pos="r" depth="1" NCoef="0" IVar="2" Cut="3.0952382087707520e+00" cType="1" res="3.9385743439197540e-02" rms="3.8686367869377136e-01" purity="7.0155817270278931e-01" nType="0">
          <Node pos="l" depth="2" NCoef="0" IVar="8" Cut="2.1428570747375488e+00" cType="0" res="7.7219702303409576e-02" rms="3.4556412696838379e-01" purity="7.7041184902191162e-01" nType="0">
            <Node pos="l" depth="3" NCoef="0" IVar="-1" Cut="0.0000000000000000e+00" cType="1" res="3.0440188944339752e-02" rms="3.1622600555419922e-01" purity="8.7310224771499634e-01" nType="-99"/>
            <Node pos="r" depth="3" NCoef="0" IVar="-1" Cut="0.0000000000000000e+00" cType="1" res="-1.8124677240848541e-02" rms="4.3282639980316162e-01" purity="2.5343209505081177e-01" nType="-99"/>
          </Node>
          <Node pos="r" depth="2" NCoef="0" IVar="8" Cut="3.0476191043853760e+00" cType="0" res="-2.8708903118968010e-03" rms="4.2433959245681763e-01" purity="6.2465578317642212e-01" nType="0">
            <Node pos="l" depth="3" NCoef="0" IVar="-1" Cut="0.0000000000000000e+00" cType="1" res="1.5313232317566872e-02" rms="4.0850213170051575e-01" purity="7.6723086833953857e-01" nType="-99"/>
            <Node pos="r" depth="3" NCoef="0" IVar="-1" Cut="0.0000000000000000e+00" cType="1" res="-3.5613182932138443e-02" rms="4.1840127110481262e-01" purity="2.6447176933288574e-01" nType="-99"/>
          </Node>
        </Node>
      </Node>
    </BinaryTree>
    <BinaryTree type="DecisionTree" boostWeight="1.0000000000000000e+00" itree="15">
      <Node pos="s" depth="0" NCoef="0" IVar="8" Cut="4.6666665077209473e+00" cType="0" res="7.2777763009071350e-02" rms="3.0071052908897400e-01" purity="8.4196901321411133e-01" nType="0">
        <Node pos="l" depth="1" NCoef="0" IVar="2" Cut="8.7619047164916992e+00" cType="0" res="1.0482463985681534e-01" rms="1.8764582276344299e-01" purity="9.6043783426284790e-01" nType="0">
          <Node pos="l" depth="2" NCoef="0" IVar="10" Cut="2.3714284896850586e+01" cType="0" res="1.1134424060583115e-01" rms="1.4378918707370758e-01" purity="9.7857803106307983e-01" nType="0">
            <Node pos="l" depth="3" NCoef="0" IVar="-1" Cut="0.0000000000000000e+00" cType="1" res="5.4059099406003952e-02" rms="8.3842389285564423e-02" purity="9.9291425943374634e-01" nType="-99"/>
            <Node pos="r" depth="3" NCoef="0" IVar="-1" Cut="0.0000000000000000e+00" cType="1" res="4.3680701404809952e-02" rms="1.8081159889698029e-01" purity="9.6583098173141479e-01" nType="-99"/>
          </Node>
          <Node pos="r" depth="2" NCoef="0" IVar="6" Cut="1.6578749418258667e+00" cType="1" res="8.3455219864845276e-02" rms="2.8680777549743652e-01" purity="9.0097945928573608e-01" nType="0">
            <Node pos="l" depth="3" NCoef="0" IVar="-1" Cut="0.0000000000000000e+00" cType="1" res="3.4250710159540176e-02" rms="2.5995549559593201e-01" purity="9.2263990640640259e-01" nType="-99"/>
            <Node pos="r" depth="3" NCoef="0" IVar="-1" Cut="0.0000000000000000e+00" cType="1" res="-2.4593714624643326e-02" rms="4.6699547767639160e-01" purity="6.5121698379516602e-01" nType="-99"/>
          </Node>
        </Node>
        <Node pos="r" depth="1" NCoef="0" IVar="4" Cut="-1.3267314434051514e+00" cType="0" res="4.1544388979673386e-02" rms="3.7717977166175842e-01" purity="7.2650748491287231e-01" nType="0">
          <Node pos="l" depth="2" NCoef="0" IVar="4" Cut="1.3956325054168701e+00" cType="1" res="5.9785574674606323e-02" rms="3.6416131258010864e-01" purity="7.6259142160415649e-01" nType="0">
            <Node pos="l" depth="3" NCoef="0" IVar="-1" Cut="0.0000000000000000e+00" cType="1" res="2.2865951061248779e-02" rms="3.4102740883827209e-01" purity="8.1190538406372070e-01" nType="-99"/>
            <Node pos="r" depth="3" NCoef="0" IVar="-1" Cut="0.0000000000000000e+00" cType="1" res="-7.4172927998006344e-03" rms="4.2868676781654358e-01" purity="5.7699263095855713e-01" nType="-99"/>
          </Node>
          <Node pos="r" depth="2" NCoef="0" IVar="6" Cut="4.4763154983520508e+00" cType="1" res="-3.4303147345781326e-02" rms="4.1863811016082764e-01" purity="5.7646918296813965e-01" nType="0">
            <Node pos="l" depth="3" NCoef="0" IVar="-1" Cut="0.0000000000000000e+00" cType="1" res="-3.7475272547453642e-03" rms="4.1027060151100159e-01" purity="6.0430377721786499e-01" nType="-99"/>
            <Node pos="r" depth="3" NCoef="0" IVar="-1" Cut="0.0000000000000000e+00" cType="1" res="-5.4224319756031036e-02" rms="4.5010936260223389e-01" purity="2.7605956792831421e-01" nType="-99"/>
          </Node>
        </Node>
      </Node>
    </BinaryTree>
    <BinaryTree type="DecisionTree" boostWeight="1.0000000000000000e+00" itree="16">
      <Node pos="s" depth="0" NCoef="0" IVar="5" Cut="9.4939196109771729e-01" cType="1" res="6.5835632383823395e-02" rms="2.9949843883514404e-01" purity="8.4184414148330688e-01" nType="0">
        <Node pos="l" depth="1" NCoef="0" IVar="8" Cut="2.6666667461395264e+00" cType="0" res="9.6411347389221191e-02" rms="2.4956208467483521e-01" purity="8.9577502012252808e-01" nType="0">
          <Node pos="l" depth="2" NCoef="0" IVar="9" Cut="3.7619047164916992e+00" cType="1" res="1.0149090737104416e-01" rms="2.4307513236999512e-01" purity="9.1146767139434814e-01" nType="0">
            <Node pos="l" depth="3" NCoef="0" IVar="-1" Cut="0.0000000000000000e+00" cType="1" res="4.4663842767477036e-02" rms="2.3206391930580139e-01" purity="9.4213700294494629e-01" nType="-99"/>
            <Node pos="r" depth="3" NCoef="0" IVar="-1" Cut="0.0000000000000000e+00" cType="1" res="3.2477073371410370e-02" rms="2.4467003345489502e-01" purity="9.0352350473403931e-01" nType="-99"/>
          </Node>
          <Node pos="r" depth="2" NCoef="0" IVar="2" Cut="3.4285714626312256e+00" cType="0" res="-1.2767018377780914e-01" rms="3.8975295424461365e-01" purity="2.0350335538387299e-01" nType="0">
            <Node pos="l" depth="3" NCoef="0" IVar="-1" Cut="0.0000000000000000e+00" cType="1" res="1.5615214593708515e-02" rms="4.5502343773841858e-01" purity="4.3686354160308838e-01" nType="-99"/>
            <Node pos="r" depth="3" NCoef="0" IVar="-1" Cut="0.0000000000000000e+00" cType="1" res="-3.8221746683120728e-02" rms="3.6256754398345947e-01" purity="1.5616607666015625e-01" nType="-99"/>
          </Node>
        </Node>
        <Node pos="r" depth="1" NCoef="0" IVar="2" Cut="8.8095235824584961e+00" cType="0" res="1.4597964473068714e-02" rms="3.6256533861160278e-01" purity="7.5146877765655518e-01" nType="0">
          <Node pos="l" depth="2" NCoef="0" IVar="10" Cut="2.0761905670166016e+01" cType="0" res="8.2233183085918427e-02" rms="2.0412203669548035e-01" purity="9.5548719167709351e-01" nType="0">
            <Node pos="l" depth="3" NCoef="0" IVar="-1" Cut="0.0000000000000000e+00" cType="1" res="4.9018763005733490e-02" rms="1.2628374993801117e-01" purity="9.8379552364349365e-01" nType="-99"/>
            <Node pos="r" depth="3" NCoef="0" IVar="-1" Cut="0.0000000000000000e+00" cType="1" res="2.4966692551970482e-02" rms="2.6605349779129028e-01" purity="9.2229729890823364e-01" nType="-99"/>
          </Node>
          <Node pos="r" depth="2" NCoef="0" IVar="6" Cut="4.4400095939636230e+00" cType="1" res="-2.7117233723402023e-02" rms="4.2693117260932922e-01" purity="6.2563687562942505e-01" nType="0">
            <Node pos="l" depth="3" NCoef="0" IVar="-1" Cut="0.0000000000000000e+00" cType="1" res="-1.8657518085092306e-03" rms="4.1653889417648315e-01" purity="6.5553838014602661e-01" nType="-99"/>
            <Node pos="r" depth="3" NCoef="0" IVar="-1" Cut="0.0000000000000000e+00" cType="1" res="-3.7554197013378143e-02" rms="4.7007787227630615e-01" purity="4.2064327001571655e-01" nType="-99"/>
          </Node>
        </Node>
      </Node>
    </BinaryTree>
    <BinaryTree type="DecisionTree" boostWeight="1.0000000000000000e+00" itree="17">
      <Node pos="s" depth="0" NCoef="0" IVar="2" Cut="5.9523811340332031e+00" cType="0" res="5.9777546674013138e-02" rms="2.9789006710052490e-01" purity="8.4265637397766113e-01" nType="0">
        <Node pos="l" depth="1" NCoef="0" IVar="2" Cut="8.8095235824584961e+00" cType="0" res="8.4815174341201782e-02" rms="2.1119683980941772e-01" purity="9.4691914319992065e-01" nType="0">
          <Node pos="l" depth="2" NCoef="0" IVar="10" Cut="1.0285714149475098e+01" cType="1" res="9.3948595225811005e-02" rms="1.4695554971694946e-01" purity="9.7746193408966064e-01" nType="0">
            <Node pos="l" depth="3" NCoef="0" IVar="-1" Cut="0.0000000000000000e+00" cType="1" res="5.0103422254323959e-02" rms="1.2218310683965683e-01" purity="9.8454529047012329e-01" nType="-99"/>
            <Node pos="r" depth="3" NCoef="0" IVar="-1" Cut="0.0000000000000000e+00" cType="1" res="4.4397801160812378e-02" rms="1.5290480852127075e-01" purity="9.7547680139541626e-01" nType="-99"/>
          </Node>
          <Node pos="r" depth="2" NCoef="0" IVar="10" Cut="6.2857141494750977e+00" cType="1" res="6.5380632877349854e-02" rms="3.0497011542320251e-01" purity="8.8192874193191528e-01" nType="0">
            <Node pos="l" depth="3" NCoef="0" IVar="-1" Cut="0.0000000000000000e+00" cType="1" res="3.3331505954265594e-02" rms="2.5215926766395569e-01" purity="9.2763191461563110e-01" nType="-99"/>
            <Node pos="r" depth="3" NCoef="0" IVar="-1" Cut="0.0000000000000000e+00" cType="1" res="-6.2597380019724369e-03" rms="4.3477633595466614e-01" purity="7.1716326475143433e-01" nType="-99"/>
          </Node>
        </Node>
        <Node pos="r" depth="1" NCoef="0" IVar="6" Cut="5.2472290992736816e+00" cType="1" res="2.6126973330974579e-02" rms="3.8220444321632385e-01" purity="7.0252716541290283e-01" nType="0">
          <Node pos="l" depth="2" NCoef="0" IVar="2" Cut="3.0952382087707520e+00" cType="1" res="3.6502905189990997e-02" rms="3.7427920103073120e-01" purity="7.1803611516952515e-01" nType="0">
            <Node pos="l" depth="3" NCoef="0" IVar="-1" Cut="0.0000000000000000e+00" cType="1" res="2.4757627397775650e-02" rms="3.1625220179557800e-01" purity="8.0174112319946289e-01" nType="-99"/>
            <Node pos="r" depth="3" NCoef="0" IVar="-1" Cut="0.0000000000000000e+00" cType="1" res="-2.9742927290499210e-03" rms="4.2023339867591858e-01" purity="6.3195729255676270e-01" nType="-99"/>
          </Node>
          <Node pos="r" depth="2" NCoef="0" IVar="4" Cut="1.5649799108505249e+00" cType="1" res="-1.7861567437648773e-01" rms="4.6940246224403381e-01" purity="3.9649772644042969e-01" nType="0">
            <Node pos="l" depth="3" NCoef="0" IVar="-1" Cut="0.0000000000000000e+00" cType="1" res="-3.0190687626600266e-02" rms="4.6870732307434082e-01" purity="4.5032909512519836e-01" nType="-99"/>
            <Node pos="r" depth="3" NCoef="0" IVar="-1" Cut="0.0000000000000000e+00" cType="1" res="-7.0910178124904633e-02" rms="4.4415721297264099e-01" purity="2.2822967171669006e-01" nType="-99"/>
          </Node>
        </Node>
      </Node>
    </BinaryTree>
    <BinaryTree type="DecisionTree" boostWeight="1.0000000000000000e+00" itree="18">
      <Node pos="s" depth="0" NCoef="0" IVar="8" Cut="3.3333332538604736e+00" cType="0" res="5.3208600729703903e-02" rms="2.9777485132217407e-01" purity="8.4188681840896606e-01" nType="0">
        <Node pos="l" depth="1" NCoef="0" IVar="3" Cut="6.0546584427356720e-02" cType="0" res="7.0117913186550140e-02" rms="2.6200845837593079e-01" purity="9.1166675090789795e-01" nType="0">
          <Node pos="l" depth="2" NCoef="0" IVar="4" Cut="1.6685739755630493e+00" cType="0" res="2.4526280164718628e-01" rms="2.2711898386478424e-01" purity="9.4439208507537842e-01" nType="0">
            <Node pos="l" depth="3" NCoef="0" IVar="-1" Cut="0.0000000000000000e+00" cType="1" res="6.3553988933563232e-02" rms="1.9765138626098633e-01" purity="9.5787292718887329e-01" nType="-99"/>
            <Node pos="r" depth="3" NCoef="0" IVar="-1" Cut="0.0000000000000000e+00" cType="1" res="5.5350732058286667e-02" rms="2.4737207591533661e-01" purity="9.3314123153686523e-01" nType="-99"/>
          </Node>
          <Node pos="r" depth="2" NCoef="0" IVar="2" Cut="6.6190476417541504e+00" cType="0" res="6.8233594298362732e-02" rms="2.6172208786010742e-01" purity="9.1131466627120972e-01" nType="0">
            <Node pos="l" depth="3" NCoef="0" IVar="-1" Cut="0.0000000000000000e+00" cType="1" res="3.7434440106153488e-02" rms="1.9464939832687378e-01" purity="9.5726937055587769e-01" nType="-99"/>
            <Node pos="r" depth="3" NCoef="0" IVar="-1" Cut="0.0000000000000000e+00" cType="1" res="8.8842725381255150e-03" rms="4.0257325768470764e-01" purity="7.6846593618392944e-01" nType="-99"/>
          </Node>
        </Node>
        <Node pos="r" depth="1" NCoef="0" IVar="9" Cut="3.6666667461395264e+00" cType="1" res="1.1067712679505348e-02" rms="3.6888790130615234e-01" purity="6.6798341274261475e-01" nType="0">
          <Node pos="l" depth="2" NCoef="0" IVar="8" Cut="2.1428570747375488e+00" cType="0" res="5.3601972758769989e-02" rms="3.4307262301445007e-01" purity="7.6413547992706299e-01" nType="0">
            <Node pos="l" depth="3" NCoef="0" IVar="-1" Cut="0.0000000000000000e+00" cType="1" res="2.4009799584746361e-02" rms="3.1481906771659851e-01" purity="8.6844831705093384e-01" nType="-99"/>
            <Node pos="r" depth="3" NCoef="0" IVar="-1" Cut="0.0000000000000000e+00" cType="1" res="-1.4224191196262836e-02" rms="4.3621006608009338e-01" purity="2.6559573411941528e-01" nType="-99"/>
          </Node>
          <Node pos="r" depth="2" NCoef="0" IVar="0" Cut="2.0408162847161293e-02" cType="0" res="-1.5649716556072235e-01" rms="4.1626843810081482e-01" purity="2.8918984532356262e-01" nType="0">
            <Node pos="l" depth="3" NCoef="0" IVar="-1" Cut="0.0000000000000000e+00" cType="1" res="1.3517466373741627e-02" rms="4.4713988900184631e-01" purity="5.9256613254547119e-01" nType="-99"/>
            <Node pos="r" depth="3" NCoef="0" IVar="-1" Cut="0.0000000000000000e+00" cType="1" res="-4.2774286121129990e-02" rms="3.9476352930068970e-01" purity="2.2582732141017914e-01" nType="-99"/>
          </Node>
        </Node>
      </Node>
    </BinaryTree>
    <BinaryTree type="DecisionTree" boostWeight="1.0000000000000000e+00" itree="19">
      <Node pos="s" depth="0" NCoef="0" IVar="8" Cut="3.3333332538604736e+00" cType="0" res="4.9387570470571518e-02" rms="2.9540705680847168e-01" purity="8.4284847974777222e-01" nType="0">
        <Node pos="l" depth="1" NCoef="0" IVar="3" Cut="6.0594014823436737e-02" cType="0" res="6.4548328518867493e-02" rms="2.6063603162765503e-01" purity="9.1273128986358643e-01" nType="0">
          <Node pos="l" depth="2" NCoef="0" IVar="4" Cut="-1.9047685861587524e+00" cType="0" res="2.1226434409618378e-01" rms="2.4121767282485962e-01" purity="9.3446600437164307e-01" nType="0">
            <Node pos="l" depth="3" NCoef="0" IVar="-1" Cut="0.0000000000000000e+00" cType="1" res="5.7624809443950653e-02" rms="2.1448270976543427e-01" purity="9.4884562492370605e-01" nType="-99"/>
            <Node pos="r" depth="3" NCoef="0" IVar="-1" Cut="0.0000000000000000e+00" cType="1" res="4.5645128935575485e-02" rms="2.8491234779357910e-01" purity="9.0524381399154663e-01" nType="-99"/>
          </Node>
          <Node pos="r" depth="2" NCoef="0" IVar="3" Cut="2.0481443032622337e-02" cType="1" res="6.2901951372623444e-02" rms="2.6037251949310303e-01" purity="9.1248905658721924e-01" nType="0">
            <Node pos="l" depth="3" NCoef="0" IVar="-1" Cut="0.0000000000000000e+00" cType="1" res="3.2416921108961105e-02" rms="2.4222852289676666e-01" purity="9.3218374252319336e-01" nType="-99"/>
            <Node pos="r" depth="3" NCoef="0" IVar="-1" Cut="0.0000000000000000e+00" cType="1" res="1.6754338517785072e-02" rms="2.8244021534919739e-01" purity="8.8484078645706177e-01" nType="-99"/>
          </Node>
        </Node>
        <Node pos="r" depth="1" NCoef="0" IVar="9" Cut="3.6666667461395264e+00" cType="1" res="1.1696610599756241e-02" rms="3.6515721678733826e-01" purity="6.6911381483078003e-01" nType="0">
          <Node pos="l" depth="2" NCoef="0" IVar="6" Cut="1.0070758819580078e+01" cType="1" res="5.0731629133224487e-02" rms="3.4082913398742676e-01" purity="7.6664751768112183e-01" nType="0">
            <Node pos="l" depth="3" NCoef="0" IVar="-1" Cut="0.0000000000000000e+00" cType="1" res="1.7771061509847641e-02" rms="3.3282667398452759e-01" purity="7.7780401706695557e-01" nType="-99"/>
            <Node pos="r" depth="3" NCoef="0" IVar="-1" Cut="0.0000000000000000e+00" cType="1" res="-5.4992135614156723e-02" rms="4.6767216920852661e-01" purity="3.5131895542144775e-01" nType="-99"/>
          </Node>
          <Node pos="r" depth="2" NCoef="0" IVar="0" Cut="1.7857143655419350e-02" cType="0" res="-1.3987468183040619e-01" rms="4.1369104385375977e-01" purity="2.9039460420608521e-01" nType="0">
            <Node pos="l" depth="3" NCoef="0" IVar="-1" Cut="0.0000000000000000e+00" cType="1" res="1.1504971422255039e-02" rms="4.4332110881805420e-01" purity="5.9114581346511841e-01" nType="-99"/>
            <Node pos="r" depth="3" NCoef="0" IVar="-1" Cut="0.0000000000000000e+00" cType="1" res="-3.8582760840654373e-02" rms="3.9592856168746948e-01" purity="2.2814582288265228e-01" nType="-99"/>
          </Node>
        </Node>
      </Node>
    </BinaryTree>
    <BinaryTree type="DecisionTree" boostWeight="1.0000000000000000e+00" itree="20">
      <Node pos="s" depth="0" NCoef="0" IVar="8" Cut="4.6666665077209473e+00" cType="0" res="4.3104697018861771e-02" rms="2.9516938328742981e-01" purity="8.4189158678054810e-01" nType="0">
        <Node pos="l" depth="1" NCoef="0" IVar="10" Cut="2.0476190567016602e+01" cType="0" res="6.8137362599372864e-02" rms="1.8517838418483734e-01" purity="9.6131187677383423e-01" nType="0">
          <Node pos="l" depth="2" NCoef="0" IVar="3" Cut="1.7424533143639565e-02" cType="0" res="8.1239208579063416e-02" rms="9.1946847736835480e-02" purity="9.9147349596023560e-01" nType="0">
            <Node pos="l" depth="3" NCoef="0" IVar="-1" Cut="0.0000000000000000e+00" cType="1" res="5.0511036068201065e-02" rms="8.5044495761394501e-02" purity="9.9271553754806519e-01" nType="-99"/>
            <Node pos="r" depth="3" NCoef="0" IVar="-1" Cut="0.0000000000000000e+00" cType="1" res="4.5283205807209015e-02" rms="1.2269904464483261e-01" purity="9.8467487096786499e-01" nType="-99"/>
          </Node>
          <Node pos="r" depth="2" NCoef="0" IVar="3" Cut="1.8234390765428543e-02" cType="1" res="5.8655764907598495e-02" rms="2.2972720861434937e-01" purity="9.3948441743850708e-01" nType="0">
            <Node pos="l" depth="3" NCoef="0" IVar="-1" Cut="0.0000000000000000e+00" cType="1" res="3.7221528589725494e-02" rms="1.8813592195510864e-01" purity="9.6230512857437134e-01" nType="-99"/>
            <Node pos="r" depth="3" NCoef="0" IVar="-1" Cut="0.0000000000000000e+00" cType="1" res="1.3776597566902637e-02" rms="2.9092371463775635e-01" purity="8.9615774154663086e-01" nType="-99"/>
          </Node>
        </Node>
        <Node pos="r" depth="1" NCoef="0" IVar="4" Cut="-1.3270484209060669e+00" cType="0" res="1.8680764362215996e-02" rms="3.7076431512832642e-01" purity="7.2537529468536377e-01" nType="0">
          <Node pos="l" depth="2" NCoef="0" IVar="4" Cut="1.3948285579681396e+00" cType="1" res="3.4616984426975250e-02" rms="3.5856676101684570e-01" purity="7.6152551174163818e-01" nType="0">
            <Node pos="l" depth="3" NCoef="0" IVar="-1" Cut="0.0000000000000000e+00" cType="1" res="1.6857827082276344e-02" rms="3.3674421906471252e-01" purity="8.1135421991348267e-01" nType="-99"/>
            <Node pos="r" depth="3" NCoef="0" IVar="-1" Cut="0.0000000000000000e+00" cType="1" res="-1.1668566614389420e-02" rms="4.2137411236763000e-01" purity="5.7410752773284912e-01" nType="-99"/>
          </Node>
          <Node pos="r" depth="2" NCoef="0" IVar="6" Cut="5.9684209823608398e+00" cType="1" res="-4.7838918864727020e-02" rms="4.1123527288436890e-01" purity="5.7447999715805054e-01" nType="0">
            <Node pos="l" depth="3" NCoef="0" IVar="-1" Cut="0.0000000000000000e+00" cType="1" res="-9.6845459192991257e-03" rms="4.0708494186401367e-01" purity="5.9235948324203491e-01" nType="-99"/>
            <Node pos="r" depth="3" NCoef="0" IVar="-1" Cut="0.0000000000000000e+00" cType="1" res="-5.4449073970317841e-02" rms="4.3354979157447815e-01" purity="2.4835988879203796e-01" nType="-99"/>
          </Node>
        </Node>
      </Node>
    </BinaryTree>
    <BinaryTree type="DecisionTree" boostWeight="1.0000000000000000e+00" itree="21">
      <Node pos="s" depth="0" NCoef="0" IVar="2" Cut="8.9047622680664062e+00" cType="0" res="3.9873674511909485e-02" rms="2.9393494129180908e-01" purity="8.4270620346069336e-01" nType="0">
        <Node pos="l" depth="1" NCoef="0" IVar="10" Cut="2.0476190567016602e+01" cType="0" res="6.6918835043907166e-02" rms="1.4811658859252930e-01" purity="9.7715520858764648e-01" nType="0">
          <Node pos="l" depth="2" NCoef="0" IVar="8" Cut="4.0952382087707520e+00" cType="0" res="7.4167579412460327e-02" rms="9.1137342154979706e-02" purity="9.9165451526641846e-01" nType="0">
            <Node pos="l" depth="3" NCoef="0" IVar="-1" Cut="0.0000000000000000e+00" cType="1" res="4.8951279371976852e-02" rms="9.0730838477611542e-02" purity="9.9169534444808960e-01" nType="-99"/>
            <Node pos="r" depth="3" NCoef="0" IVar="-1" Cut="0.0000000000000000e+00" cType="1" res="5.2934702485799789e-02" rms="1.1471753567457199e-01" purity="9.8768198490142822e-01" nType="-99"/>
          </Node>
          <Node pos="r" depth="2" NCoef="0" IVar="10" Cut="9.2857141494750977e+00" cType="1" res="5.8543015271425247e-02" rms="1.9380360841751099e-01" purity="9.6040153503417969e-01" nType="0">
            <Node pos="l" depth="3" NCoef="0" IVar="-1" Cut="0.0000000000000000e+00" cType="1" res="4.7924321144819260e-02" rms="1.1095759272575378e-01" purity="9.8739588260650635e-01" nType="-99"/>
            <Node pos="r" depth="3" NCoef="0" IVar="-1" Cut="0.0000000000000000e+00" cType="1" res="2.3057868704199791e-02" rms="2.3462437093257904e-01" purity="9.4097018241882324e-01" nType="-99"/>
          </Node>
        </Node>
        <Node pos="r" depth="1" NCoef="0" IVar="4" Cut="-1.3074963092803955e+00" cType="0" res="2.2507732734084129e-02" rms="3.5639354586601257e-01" purity="7.5637525320053101e-01" nType="0">
          <Node pos="l" depth="2" NCoef="0" IVar="4" Cut="1.1941714286804199e+00" cType="1" res="3.7242740392684937e-02" rms="3.4092587232589722e-01" purity="7.9292541742324829e-01" nType="0">
            <Node pos="l" depth="3" NCoef="0" IVar="-1" Cut="0.0000000000000000e+00" cType="1" res="1.9618134945631027e-02" rms="3.1012177467346191e-01" purity="8.4648609161376953e-01" nType="-99"/>
            <Node pos="r" depth="3" NCoef="0" IVar="-1" Cut="0.0000000000000000e+00" cType="1" res="-8.2939136773347855e-03" rms="4.1629970073699951e-01" purity="6.2407433986663818e-01" nType="-99"/>
          </Node>
          <Node pos="r" depth="2" NCoef="0" IVar="5" Cut="1.4859853982925415e+00" cType="1" res="-4.3509121984243393e-02" rms="4.1232165694236755e-01" purity="5.9262043237686157e-01" nType="0">
            <Node pos="l" depth="3" NCoef="0" IVar="-1" Cut="0.0000000000000000e+00" cType="1" res="-3.2177441753447056e-03" rms="3.8090243935585022e-01" purity="6.7940902709960938e-01" nType="-99"/>
            <Node pos="r" depth="3" NCoef="0" IVar="-1" Cut="0.0000000000000000e+00" cType="1" res="-2.5624616071581841e-02" rms="4.6351778507232666e-01" purity="4.1394034028053284e-01" nType="-99"/>
          </Node>
        </Node>
      </Node>
    </BinaryTree>
    <BinaryTree type="DecisionTree" boostWeight="1.0000000000000000e+00" itree="22">
      <Node pos="s" depth="0" NCoef="0" IVar="8" Cut="4.6666665077209473e+00" cType="0" res="3.5214573144912720e-02" rms="2.9427716135978699e-01" purity="8.4172308444976807e-01" nType="0">
        <Node pos="l" depth="1" NCoef="0" IVar="9" Cut="5.6666665077209473e+00" cType="0" res="5.5876240134239197e-02" rms="1.8504723906517029e-01" purity="9.6118217706680298e-01" nType="0">
          <Node pos="l" depth="2" NCoef="0" IVar="10" Cut="8.7619047164916992e+00" cType="1" res="6.0599427670240402e-02" rms="1.5281645953655243e-01" purity="9.7509562969207764e-01" nType="0">
            <Node pos="l" depth="3" NCoef="0" IVar="-1" Cut="0.0000000000000000e+00" cType="1" res="4.8052664846181870e-02" rms="1.1279516667127609e-01" purity="9.8698616027832031e-01" nType="-99"/>
            <Node pos="r" depth="3" NCoef="0" IVar="-1" Cut="0.0000000000000000e+00" cType="1" res="3.6442577838897705e-02" rms="1.6042706370353699e-01" purity="9.7225999832153320e-01" nType="-99"/>
          </Node>
          <Node pos="r" depth="2" NCoef="0" IVar="6" Cut="1.5955157279968262e+00" cType="1" res="3.5236228257417679e-02" rms="2.8514176607131958e-01" purity="9.0038144588470459e-01" nType="0">
            <Node pos="l" depth="3" NCoef="0" IVar="-1" Cut="0.0000000000000000e+00" cType="1" res="2.2015329450368881e-02" rms="2.6028451323509216e-01" purity="9.2191654443740845e-01" nType="-99"/>
            <Node pos="r" depth="3" NCoef="0" IVar="-1" Cut="0.0000000000000000e+00" cType="1" res="-2.9953658580780029e-02" rms="4.5829480886459351e-01" purity="6.6281610727310181e-01" nType="-99"/>
          </Node>
        </Node>
        <Node pos="r" depth="1" NCoef="0" IVar="4" Cut="-1.0154114961624146e+00" cType="0" res="1.5098907984793186e-02" rms="3.6979964375495911e-01" purity="7.2542083263397217e-01" nType="0">
          <Node pos="l" depth="2" NCoef="0" IVar="6" Cut="3.4420685768127441e+00" cType="1" res="3.0239699408411980e-02" rms="3.5624051094055176e-01" purity="7.6174885034561157e-01" nType="0">
            <Node pos="l" depth="3" NCoef="0" IVar="-1" Cut="0.0000000000000000e+00" cType="1" res="1.2665179558098316e-02" rms="3.4393906593322754e-01" purity="7.8372043371200562e-01" nType="-99"/>
            <Node pos="r" depth="3" NCoef="0" IVar="-1" Cut="0.0000000000000000e+00" cType="1" res="-2.6963630691170692e-02" rms="4.5993208885192871e-01" purity="4.8955148458480835e-01" nType="-99"/>
          </Node>
          <Node pos="r" depth="2" NCoef="0" IVar="2" Cut="3.8095238208770752e+00" cType="1" res="-2.8331218287348747e-02" rms="4.0304604172706604e-01" purity="6.2121683359146118e-01" nType="0">
            <Node pos="l" depth="3" NCoef="0" IVar="-1" Cut="0.0000000000000000e+00" cType="1" res="3.7120098713785410e-03" rms="3.6964374780654907e-01" purity="6.7602318525314331e-01" nType="-99"/>
            <Node pos="r" depth="3" NCoef="0" IVar="-1" Cut="0.0000000000000000e+00" cType="1" res="-1.8550852313637733e-02" rms="4.3171977996826172e-01" purity="5.6230646371841431e-01" nType="-99"/>
          </Node>
        </Node>
      </Node>
    </BinaryTree>
    <BinaryTree type="DecisionTree" boostWeight="1.0000000000000000e+00" itree="23">
      <Node pos="s" depth="0" NCoef="0" IVar="2" Cut="8.9047622680664062e+00" cType="0" res="3.1985737383365631e-02" rms="2.9324027895927429e-01" purity="8.4236705303192139e-01" nType="0">
        <Node pos="l" depth="1" NCoef="0" IVar="10" Cut="2.2857143402099609e+01" cType="0" res="5.4953351616859436e-02" rms="1.4900180697441101e-01" purity="9.7683882713317871e-01" nType="0">
          <Node pos="l" depth="2" NCoef="0" IVar="10" Cut="2.7476190567016602e+01" cType="0" res="6.2365453690290451e-02" rms="8.7821587920188904e-02" purity="9.9225348234176636e-01" nType="0">
            <Node pos="l" depth="3" NCoef="0" IVar="-1" Cut="0.0000000000000000e+00" cType="1" res="4.9430590122938156e-02" rms="7.4665486812591553e-02" purity="9.9440425634384155e-01" nType="-99"/>
            <Node pos="r" depth="3" NCoef="0" IVar="-1" Cut="0.0000000000000000e+00" cType="1" res="4.3557330965995789e-02" rms="1.1668168008327484e-01" purity="9.8628544807434082e-01" nType="-99"/>
          </Node>
          <Node pos="r" depth="2" NCoef="0" IVar="10" Cut="9.1428575515747070e+00" cType="1" res="4.7698326408863068e-02" rms="1.9046519696712494e-01" purity="9.6175080537796021e-01" nType="0">
            <Node pos="l" depth="3" NCoef="0" IVar="-1" Cut="0.0000000000000000e+00" cType="1" res="4.6786155551671982e-02" rms="1.0595555603504181e-01" purity="9.8856246471405029e-01" nType="-99"/>
            <Node pos="r" depth="3" NCoef="0" IVar="-1" Cut="0.0000000000000000e+00" cType="1" res="2.1098349243402481e-02" rms="2.2668477892875671e-01" purity="9.4506269693374634e-01" nType="-99"/>
          </Node>
        </Node>
        <Node pos="r" depth="1" NCoef="0" IVar="4" Cut="-1.3074036836624146e+00" cType="0" res="1.7262261360883713e-02" rms="3.5542464256286621e-01" purity="7.5616335868835449e-01" nType="0">
          <Node pos="l" depth="2" NCoef="0" IVar="4" Cut="1.1944079399108887e+00" cType="1" res="2.9436210170388222e-02" rms="3.4043398499488831e-01" purity="7.9242128133773804e-01" nType="0">
            <Node pos="l" depth="3" NCoef="0" IVar="-1" Cut="0.0000000000000000e+00" cType="1" res="1.6784783452749252e-02" rms="3.1083512306213379e-01" purity="8.4562152624130249e-01" nType="-99"/>
            <Node pos="r" depth="3" NCoef="0" IVar="-1" Cut="0.0000000000000000e+00" cType="1" res="-8.2631027325987816e-03" rms="4.1424328088760376e-01" purity="6.2545740604400635e-01" nType="-99"/>
          </Node>
          <Node pos="r" depth="2" NCoef="0" IVar="6" Cut="1.4357097148895264e+00" cType="1" res="-3.7100352346897125e-02" rms="4.1144958138465881e-01" purity="5.9425425529479980e-01" nType="0">
            <Node pos="l" depth="3" NCoef="0" IVar="-1" Cut="0.0000000000000000e+00" cType="1" res="-1.6094674356281757e-03" rms="3.8015949726104736e-01" purity="6.8531358242034912e-01" nType="-99"/>
            <Node pos="r" depth="3" NCoef="0" IVar="-1" Cut="0.0000000000000000e+00" cType="1" res="-2.3608580231666565e-02" rms="4.6230700612068176e-01" purity="4.0842419862747192e-01" nType="-99"/>
          </Node>
        </Node>
      </Node>
    </BinaryTree>
    <BinaryTree type="DecisionTree" boostWeight="1.0000000000000000e+00" itree="24">
      <Node pos="s" depth="0" NCoef="0" IVar="6" Cut="1.0070758819580078e+01" cType="1" res="2.9652368277311325e-02" rms="2.9212784767150879e-01" purity="8.4319835901260376e-01" nType="0">
        <Node pos="l" depth="1" NCoef="0" IVar="6" Cut="1.4383671283721924e+00" cType="1" res="3.1266003847122192e-02" rms="2.8995302319526672e-01" purity="8.4634804725646973e-01" nType="0">
          <Node pos="l" depth="2" NCoef="0" IVar="8" Cut="2.6666667461395264e+00" cType="0" res="4.7008976340293884e-02" rms="2.5577107071876526e-01" purity="8.8849878311157227e-01" nType="0">
            <Node pos="l" depth="3" NCoef="0" IVar="-1" Cut="0.0000000000000000e+00" cType="1" res="2.2637337446212769e-02" rms="2.4972309172153473e-01" purity="9.0430122613906860e-01" nType="-99"/>
            <Node pos="r" depth="3" NCoef="0" IVar="-1" Cut="0.0000000000000000e+00" cType="1" res="-2.1553823724389076e-02" rms="4.1265267133712769e-01" purity="2.4105830490589142e-01" nType="-99"/>
          </Node>
          <Node pos="r" depth="2" NCoef="0" IVar="10" Cut="1.9714284896850586e+01" cType="0" res="-4.2712241411209106e-02" rms="4.0631571412086487e-01" purity="6.4827615022659302e-01" nType="0">
            <Node pos="l" depth="3" NCoef="0" IVar="-1" Cut="0.0000000000000000e+00" cType="1" res="3.6128476262092590e-02" rms="1.4911419153213501e-01" purity="9.7715038061141968e-01" nType="-99"/>
            <Node pos="r" depth="3" NCoef="0" IVar="-1" Cut="0.0000000000000000e+00" cType="1" res="-1.5410047024488449e-02" rms="4.2914965748786926e-01" purity="6.0136330127716064e-01" nType="-99"/>
          </Node>
        </Node>
        <Node pos="r" depth="1" NCoef="0" IVar="3" Cut="7.7303759753704071e-02" cType="1" res="-1.5381601452827454e-01" rms="4.4194686412811279e-01" purity="4.8508891463279724e-01" nType="0">
          <Node pos="l" depth="2" NCoef="0" IVar="3" Cut="5.3108103573322296e-02" cType="1" res="-8.1893488764762878e-02" rms="4.4001981616020203e-01" purity="6.0007637739181519e-01" nType="0">
            <Node pos="l" depth="3" NCoef="0" IVar="-1" Cut="0.0000000000000000e+00" cType="1" res="-2.4611675180494785e-03" rms="3.6833447217941284e-01" purity="7.4148148298263550e-01" nType="-99"/>
            <Node pos="r" depth="3" NCoef="0" IVar="-1" Cut="0.0000000000000000e+00" cType="1" res="-3.4364026039838791e-02" rms="4.9294099211692810e-01" purity="4.4952681660652161e-01" nType="-99"/>
          </Node>
          <Node pos="r" depth="2" NCoef="0" IVar="-1" Cut="0.0000000000000000e+00" cType="1" res="-6.7878954112529755e-02" rms="3.9189165830612183e-01" purity="1.9479267299175262e-01" nType="-99"/>
        </Node>
      </Node>
    </BinaryTree>
    <BinaryTree type="DecisionTree" boostWeight="1.0000000000000000e+00" itree="25">
      <Node pos="s" depth="0" NCoef="0" IVar="2" Cut="8.8095235824584961e+00" cType="0" res="2.6291999965906143e-02" rms="2.9215937852859497e-01" purity="8.4239202737808228e-01" nType="0">
        <Node pos="l" depth="1" NCoef="0" IVar="8" Cut="6.6666665077209473e+00" cType="0" res="4.7225844115018845e-02" rms="1.4774119853973389e-01" purity="9.7713869810104370e-01" nType="0">
          <Node pos="l" depth="2" NCoef="0" IVar="4" Cut="1.8198240995407104e+00" cType="0" res="5.3828969597816467e-02" rms="9.8171547055244446e-02" purity="9.9019646644592285e-01" nType="0">
            <Node pos="l" depth="3" NCoef="0" IVar="-1" Cut="0.0000000000000000e+00" cType="1" res="4.9488916993141174e-02" rms="6.8151079118251801e-02" purity="9.9531918764114380e-01" nType="-99"/>
            <Node pos="r" depth="3" NCoef="0" IVar="-1" Cut="0.0000000000000000e+00" cType="1" res="4.3485131114721298e-02" rms="1.0787784308195114e-01" purity="9.8813021183013916e-01" nType="-99"/>
          </Node>
          <Node pos="r" depth="2" NCoef="0" IVar="10" Cut="9.2380952835083008e+00" cType="1" res="4.0853705257177353e-02" rms="1.8305239081382751e-01" purity="9.6453773975372314e-01" nType="0">
            <Node pos="l" depth="3" NCoef="0" IVar="-1" Cut="0.0000000000000000e+00" cType="1" res="4.4059287756681442e-02" rms="1.1328936368227005e-01" purity="9.8684793710708618e-01" nType="-99"/>
            <Node pos="r" depth="3" NCoef="0" IVar="-1" Cut="0.0000000000000000e+00" cType="1" res="2.0743081346154213e-02" rms="2.1397197246551514e-01" purity="9.5095628499984741e-01" nType="-99"/>
          </Node>
        </Node>
        <Node pos="r" depth="1" NCoef="0" IVar="4" Cut="1.3196426630020142e+00" cType="1" res="1.2883918359875679e-02" rms="3.5438287258148193e-01" purity="7.5608706474304199e-01" nType="0">
          <Node pos="l" depth="2" NCoef="0" IVar="4" Cut="-1.1822141408920288e+00" cType="0" res="2.3000409826636314e-02" rms="3.3865478634834290e-01" purity="7.8798329830169678e-01" nType="0">
            <Node pos="l" depth="3" NCoef="0" IVar="-1" Cut="0.0000000000000000e+00" cType="1" res="1.4736914075911045e-02" rms="3.1040927767753601e-01" purity="8.4609222412109375e-01" nType="-99"/>
            <Node pos="r" depth="3" NCoef="0" IVar="-1" Cut="0.0000000000000000e+00" cType="1" res="-8.8160615414381027e-03" rms="4.0743309259414673e-01" purity="6.1237090826034546e-01" nType="-99"/>
          </Node>
          <Node pos="r" depth="2" NCoef="0" IVar="6" Cut="6.2856478691101074e+00" cType="1" res="-3.5491026937961578e-02" rms="4.1818654537200928e-01" purity="6.0356587171554565e-01" nType="0">
            <Node pos="l" depth="3" NCoef="0" IVar="-1" Cut="0.0000000000000000e+00" cType="1" res="-6.8238750100135803e-03" rms="4.1508793830871582e-01" purity="6.1911070346832275e-01" nType="-99"/>
            <Node pos="r" depth="3" NCoef="0" IVar="-1" Cut="0.0000000000000000e+00" cType="1" res="-5.6443627923727036e-02" rms="4.2400103807449341e-01" purity="2.5451648235321045e-01" nType="-99"/>
          </Node>
        </Node>
      </Node>
    </BinaryTree>
    <BinaryTree type="DecisionTree" boostWeight="1.0000000000000000e+00" itree="26">
      <Node pos="s" depth="0" NCoef="0" IVar="6" Cut="4.0983624458312988e+00" cType="1" res="2.3904100060462952e-02" rms="2.9190602898597717e-01" purity="8.4264892339706421e-01" nType="0">
        <Node pos="l" depth="1" NCoef="0" IVar="6" Cut="1.1709241867065430e+00" cType="1" res="2.8776319697499275e-02" rms="2.8319346904754639e-01" purity="8.5646355152130127e-01" nType="0">
          <Node pos="l" depth="2" NCoef="0" IVar="8" Cut="2.6666667461395264e+00" cType="0" res="4.3305877596139908e-02" rms="2.4864549934864044e-01" purity="8.9451330900192261e-01" nType="0">
            <Node pos="l" depth="3" NCoef="0" IVar="-1" Cut="0.0000000000000000e+00" cType="1" res="2.2029463201761246e-02" rms="2.4303381145000458e-01" purity="9.0988630056381226e-01" nType="-99"/>
            <Node pos="r" depth="3" NCoef="0" IVar="-1" Cut="0.0000000000000000e+00" cType="1" res="-2.1786270663142204e-02" rms="4.0342527627944946e-01" purity="2.2670851647853851e-01" nType="-99"/>
          </Node>
          <Node pos="r" depth="2" NCoef="0" IVar="10" Cut="2.0476190567016602e+01" cType="0" res="-2.1046068519353867e-02" rms="3.7416219711303711e-01" purity="7.2598969936370850e-01" nType="0">
            <Node pos="l" depth="3" NCoef="0" IVar="-1" Cut="0.0000000000000000e+00" cType="1" res="3.5808075219392776e-02" rms="1.3636764883995056e-01" purity="9.8104602098464966e-01" nType="-99"/>
            <Node pos="r" depth="3" NCoef="0" IVar="-1" Cut="0.0000000000000000e+00" cType="1" res="-1.0204495862126350e-02" rms="4.0472579002380371e-01" purity="6.7411202192306519e-01" nType="-99"/>
          </Node>
        </Node>
        <Node pos="r" depth="1" NCoef="0" IVar="10" Cut="3.3809523582458496e+00" cType="0" res="-9.0920560061931610e-02" rms="4.3537411093711853e-01" purity="5.1707571744918823e-01" nType="0">
          <Node pos="l" depth="2" NCoef="0" IVar="2" Cut="1.2142857551574707e+01" cType="0" res="-2.0415503531694412e-02" rms="3.8951417803764343e-01" purity="7.3317176103591919e-01" nType="0">
            <Node pos="l" depth="3" NCoef="0" IVar="-1" Cut="0.0000000000000000e+00" cType="1" res="2.8587166219949722e-02" rms="1.7847461998462677e-01" purity="9.6655327081680298e-01" nType="-99"/>
            <Node pos="r" depth="3" NCoef="0" IVar="-1" Cut="0.0000000000000000e+00" cType="1" res="-1.3917706906795502e-02" rms="4.5610040426254272e-01" purity="6.1878299713134766e-01" nType="-99"/>
          </Node>
          <Node pos="r" depth="2" NCoef="0" IVar="5" Cut="7.6762928962707520e+00" cType="1" res="-1.2321630865335464e-01" rms="4.5117488503456116e-01" purity="4.1809019446372986e-01" nType="0">
            <Node pos="l" depth="3" NCoef="0" IVar="-1" Cut="0.0000000000000000e+00" cType="1" res="-2.0435728132724762e-02" rms="4.4727557897567749e-01" purity="4.5671439170837402e-01" nType="-99"/>
            <Node pos="r" depth="3" NCoef="0" IVar="-1" Cut="0.0000000000000000e+00" cType="1" res="-4.0955733507871628e-02" rms="4.4949460029602051e-01" purity="3.5330435633659363e-01" nType="-99"/>
          </Node>
        </Node>
      </Node>
    </BinaryTree>
    <BinaryTree type="DecisionTree" boostWeight="1.0000000000000000e+00" itree="27">
      <Node pos="s" depth="0" NCoef="0" IVar="2" Cut="8.8095235824584961e+00" cType="0" res="2.1112259477376938e-02" rms="2.9156535863876343e-01" purity="8.4205949306488037e-01" nType="0">
        <Node pos="l" depth="1" NCoef="0" IVar="10" Cut="1.9238094329833984e+01" cType="0" res="4.0413960814476013e-02" rms="1.4766643941402435e-01" purity="9.7709554433822632e-01" nType="0">
          <Node pos="l" depth="2" NCoef="0" IVar="8" Cut="4.0952382087707520e+00" cType="0" res="4.6031162142753601e-02" rms="9.4707429409027100e-02" purity="9.9096089601516724e-01" nType="0">
            <Node pos="l" depth="3" NCoef="0" IVar="-1" Cut="0.0000000000000000e+00" cType="1" res="4.4196099042892456e-02" rms="9.4104766845703125e-02" purity="9.9104684591293335e-01" nType="-99"/>
            <Node pos="r" depth="3" NCoef="0" IVar="-1" Cut="0.0000000000000000e+00" cType="1" res="4.7603450715541840e-02" rms="1.2913636863231659e-01" purity="9.8374760150909424e-01" nType="-99"/>
          </Node>
          <Node pos="r" depth="2" NCoef="0" IVar="9" Cut="7.2857141494750977e+00" cType="1" res="3.3800620585680008e-02" rms="1.9192877411842346e-01" purity="9.6077132225036621e-01" nType="0">
            <Node pos="l" depth="3" NCoef="0" IVar="-1" Cut="0.0000000000000000e+00" cType="1" res="3.3942945301532745e-02" rms="1.5897181630134583e-01" purity="9.7356551885604858e-01" nType="-99"/>
            <Node pos="r" depth="3" NCoef="0" IVar="-1" Cut="0.0000000000000000e+00" cType="1" res="5.9639443643391132e-03" rms="2.5064855813980103e-01" purity="9.3100559711456299e-01" nType="-99"/>
          </Node>
        </Node>
        <Node pos="r" depth="1" NCoef="0" IVar="2" Cut="3.2380952835083008e+00" cType="1" res="8.7018469348549843e-03" rms="3.5391482710838318e-01" purity="7.5523543357849121e-01" nType="0">
          <Node pos="l" depth="2" NCoef="0" IVar="8" Cut="2.1428570747375488e+00" cType="0" res="4.0113709867000580e-02" rms="3.3027699589729309e-01" purity="7.6952856779098511e-01" nType="0">
            <Node pos="l" depth="3" NCoef="0" IVar="-1" Cut="0.0000000000000000e+00" cType="1" res="1.9906336441636086e-02" rms="3.0318015813827515e-01" purity="8.7204158306121826e-01" nType="-99"/>
            <Node pos="r" depth="3" NCoef="0" IVar="-1" Cut="0.0000000000000000e+00" cType="1" res="-1.1301538906991482e-02" rms="4.3191644549369812e-01" purity="2.5236287713050842e-01" nType="-99"/>
          </Node>
          <Node pos="r" depth="2" NCoef="0" IVar="8" Cut="3.1428570747375488e+00" cType="0" res="-9.5839919522404671e-03" rms="3.6573436856269836e-01" purity="7.4691492319107056e-01" nType="0">
            <Node pos="l" depth="3" NCoef="0" IVar="-1" Cut="0.0000000000000000e+00" cType="1" res="5.5923517793416977e-03" rms="3.4894663095474243e-01" purity="8.3341681957244873e-01" nType="-99"/>
            <Node pos="r" depth="3" NCoef="0" IVar="-1" Cut="0.0000000000000000e+00" cType="1" res="-3.1287502497434616e-02" rms="4.1945582628250122e-01" purity="2.9052188992500305e-01" nType="-99"/>
          </Node>
        </Node>
      </Node>
    </BinaryTree>
    <BinaryTree type="DecisionTree" boostWeight="1.0000000000000000e+00" itree="28">
      <Node pos="s" depth="0" NCoef="0" IVar="5" Cut="8.5838060379028320e+00" cType="1" res="1.9204389303922653e-02" rms="2.9126855731010437e-01" purity="8.4200763702392578e-01" nType="0">
        <Node pos="l" depth="1" NCoef="0" IVar="6" Cut="1.2257962226867676e+00" cType="1" res="2.1212005987763405e-02" rms="2.8836819529533386e-01" purity="8.4663796424865723e-01" nType="0">
          <Node pos="l" depth="2" NCoef="0" IVar="8" Cut="2.6666667461395264e+00" cType="0" res="3.5719875246286392e-02" rms="2.4970474839210510e-01" purity="8.9261919260025024e-01" nType="0">
            <Node pos="l" depth="3" NCoef="0" IVar="-1" Cut="0.0000000000000000e+00" cType="1" res="1.9157662987709045e-02" rms="2.4428614974021912e-01" purity="9.0814960002899170e-01" nType="-99"/>
            <Node pos="r" depth="3" NCoef="0" IVar="-1" Cut="0.0000000000000000e+00" cType="1" res="-1.9118379801511765e-02" rms="4.0460169315338135e-01" purity="2.2584640979766846e-01" nType="-99"/>
          </Node>
          <Node pos="r" depth="2" NCoef="0" IVar="10" Cut="2.0476190567016602e+01" cType="0" res="-2.7770910412073135e-02" rms="3.8766726851463318e-01" purity="6.9139158725738525e-01" nType="0">
            <Node pos="l" depth="3" NCoef="0" IVar="-1" Cut="0.0000000000000000e+00" cType="1" res="3.3156700432300568e-02" rms="1.3567785918712616e-01" purity="9.8123800754547119e-01" nType="-99"/>
            <Node pos="r" depth="3" NCoef="0" IVar="-1" Cut="0.0000000000000000e+00" cType="1" res="-1.1301944963634014e-02" rms="4.1547009348869324e-01" purity="6.4071273803710938e-01" nType="-99"/>
          </Node>
        </Node>
        <Node pos="r" depth="1" NCoef="0" IVar="10" Cut="4.0952382087707520e+00" cType="0" res="-1.2923806905746460e-01" rms="4.3221408128738403e-01" purity="4.9964261054992676e-01" nType="0">
          <Node pos="l" depth="2" NCoef="0" IVar="6" Cut="1.1828677177429199e+01" cType="0" res="-1.9288819283246994e-02" rms="3.6110374331474304e-01" purity="7.7558255195617676e-01" nType="0">
            <Node pos="l" depth="3" NCoef="0" IVar="-1" Cut="0.0000000000000000e+00" cType="1" res="7.4101337231695652e-03" rms="3.3590996265411377e-01" purity="8.0213272571563721e-01" nType="-99"/>
            <Node pos="r" depth="3" NCoef="0" IVar="-1" Cut="0.0000000000000000e+00" cType="1" res="-1.9814273342490196e-02" rms="3.7640547752380371e-01" purity="7.5575220584869385e-01" nType="-99"/>
          </Node>
          <Node pos="r" depth="2" NCoef="0" IVar="4" Cut="1.5544737577438354e+00" cType="1" res="-1.8916070461273193e-01" rms="4.5538458228111267e-01" purity="3.4925454854965210e-01" nType="0">
            <Node pos="l" depth="3" NCoef="0" IVar="-1" Cut="0.0000000000000000e+00" cType="1" res="-3.1761188060045242e-02" rms="4.7143816947937012e-01" purity="4.0355676412582397e-01" nType="-99"/>
            <Node pos="r" depth="3" NCoef="0" IVar="-1" Cut="0.0000000000000000e+00" cType="1" res="-7.3500894010066986e-02" rms="3.3071869611740112e-01" purity="1.2177650630474091e-01" nType="-99"/>
          </Node>
        </Node>
      </Node>
    </BinaryTree>
    <BinaryTree type="DecisionTree" boostWeight="1.0000000000000000e+00" itree="29">
      <Node pos="s" depth="0" NCoef="0" IVar="8" Cut="4.6666665077209473e+00" cType="0" res="1.7092326655983925e-02" rms="2.9055941104888916e-01" purity="8.4211468696594238e-01" nType="0">
        <Node pos="l" depth="1" NCoef="0" IVar="3" Cut="3.8224183022975922e-02" cType="1" res="3.1827371567487717e-02" rms="1.8385095894336700e-01" purity="9.6114581823348999e-01" nType="0">
          <Node pos="l" depth="2" NCoef="0" IVar="3" Cut="1.3504532165825367e-02" cType="1" res="3.2625053077936172e-02" rms="1.8051949143409729e-01" purity="9.6290612220764160e-01" nType="0">
            <Node pos="l" depth="3" NCoef="0" IVar="-1" Cut="0.0000000000000000e+00" cType="1" res="3.7361729890108109e-02" rms="1.4474868774414062e-01" purity="9.7801774740219116e-01" nType="-99"/>
            <Node pos="r" depth="3" NCoef="0" IVar="-1" Cut="0.0000000000000000e+00" cType="1" res="2.1888621151447296e-02" rms="1.9016465544700623e-01" purity="9.5811855792999268e-01" nType="-99"/>
          </Node>
          <Node pos="r" depth="2" NCoef="0" IVar="10" Cut="1.0714285850524902e+01" cType="0" res="-5.3096499294042587e-02" rms="3.9465951919555664e-01" purity="7.7374154329299927e-01" nType="0">
            <Node pos="l" depth="3" NCoef="0" IVar="-1" Cut="0.0000000000000000e+00" cType="1" res="-4.9237213097512722e-03" rms="2.9533135890960693e-01" purity="8.9009791612625122e-01" nType="-99"/>
            <Node pos="r" depth="3" NCoef="0" IVar="-1" Cut="0.0000000000000000e+00" cType="1" res="-2.6990270242094994e-02" rms="4.6345704793930054e-01" purity="6.6765874624252319e-01" nType="-99"/>
          </Node>
        </Node>
        <Node pos="r" depth="1" NCoef="0" IVar="9" Cut="3.1428570747375488e+00" cType="1" res="2.7098925784230232e-03" rms="3.6526450514793396e-01" purity="7.2593194246292114e-01" nType="0">
          <Node pos="l" depth="2" NCoef="0" IVar="6" Cut="1.0070758819580078e+01" cType="1" res="3.5157512873411179e-02" rms="3.3292588591575623e-01" purity="7.6426053047180176e-01" nType="0">
            <Node pos="l" depth="3" NCoef="0" IVar="-1" Cut="0.0000000000000000e+00" cType="1" res="1.3676134869456291e-02" rms="3.2728308439254761e-01" purity="7.7547287940979004e-01" nType="-99"/>
            <Node pos="r" depth="3" NCoef="0" IVar="-1" Cut="0.0000000000000000e+00" cType="1" res="-3.4591179341077805e-02" rms="4.5539754629135132e-01" purity="3.4720000624656677e-01" nType="-99"/>
          </Node>
          <Node pos="r" depth="2" NCoef="0" IVar="8" Cut="3.0476191043853760e+00" cType="0" res="-2.3847997188568115e-02" rms="3.8772580027580261e-01" purity="6.9456064701080322e-01" nType="0">
            <Node pos="l" depth="3" NCoef="0" IVar="-1" Cut="0.0000000000000000e+00" cType="1" res="2.0433326717466116e-03" rms="3.7579092383384705e-01" purity="8.0133569240570068e-01" nType="-99"/>
            <Node pos="r" depth="3" NCoef="0" IVar="-1" Cut="0.0000000000000000e+00" cType="1" res="-3.0677303671836853e-02" rms="4.1037863492965698e-01" purity="2.8829124569892883e-01" nType="-99"/>
          </Node>
        </Node>
      </Node>
    </BinaryTree>
    <BinaryTree type="DecisionTree" boostWeight="1.0000000000000000e+00" itree="30">
      <Node pos="s" depth="0" NCoef="0" IVar="6" Cut="5.2977542877197266e+00" cType="1" res="1.5865568071603775e-02" rms="2.8994923830032349e-01" purity="8.4217768907546997e-01" nType="0">
        <Node pos="l" depth="1" NCoef="0" IVar="6" Cut="1.0090587139129639e+00" cType="1" res="1.8943406641483307e-02" rms="2.8426060080528259e-01" purity="8.5180962085723877e-01" nType="0">
          <Node pos="l" depth="2" NCoef="0" IVar="8" Cut="2.6666667461395264e+00" cType="0" res="3.4517139196395874e-02" rms="2.4272736907005310e-01" purity="8.9689552783966064e-01" nType="0">
            <Node pos="l" depth="3" NCoef="0" IVar="-1" Cut="0.0000000000000000e+00" cType="1" res="1.9472494721412659e-02" rms="2.3748581111431122e-01" purity="9.1272896528244019e-01" nType="-99"/>
