<?xml version="1.0"?>
<MethodSetup Method="BDT::BDTG">
  <GeneralInfo>
    <Info name="TMVA Release" value="4.1.3 [262403]"/>
    <Info name="ROOT Release" value="5.34/01 [336385]"/>
    <Info name="Creator" value="mwalker"/>
    <Info name="Date" value="Mon Feb  4 11:00:30 2013"/>
    <Info name="Host" value="Linux lxbuild168.cern.ch 2.6.18-308.1.1.el5 #1 SMP Wed Mar 7 19:25:07 CET 2012 x86_64 x86_64 x86_64 GNU/Linux"/>
    <Info name="Dir" value="/afs/cern.ch/work/m/mwalker/Tracking/20121212_mvaPurity/PURITYV00ITER4"/>
    <Info name="Training events" value="282491"/>
    <Info name="TrainingTime" value="5.68488566e+02"/>
    <Info name="AnalysisType" value="Classification"/>
  </GeneralInfo>
  <Options>
    <Option name="V" modified="Yes">False</Option>
    <Option name="VerbosityLevel" modified="No">Default</Option>
    <Option name="VarTransform" modified="No">None</Option>
    <Option name="H" modified="Yes">False</Option>
    <Option name="CreateMVAPdfs" modified="No">False</Option>
    <Option name="IgnoreNegWeightsInTraining" modified="No">False</Option>
    <Option name="NTrees" modified="Yes">1000</Option>
    <Option name="RenormByClass" modified="No">False</Option>
    <Option name="BoostType" modified="Yes">Grad</Option>
    <Option name="AdaBoostR2Loss" modified="No">quadratic</Option>
    <Option name="UseBaggedGrad" modified="Yes">True</Option>
    <Option name="GradBaggingFraction" modified="Yes">5.000000e-01</Option>
    <Option name="Shrinkage" modified="Yes">1.000000e-01</Option>
    <Option name="AdaBoostBeta" modified="No">1.000000e+00</Option>
    <Option name="UseRandomisedTrees" modified="No">False</Option>
    <Option name="UseNvars" modified="No">3</Option>
    <Option name="UsePoissonNvars" modified="No">True</Option>
    <Option name="UseNTrainEvents" modified="No">282491</Option>
    <Option name="UseWeightedTrees" modified="No">True</Option>
    <Option name="UseYesNoLeaf" modified="No">True</Option>
    <Option name="NodePurityLimit" modified="No">5.000000e-01</Option>
    <Option name="SeparationType" modified="No">giniindex</Option>
    <Option name="nEventsMin" modified="No">233</Option>
    <Option name="nCuts" modified="Yes">20</Option>
    <Option name="UseFisherCuts" modified="No">False</Option>
    <Option name="MinLinCorrForFisher" modified="No">8.000000e-01</Option>
    <Option name="UseExclusiveVars" modified="No">False</Option>
    <Option name="PruneStrength" modified="No">0.000000e+00</Option>
    <Option name="PruneMethod" modified="No">nopruning</Option>
    <Option name="PruneBeforeBoost" modified="No">False</Option>
    <Option name="PruningValFraction" modified="No">5.000000e-01</Option>
    <Option name="NNodesMax" modified="Yes">15</Option>
    <Option name="MaxDepth" modified="Yes">3</Option>
    <Option name="DoBoostMonitor" modified="No">False</Option>
    <Option name="NegWeightTreatment" modified="No">ignorenegweights</Option>
  </Options>
  <Variables NVar="11">
    <Variable VarIndex="0" Expression="lostmidfrac" Label="lostmidfrac" Title="lostmidfrac" Unit="" Internal="lostmidfrac" Type="F" Min="0.00000000e+00" Max="4.00000006e-01"/>
    <Variable VarIndex="1" Expression="minlost" Label="minlost" Title="minlost" Unit="" Internal="minlost" Type="F" Min="0.00000000e+00" Max="4.00000000e+00"/>
    <Variable VarIndex="2" Expression="nhits" Label="nhits" Title="nhits" Unit="" Internal="nhits" Type="F" Min="3.00000000e+00" Max="5.30000000e+01"/>
    <Variable VarIndex="3" Expression="relpterr" Label="relpterr" Title="relpterr" Unit="" Internal="relpterr" Type="F" Min="4.21166047e-03" Max="1.05716816e+04"/>
    <Variable VarIndex="4" Expression="eta" Label="eta" Title="eta" Unit="" Internal="eta" Type="F" Min="-2.95506048e+00" Max="3.06372833e+00"/>
    <Variable VarIndex="5" Expression="chi2n_no1Dmod" Label="chi2n_no1Dmod" Title="chi2n_no1Dmod" Unit="" Internal="chi2n_no1Dmod" Type="F" Min="-7.02608185e+01" Max="6.82340918e+03"/>
    <Variable VarIndex="6" Expression="chi2n" Label="chi2n" Title="chi2n" Unit="" Internal="chi2n" Type="F" Min="1.47297214e-07" Max="7.22608185e+01"/>
    <Variable VarIndex="7" Expression="nlayerslost" Label="nlayerslost" Title="nlayerslost" Unit="" Internal="nlayerslost" Type="F" Min="0.00000000e+00" Max="2.00000000e+00"/>
    <Variable VarIndex="8" Expression="nlayers3D" Label="nlayers3D" Title="nlayers3D" Unit="" Internal="nlayers3D" Type="F" Min="0.00000000e+00" Max="1.20000000e+01"/>
    <Variable VarIndex="9" Expression="nlayers" Label="nlayers" Title="nlayers" Unit="" Internal="nlayers" Type="F" Min="1.00000000e+00" Max="1.80000000e+01"/>
    <Variable VarIndex="10" Expression="ndof" Label="ndof" Title="ndof" Unit="" Internal="ndof" Type="F" Min="-2.00000000e+00" Max="5.70000000e+01"/>
  </Variables>
  <Spectators NSpec="0"/>
  <Classes NClass="2">
    <Class Name="Signal" Index="0"/>
    <Class Name="Background" Index="1"/>
  </Classes>
  <Transformations NTransformations="0"/>
  <MVAPdfs/>
  <Weights NTrees="1000" AnalysisType="1">
    <BinaryTree type="DecisionTree" boostWeight="1.0000000000000000e+00" itree="0">
      <Node pos="s" depth="0" NCoef="0" IVar="9" Cut="4.2380952835083008e+00" cType="0" res="-2.6361215114593506e-01" rms="4.2486307024955750e-01" purity="2.3638786375522614e-01" nType="0">
        <Node pos="l" depth="1" NCoef="0" IVar="8" Cut="3.3333332538604736e+00" cType="0" res="4.4374841451644897e-01" rms="2.3040693998336792e-01" purity="9.4374841451644897e-01" nType="0">
          <Node pos="l" depth="2" NCoef="0" IVar="9" Cut="5.6190476417541504e+00" cType="0" res="4.6954292058944702e-01" rms="1.7184133827686310e-01" purity="9.6954292058944702e-01" nType="0">
            <Node pos="l" depth="3" NCoef="0" IVar="-1" Cut="0.0000000000000000e+00" cType="1" res="9.8247177898883820e-02" rms="9.3205653131008148e-02" purity="9.9123591184616089e-01" nType="-99"/>
            <Node pos="r" depth="3" NCoef="0" IVar="-1" Cut="0.0000000000000000e+00" cType="1" res="6.9376856088638306e-02" rms="3.6009901762008667e-01" purity="8.4688425064086914e-01" nType="-99"/>
          </Node>
          <Node pos="r" depth="2" NCoef="0" IVar="5" Cut="1.4453396797180176e+00" cType="1" res="-1.1191162467002869e-01" rms="4.8731487989425659e-01" purity="3.8808837532997131e-01" nType="0">
            <Node pos="l" depth="3" NCoef="0" IVar="-1" Cut="0.0000000000000000e+00" cType="1" res="-1.5923567116260529e-03" rms="4.9993661046028137e-01" purity="4.9203822016716003e-01" nType="-99"/>
            <Node pos="r" depth="3" NCoef="0" IVar="-1" Cut="0.0000000000000000e+00" cType="1" res="-5.3995158523321152e-02" rms="4.2084804177284241e-01" purity="2.3002421855926514e-01" nType="-99"/>
          </Node>
        </Node>
        <Node pos="r" depth="1" NCoef="0" IVar="2" Cut="4.1428570747375488e+00" cType="0" res="-4.0468987822532654e-01" rms="2.9364284873008728e-01" purity="9.5310136675834656e-02" nType="0">
          <Node pos="l" depth="2" NCoef="0" IVar="8" Cut="3.1428570747375488e+00" cType="0" res="-3.4772795438766479e-01" rms="3.5928440093994141e-01" purity="1.5227204561233521e-01" nType="0">
            <Node pos="l" depth="3" NCoef="0" IVar="-1" Cut="0.0000000000000000e+00" cType="1" res="-3.5925056785345078e-02" rms="4.6662056446075439e-01" purity="3.2037469744682312e-01" nType="-99"/>
            <Node pos="r" depth="3" NCoef="0" IVar="-1" Cut="0.0000000000000000e+00" cType="1" res="-7.3105216026306152e-02" rms="3.4116080403327942e-01" purity="1.3447391986846924e-01" nType="-99"/>
          </Node>
          <Node pos="r" depth="2" NCoef="0" IVar="2" Cut="3.0476191043853760e+00" cType="1" res="-4.7976672649383545e-01" rms="1.4079730212688446e-01" purity="2.0233264192938805e-02" nType="0">
            <Node pos="l" depth="3" NCoef="0" IVar="-1" Cut="0.0000000000000000e+00" cType="1" res="-8.3627939224243164e-02" rms="2.7415177226066589e-01" purity="8.1860303878784180e-02" nType="-99"/>
            <Node pos="r" depth="3" NCoef="0" IVar="-1" Cut="0.0000000000000000e+00" cType="1" res="-9.7551800310611725e-02" rms="1.0995976626873016e-01" purity="1.2240991927683353e-02" nType="-99"/>
          </Node>
        </Node>
      </Node>
    </BinaryTree>
    <BinaryTree type="DecisionTree" boostWeight="1.0000000000000000e+00" itree="1">
      <Node pos="s" depth="0" NCoef="0" IVar="9" Cut="4.2380952835083008e+00" cType="0" res="-2.3735223710536957e-01" rms="3.9999920129776001e-01" purity="2.3637674748897552e-01" nType="0">
        <Node pos="l" depth="1" NCoef="0" IVar="8" Cut="3.4285714626312256e+00" cType="0" res="4.0190893411636353e-01" rms="2.1849411725997925e-01" purity="9.4625711441040039e-01" nType="0">
          <Node pos="l" depth="2" NCoef="0" IVar="9" Cut="5.6190476417541504e+00" cType="0" res="4.2318588495254517e-01" rms="1.6906403005123138e-01" purity="9.7000354528427124e-01" nType="0">
            <Node pos="l" depth="3" NCoef="0" IVar="-1" Cut="0.0000000000000000e+00" cType="1" res="8.9499212801456451e-02" rms="8.8138103485107422e-02" purity="9.9217039346694946e-01" nType="-99"/>
            <Node pos="r" depth="3" NCoef="0" IVar="-1" Cut="0.0000000000000000e+00" cType="1" res="6.2229294329881668e-02" rms="3.6258345842361450e-01" purity="8.4428656101226807e-01" nType="-99"/>
          </Node>
          <Node pos="r" depth="2" NCoef="0" IVar="5" Cut="1.6001164913177490e+00" cType="1" res="-7.6631233096122742e-02" rms="4.8930388689041138e-01" purity="4.1217565536499023e-01" nType="0">
            <Node pos="l" depth="3" NCoef="0" IVar="-1" Cut="0.0000000000000000e+00" cType="1" res="8.0384867032989860e-04" rms="4.9970108270645142e-01" purity="5.0074964761734009e-01" nType="-99"/>
            <Node pos="r" depth="3" NCoef="0" IVar="-1" Cut="0.0000000000000000e+00" cType="1" res="-4.7579996287822723e-02" rms="4.2451077699661255e-01" purity="2.3582088947296143e-01" nType="-99"/>
          </Node>
        </Node>
        <Node pos="r" depth="1" NCoef="0" IVar="2" Cut="4.3333334922790527e+00" cType="0" res="-3.6504390835762024e-01" rms="2.9067099094390869e-01" purity="9.4578996300697327e-02" nType="0">
          <Node pos="l" depth="2" NCoef="0" IVar="8" Cut="3.1428570747375488e+00" cType="0" res="-3.1437990069389343e-01" rms="3.5718759894371033e-01" purity="1.5088933706283569e-01" nType="0">
            <Node pos="l" depth="3" NCoef="0" IVar="-1" Cut="0.0000000000000000e+00" cType="1" res="-3.3931151032447815e-02" rms="4.6355617046356201e-01" purity="3.1260821223258972e-01" nType="-99"/>
            <Node pos="r" depth="3" NCoef="0" IVar="-1" Cut="0.0000000000000000e+00" cType="1" res="-6.6264726221561432e-02" rms="3.4060198068618774e-01" purity="1.3395315408706665e-01" nType="-99"/>
          </Node>
          <Node pos="r" depth="2" NCoef="0" IVar="2" Cut="3.0476191043853760e+00" cType="1" res="-4.3185156583786011e-01" rms="1.4077258110046387e-01" purity="2.0325843244791031e-02" nType="0">
            <Node pos="l" depth="3" NCoef="0" IVar="-1" Cut="0.0000000000000000e+00" cType="1" res="-7.5521364808082581e-02" rms="2.7634268999099731e-01" purity="8.3305001258850098e-02" nType="-99"/>
            <Node pos="r" depth="3" NCoef="0" IVar="-1" Cut="0.0000000000000000e+00" cType="1" res="-8.8697843253612518e-02" rms="1.0925558954477310e-01" purity="1.2082776986062527e-02" nType="-99"/>
          </Node>
        </Node>
      </Node>
    </BinaryTree>
    <BinaryTree type="DecisionTree" boostWeight="1.0000000000000000e+00" itree="2">
      <Node pos="s" depth="0" NCoef="0" IVar="9" Cut="4.2380952835083008e+00" cType="0" res="-2.1496738493442535e-01" rms="3.7811866402626038e-01" purity="2.3491409420967102e-01" nType="0">
        <Node pos="l" depth="1" NCoef="0" IVar="8" Cut="3.0952382087707520e+00" cType="0" res="3.6052834987640381e-01" rms="2.1579430997371674e-01" purity="9.4459217786788940e-01" nType="0">
          <Node pos="l" depth="2" NCoef="0" IVar="9" Cut="5.6190476417541504e+00" cType="0" res="3.8039579987525940e-01" rms="1.7037965357303619e-01" purity="9.6908879280090332e-01" nType="0">
            <Node pos="l" depth="3" NCoef="0" IVar="-1" Cut="0.0000000000000000e+00" cType="1" res="8.2492575049400330e-02" rms="9.4208180904388428e-02" purity="9.9104464054107666e-01" nType="-99"/>
            <Node pos="r" depth="3" NCoef="0" IVar="-1" Cut="0.0000000000000000e+00" cType="1" res="5.6739293038845062e-02" rms="3.6260417103767395e-01" purity="8.4426474571228027e-01" nType="-99"/>
          </Node>
          <Node pos="r" depth="2" NCoef="0" IVar="6" Cut="1.1173412799835205e+00" cType="1" res="-8.4733746945858002e-02" rms="4.8220029473304749e-01" purity="3.9558231830596924e-01" nType="0">
            <Node pos="l" depth="3" NCoef="0" IVar="-1" Cut="0.0000000000000000e+00" cType="1" res="1.3531770557165146e-02" rms="4.9545481801033020e-01" purity="5.6726455688476562e-01" nType="-99"/>
            <Node pos="r" depth="3" NCoef="0" IVar="-1" Cut="0.0000000000000000e+00" cType="1" res="-4.1946832090616226e-02" rms="4.3348100781440735e-01" purity="2.5636363029479980e-01" nType="-99"/>
          </Node>
        </Node>
        <Node pos="r" depth="1" NCoef="0" IVar="2" Cut="4.3333334922790527e+00" cType="0" res="-3.2868540287017822e-01" rms="2.8921899199485779e-01" purity="9.4681628048419952e-02" nType="0">
          <Node pos="l" depth="2" NCoef="0" IVar="8" Cut="3.1428570747375488e+00" cType="0" res="-2.8212535381317139e-01" rms="3.5754764080047607e-01" purity="1.5189987421035767e-01" nType="0">
            <Node pos="l" depth="3" NCoef="0" IVar="-1" Cut="0.0000000000000000e+00" cType="1" res="-2.9456650838255882e-02" rms="4.6591863036155701e-01" purity="3.1856173276901245e-01" nType="-99"/>
            <Node pos="r" depth="3" NCoef="0" IVar="-1" Cut="0.0000000000000000e+00" cType="1" res="-6.0427561402320862e-02" rms="3.4110137820243835e-01" purity="1.3441847264766693e-01" nType="-99"/>
          </Node>
          <Node pos="r" depth="2" NCoef="0" IVar="2" Cut="3.0476191043853760e+00" cType="1" res="-3.8941207528114319e-01" rms="1.3961912691593170e-01" purity="2.0053893327713013e-02" nType="0">
            <Node pos="l" depth="3" NCoef="0" IVar="-1" Cut="0.0000000000000000e+00" cType="1" res="-7.0448547601699829e-02" rms="2.6757422089576721e-01" purity="7.7620968222618103e-02" nType="-99"/>
            <Node pos="r" depth="3" NCoef="0" IVar="-1" Cut="0.0000000000000000e+00" cType="1" res="-8.1866212189197540e-02" rms="1.1102969944477081e-01" purity="1.2483429163694382e-02" nType="-99"/>
          </Node>
        </Node>
      </Node>
    </BinaryTree>
    <BinaryTree type="DecisionTree" boostWeight="1.0000000000000000e+00" itree="3">
      <Node pos="s" depth="0" NCoef="0" IVar="9" Cut="4.2380952835083008e+00" cType="0" res="-1.9322408735752106e-01" rms="3.6028504371643066e-01" purity="2.3577161133289337e-01" nType="0">
        <Node pos="l" depth="1" NCoef="0" IVar="8" Cut="3.3333332538604736e+00" cType="0" res="3.2636249065399170e-01" rms="2.0893332362174988e-01" purity="9.4584375619888306e-01" nType="0">
          <Node pos="l" depth="2" NCoef="0" IVar="9" Cut="5.6190476417541504e+00" cType="0" res="3.4357857704162598e-01" rms="1.6829462349414825e-01" purity="9.6949815750122070e-01" nType="0">
            <Node pos="l" depth="3" NCoef="0" IVar="-1" Cut="0.0000000000000000e+00" cType="1" res="7.7297359704971313e-02" rms="9.1776102781295776e-02" purity="9.9150496721267700e-01" nType="-99"/>
            <Node pos="r" depth="3" NCoef="0" IVar="-1" Cut="0.0000000000000000e+00" cType="1" res="5.3045302629470825e-02" rms="3.5794091224670410e-01" purity="8.4911072254180908e-01" nType="-99"/>
          </Node>
          <Node pos="r" depth="2" NCoef="0" IVar="6" Cut="1.3807253837585449e+00" cType="1" res="-6.7078419029712677e-02" rms="4.8210266232490540e-01" purity="4.0526849031448364e-01" nType="0">
            <Node pos="l" depth="3" NCoef="0" IVar="-1" Cut="0.0000000000000000e+00" cType="1" res="2.0346594974398613e-03" rms="4.9777209758758545e-01" purity="5.0748753547668457e-01" nType="-99"/>
            <Node pos="r" depth="3" NCoef="0" IVar="-1" Cut="0.0000000000000000e+00" cType="1" res="-3.8165953010320663e-02" rms="4.2984324693679810e-01" purity="2.4611398577690125e-01" nType="-99"/>
          </Node>
        </Node>
        <Node pos="r" depth="1" NCoef="0" IVar="2" Cut="4.3333334922790527e+00" cType="0" res="-2.9688602685928345e-01" rms="2.8703004121780396e-01" purity="9.4106182456016541e-02" nType="0">
          <Node pos="l" depth="2" NCoef="0" IVar="8" Cut="3.1428570747375488e+00" cType="0" res="-2.5463169813156128e-01" rms="3.5655587911605835e-01" purity="1.5147624909877777e-01" nType="0">
            <Node pos="l" depth="3" NCoef="0" IVar="-1" Cut="0.0000000000000000e+00" cType="1" res="-2.5840319693088531e-02" rms="4.6745994687080383e-01" purity="3.2257059216499329e-01" nType="-99"/>
            <Node pos="r" depth="3" NCoef="0" IVar="-1" Cut="0.0000000000000000e+00" cType="1" res="-5.5776380002498627e-02" rms="3.3997499942779541e-01" purity="1.3337074220180511e-01" nType="-99"/>
          </Node>
          <Node pos="r" depth="2" NCoef="0" IVar="2" Cut="3.0476191043853760e+00" cType="1" res="-3.5237964987754822e-01" rms="1.3489273190498352e-01" purity="1.8760658800601959e-02" nType="0">
            <Node pos="l" depth="3" NCoef="0" IVar="-1" Cut="0.0000000000000000e+00" cType="1" res="-6.5152235329151154e-02" rms="2.6817482709884644e-01" purity="7.8002050518989563e-02" nType="-99"/>
            <Node pos="r" depth="3" NCoef="0" IVar="-1" Cut="0.0000000000000000e+00" cType="1" res="-7.6865546405315399e-02" rms="1.0473591834306717e-01" purity="1.1092660017311573e-02" nType="-99"/>
          </Node>
        </Node>
      </Node>
    </BinaryTree>
    <BinaryTree type="DecisionTree" boostWeight="1.0000000000000000e+00" itree="4">
      <Node pos="s" depth="0" NCoef="0" IVar="2" Cut="7.7619047164916992e+00" cType="0" res="-1.7413932085037231e-01" rms="3.4536758065223694e-01" purity="2.3542778193950653e-01" nType="0">
        <Node pos="l" depth="1" NCoef="0" IVar="9" Cut="5.3333334922790527e+00" cType="0" res="3.1320971250534058e-01" rms="1.5956854820251465e-01" purity="9.7253763675689697e-01" nType="0">
          <Node pos="l" depth="2" NCoef="0" IVar="6" Cut="2.2125177383422852e+00" cType="1" res="3.2398810982704163e-01" rms="9.7286023199558258e-02" purity="9.9021786451339722e-01" nType="0">
            <Node pos="l" depth="3" NCoef="0" IVar="-1" Cut="0.0000000000000000e+00" cType="1" res="7.3180608451366425e-02" rms="9.0918742120265961e-02" purity="9.9153906106948853e-01" nType="-99"/>
            <Node pos="r" depth="3" NCoef="0" IVar="-1" Cut="0.0000000000000000e+00" cType="1" res="5.1424164324998856e-02" rms="3.0722329020500183e-01" purity="8.8655459880828857e-01" nType="-99"/>
          </Node>
          <Node pos="r" depth="2" NCoef="0" IVar="5" Cut="1.1772285699844360e+00" cType="1" res="2.3919317126274109e-01" rms="3.5922515392303467e-01" purity="8.5112565755844116e-01" nType="0">
            <Node pos="l" depth="3" NCoef="0" IVar="-1" Cut="0.0000000000000000e+00" cType="1" res="6.1313260346651077e-02" rms="3.0201810598373413e-01" purity="9.0153175592422485e-01" nType="-99"/>
            <Node pos="r" depth="3" NCoef="0" IVar="-1" Cut="0.0000000000000000e+00" cType="1" res="2.9413644224405289e-02" rms="4.3427088856697083e-01" purity="7.5161987543106079e-01" nType="-99"/>
          </Node>
        </Node>
        <Node pos="r" depth="1" NCoef="0" IVar="2" Cut="4.1428570747375488e+00" cType="0" res="-2.6274526119232178e-01" rms="2.9206633567810059e-01" purity="1.0141230374574661e-01" nType="0">
          <Node pos="l" depth="2" NCoef="0" IVar="8" Cut="3.0952382087707520e+00" cType="0" res="-2.2210514545440674e-01" rms="3.6204525828361511e-01" purity="1.6261306405067444e-01" nType="0">
            <Node pos="l" depth="3" NCoef="0" IVar="-1" Cut="0.0000000000000000e+00" cType="1" res="-1.7694473266601562e-02" rms="4.6612641215324402e-01" purity="3.7172922492027283e-01" nType="-99"/>
            <Node pos="r" depth="3" NCoef="0" IVar="-1" Cut="0.0000000000000000e+00" cType="1" res="-5.0668116658926010e-02" rms="3.4469828009605408e-01" purity="1.3857696950435638e-01" nType="-99"/>
          </Node>
          <Node pos="r" depth="2" NCoef="0" IVar="2" Cut="3.0476191043853760e+00" cType="1" res="-3.1714716553688049e-01" rms="1.3732448220252991e-01" purity="1.9487401470541954e-02" nType="0">
            <Node pos="l" depth="3" NCoef="0" IVar="-1" Cut="0.0000000000000000e+00" cType="1" res="-6.0805693268775940e-02" rms="2.6766195893287659e-01" purity="7.7676579356193542e-02" nType="-99"/>
            <Node pos="r" depth="3" NCoef="0" IVar="-1" Cut="0.0000000000000000e+00" cType="1" res="-7.2385802865028381e-02" rms="1.0882129520177841e-01" purity="1.1985732242465019e-02" nType="-99"/>
          </Node>
        </Node>
      </Node>
    </BinaryTree>
    <BinaryTree type="DecisionTree" boostWeight="1.0000000000000000e+00" itree="5">
      <Node pos="s" depth="0" NCoef="0" IVar="9" Cut="4.2380952835083008e+00" cType="0" res="-1.5685464441776276e-01" rms="3.3285751938819885e-01" purity="2.3551727831363678e-01" nType="0">
        <Node pos="l" depth="1" NCoef="0" IVar="8" Cut="3.4285714626312256e+00" cType="0" res="2.6662856340408325e-01" rms="2.0193532109260559e-01" purity="9.4501024484634399e-01" nType="0">
          <Node pos="l" depth="2" NCoef="0" IVar="9" Cut="5.6190476417541504e+00" cType="0" res="2.8032052516937256e-01" rms="1.6721659898757935e-01" purity="9.6917504072189331e-01" nType="0">
            <Node pos="l" depth="3" NCoef="0" IVar="-1" Cut="0.0000000000000000e+00" cType="1" res="6.9382227957248688e-02" rms="9.5976918935775757e-02" purity="9.9067240953445435e-01" nType="-99"/>
            <Node pos="r" depth="3" NCoef="0" IVar="-1" Cut="0.0000000000000000e+00" cType="1" res="4.6029418706893921e-02" rms="3.5781610012054443e-01" purity="8.4834122657775879e-01" nType="-99"/>
          </Node>
          <Node pos="r" depth="2" NCoef="0" IVar="5" Cut="1.6001164913177490e+00" cType="1" res="-3.4594394266605377e-02" rms="4.7736874222755432e-01" purity="4.1338583827018738e-01" nType="0">
            <Node pos="l" depth="3" NCoef="0" IVar="-1" Cut="0.0000000000000000e+00" cType="1" res="4.6966425143182278e-03" rms="4.9134528636932373e-01" purity="5.0074291229248047e-01" nType="-99"/>
            <Node pos="r" depth="3" NCoef="0" IVar="-1" Cut="0.0000000000000000e+00" cType="1" res="-3.1180918216705322e-02" rms="4.2638957500457764e-01" purity="2.4198250472545624e-01" nType="-99"/>
          </Node>
        </Node>
        <Node pos="r" depth="1" NCoef="0" IVar="2" Cut="4.3333334922790527e+00" cType="0" res="-2.4059094488620758e-01" rms="2.8664597868919373e-01" purity="9.5227621495723724e-02" nType="0">
          <Node pos="l" depth="2" NCoef="0" IVar="8" Cut="3.1428570747375488e+00" cType="0" res="-2.0608735084533691e-01" rms="3.5702046751976013e-01" purity="1.5273383259773254e-01" nType="0">
            <Node pos="l" depth="3" NCoef="0" IVar="-1" Cut="0.0000000000000000e+00" cType="1" res="-2.2851424291729927e-02" rms="4.6497789025306702e-01" purity="3.1746032834053040e-01" nType="-99"/>
            <Node pos="r" depth="3" NCoef="0" IVar="-1" Cut="0.0000000000000000e+00" cType="1" res="-4.7347486019134521e-02" rms="3.4240418672561646e-01" purity="1.3564039766788483e-01" nType="-99"/>
          </Node>
          <Node pos="r" depth="2" NCoef="0" IVar="2" Cut="3.0476191043853760e+00" cType="1" res="-2.8577846288681030e-01" rms="1.3871160149574280e-01" purity="1.9914790987968445e-02" nType="0">
            <Node pos="l" depth="3" NCoef="0" IVar="-1" Cut="0.0000000000000000e+00" cType="1" res="-5.7073432952165604e-02" rms="2.6694974303245544e-01" purity="7.7226027846336365e-02" nType="-99"/>
            <Node pos="r" depth="3" NCoef="0" IVar="-1" Cut="0.0000000000000000e+00" cType="1" res="-6.8730801343917847e-02" rms="1.1123786866664886e-01" purity="1.2530885636806488e-02" nType="-99"/>
          </Node>
        </Node>
      </Node>
    </BinaryTree>
    <BinaryTree type="DecisionTree" boostWeight="1.0000000000000000e+00" itree="6">
      <Node pos="s" depth="0" NCoef="0" IVar="9" Cut="4.2380952835083008e+00" cType="0" res="-1.4141683280467987e-01" rms="3.2166981697082520e-01" purity="2.3568813502788544e-01" nType="0">
        <Node pos="l" depth="1" NCoef="0" IVar="8" Cut="3.4285714626312256e+00" cType="0" res="2.4193210899829865e-01" rms="1.9667887687683105e-01" purity="9.4636356830596924e-01" nType="0">
          <Node pos="l" depth="2" NCoef="0" IVar="2" Cut="8.2380952835083008e+00" cType="0" res="2.5402861833572388e-01" rms="1.6428618133068085e-01" purity="9.7012788057327271e-01" nType="0">
            <Node pos="l" depth="3" NCoef="0" IVar="-1" Cut="0.0000000000000000e+00" cType="1" res="6.6634975373744965e-02" rms="9.6715562045574188e-02" purity="9.9044567346572876e-01" nType="-99"/>
            <Node pos="r" depth="3" NCoef="0" IVar="-1" Cut="0.0000000000000000e+00" cType="1" res="4.4163860380649567e-02" rms="3.3732691407203674e-01" purity="8.6517781019210815e-01" nType="-99"/>
          </Node>
          <Node pos="r" depth="2" NCoef="0" IVar="5" Cut="1.6162868738174438e+00" cType="1" res="-2.8840558603405952e-02" rms="4.7309803962707520e-01" purity="4.1441440582275391e-01" nType="0">
            <Node pos="l" depth="3" NCoef="0" IVar="-1" Cut="0.0000000000000000e+00" cType="1" res="9.5751686021685600e-03" rms="4.9078708887100220e-01" purity="5.2591460943222046e-01" nType="-99"/>
            <Node pos="r" depth="3" NCoef="0" IVar="-1" Cut="0.0000000000000000e+00" cType="1" res="-3.7322532385587692e-02" rms="3.9834722876548767e-01" purity="2.0116618275642395e-01" nType="-99"/>
          </Node>
        </Node>
        <Node pos="r" depth="1" NCoef="0" IVar="2" Cut="4.3333334922790527e+00" cType="0" res="-2.1739517152309418e-01" rms="2.8533044457435608e-01" purity="9.4834901392459869e-02" nType="0">
          <Node pos="l" depth="2" NCoef="0" IVar="8" Cut="3.1428570747375488e+00" cType="0" res="-1.8605621159076691e-01" rms="3.5640180110931396e-01" purity="1.5244212746620178e-01" nType="0">
            <Node pos="l" depth="3" NCoef="0" IVar="-1" Cut="0.0000000000000000e+00" cType="1" res="-1.9888216629624367e-02" rms="4.6656268835067749e-01" purity="3.2149115204811096e-01" nType="-99"/>
            <Node pos="r" depth="3" NCoef="0" IVar="-1" Cut="0.0000000000000000e+00" cType="1" res="-4.4154368340969086e-02" rms="3.4162116050720215e-01" purity="1.3490554690361023e-01" nType="-99"/>
          </Node>
          <Node pos="r" depth="2" NCoef="0" IVar="2" Cut="3.0476191043853760e+00" cType="1" res="-2.5836858153343201e-01" rms="1.3718757033348083e-01" purity="1.9517637789249420e-02" nType="0">
            <Node pos="l" depth="3" NCoef="0" IVar="-1" Cut="0.0000000000000000e+00" cType="1" res="-5.3300969302654266e-02" rms="2.6946598291397095e-01" purity="7.8825347125530243e-02" nType="-99"/>
            <Node pos="r" depth="3" NCoef="0" IVar="-1" Cut="0.0000000000000000e+00" cType="1" res="-6.5927714109420776e-02" rms="1.0837819427251816e-01" purity="1.1887138709425926e-02" nType="-99"/>
          </Node>
        </Node>
      </Node>
    </BinaryTree>
    <BinaryTree type="DecisionTree" boostWeight="1.0000000000000000e+00" itree="7">
      <Node pos="s" depth="0" NCoef="0" IVar="9" Cut="4.2380952835083008e+00" cType="0" res="-1.2722188234329224e-01" rms="3.1247076392173767e-01" purity="2.3659144341945648e-01" nType="0">
        <Node pos="l" depth="1" NCoef="0" IVar="8" Cut="3.4285714626312256e+00" cType="0" res="2.1860641241073608e-01" rms="1.9401662051677704e-01" purity="9.4674456119537354e-01" nType="0">
          <Node pos="l" depth="2" NCoef="0" IVar="2" Cut="8.2380952835083008e+00" cType="0" res="2.2943766415119171e-01" rms="1.6318775713443756e-01" purity="9.7033464908599854e-01" nType="0">
            <Node pos="l" depth="3" NCoef="0" IVar="-1" Cut="0.0000000000000000e+00" cType="1" res="6.4224377274513245e-02" rms="9.3965262174606323e-02" purity="9.9093306064605713e-01" nType="-99"/>
            <Node pos="r" depth="3" NCoef="0" IVar="-1" Cut="0.0000000000000000e+00" cType="1" res="4.0672082453966141e-02" rms="3.3969986438751221e-01" purity="8.6325019598007202e-01" nType="-99"/>
          </Node>
          <Node pos="r" depth="2" NCoef="0" IVar="6" Cut="1.3935581445693970e+00" cType="1" res="-2.5652859359979630e-02" rms="4.7294211387634277e-01" purity="4.1475573182106018e-01" nType="0">
            <Node pos="l" depth="3" NCoef="0" IVar="-1" Cut="0.0000000000000000e+00" cType="1" res="9.0289618819952011e-03" rms="4.9127608537673950e-01" purity="5.3084415197372437e-01" nType="-99"/>
            <Node pos="r" depth="3" NCoef="0" IVar="-1" Cut="0.0000000000000000e+00" cType="1" res="-2.9769461601972580e-02" rms="4.1832020878791809e-01" purity="2.2997416555881500e-01" nType="-99"/>
          </Node>
        </Node>
        <Node pos="r" depth="1" NCoef="0" IVar="2" Cut="4.3333334922790527e+00" cType="0" res="-1.9632960855960846e-01" rms="2.8452020883560181e-01" purity="9.4679765403270721e-02" nType="0">
          <Node pos="l" depth="2" NCoef="0" IVar="8" Cut="3.1428570747375488e+00" cType="0" res="-1.6763758659362793e-01" rms="3.5639497637748718e-01" purity="1.5263079106807709e-01" nType="0">
            <Node pos="l" depth="3" NCoef="0" IVar="-1" Cut="0.0000000000000000e+00" cType="1" res="-1.8542351201176643e-02" rms="4.6556231379508972e-01" purity="3.1906187534332275e-01" nType="-99"/>
            <Node pos="r" depth="3" NCoef="0" IVar="-1" Cut="0.0000000000000000e+00" cType="1" res="-4.1027557104825974e-02" rms="3.4190118312835693e-01" purity="1.3516771793365479e-01" nType="-99"/>
          </Node>
          <Node pos="r" depth="2" NCoef="0" IVar="1" Cut="1.4285714924335480e-01" cType="1" res="-2.3374013602733612e-01" rms="1.3570359349250793e-01" purity="1.9119452685117722e-02" nType="0">
            <Node pos="l" depth="3" NCoef="0" IVar="-1" Cut="0.0000000000000000e+00" cType="1" res="-5.5593900382518768e-02" rms="2.0881639420986176e-01" purity="4.6735513955354691e-02" nType="-99"/>
            <Node pos="r" depth="3" NCoef="0" IVar="-1" Cut="0.0000000000000000e+00" cType="1" res="-6.3751906156539917e-02" rms="1.0515004396438599e-01" purity="1.1207782663404942e-02" nType="-99"/>
          </Node>
        </Node>
      </Node>
    </BinaryTree>
    <BinaryTree type="DecisionTree" boostWeight="1.0000000000000000e+00" itree="8">
      <Node pos="s" depth="0" NCoef="0" IVar="9" Cut="4.2380952835083008e+00" cType="0" res="-1.1397818475961685e-01" rms="3.0613565444946289e-01" purity="2.3725317418575287e-01" nType="0">
        <Node pos="l" depth="1" NCoef="0" IVar="8" Cut="3.4285714626312256e+00" cType="0" res="1.9648037850856781e-01" rms="1.9413562119007111e-01" purity="9.4579309225082397e-01" nType="0">
          <Node pos="l" depth="2" NCoef="0" IVar="9" Cut="5.6190476417541504e+00" cType="0" res="2.0649862289428711e-01" rms="1.6419641673564911e-01" purity="9.6991246938705444e-01" nType="0">
            <Node pos="l" depth="3" NCoef="0" IVar="-1" Cut="0.0000000000000000e+00" cType="1" res="6.1955712735652924e-02" rms="9.4383113086223602e-02" purity="9.9097925424575806e-01" nType="-99"/>
            <Node pos="r" depth="3" NCoef="0" IVar="-1" Cut="0.0000000000000000e+00" cType="1" res="3.5778965801000595e-02" rms="3.5707065463066101e-01" purity="8.4832984209060669e-01" nType="-99"/>
          </Node>
          <Node pos="r" depth="2" NCoef="0" IVar="5" Cut="1.6021326780319214e+00" cType="1" res="-2.4519879370927811e-02" rms="4.7254094481468201e-01" purity="4.1372549533843994e-01" nType="0">
            <Node pos="l" depth="3" NCoef="0" IVar="-1" Cut="0.0000000000000000e+00" cType="1" res="4.2243944481015205e-03" rms="4.9143460392951965e-01" purity="5.0824588537216187e-01" nType="-99"/>
            <Node pos="r" depth="3" NCoef="0" IVar="-1" Cut="0.0000000000000000e+00" cType="1" res="-2.4457905441522598e-02" rms="4.2138871550559998e-01" purity="2.3512747883796692e-01" nType="-99"/>
          </Node>
        </Node>
        <Node pos="r" depth="1" NCoef="0" IVar="2" Cut="4.3333334922790527e+00" cType="0" res="-1.7584946751594543e-01" rms="2.8609231114387512e-01" purity="9.6048258244991302e-02" nType="0">
          <Node pos="l" depth="2" NCoef="0" IVar="5" Cut="1.7025513648986816e+00" cType="1" res="-1.4917458593845367e-01" rms="3.5818290710449219e-01" purity="1.5437550842761993e-01" nType="0">
            <Node pos="l" depth="3" NCoef="0" IVar="-1" Cut="0.0000000000000000e+00" cType="1" res="-3.2429385930299759e-02" rms="3.6939257383346558e-01" purity="1.6773255169391632e-01" nType="-99"/>
            <Node pos="r" depth="3" NCoef="0" IVar="-1" Cut="0.0000000000000000e+00" cType="1" res="-4.4405359774827957e-02" rms="3.1983733177185059e-01" purity="1.1480344831943512e-01" nType="-99"/>
          </Node>
          <Node pos="r" depth="2" NCoef="0" IVar="8" Cut="2.0952382087707520e+00" cType="0" res="-2.1104015409946442e-01" rms="1.3563884794712067e-01" purity="1.9100394099950790e-02" nType="0">
            <Node pos="l" depth="3" NCoef="0" IVar="-1" Cut="0.0000000000000000e+00" cType="1" res="-5.9083957225084305e-02" rms="1.3687504827976227e-01" purity="1.9655304029583931e-02" nType="-99"/>
            <Node pos="r" depth="3" NCoef="0" IVar="-1" Cut="0.0000000000000000e+00" cType="1" res="-6.2970228493213654e-02" rms="1.2324374169111252e-01" purity="1.5151515603065491e-02" nType="-99"/>
          </Node>
        </Node>
      </Node>
    </BinaryTree>
    <BinaryTree type="DecisionTree" boostWeight="1.0000000000000000e+00" itree="9">
      <Node pos="s" depth="0" NCoef="0" IVar="9" Cut="4.2380952835083008e+00" cType="0" res="-1.0306002944707870e-01" rms="2.9915618896484375e-01" purity="2.3733025789260864e-01" nType="0">
        <Node pos="l" depth="1" NCoef="0" IVar="8" Cut="3.3333332538604736e+00" cType="0" res="1.7798811197280884e-01" rms="1.9127421081066132e-01" purity="9.4632124900817871e-01" nType="0">
          <Node pos="l" depth="2" NCoef="0" IVar="6" Cut="2.1524531841278076e+00" cType="1" res="1.8757432699203491e-01" rms="1.6225619614124298e-01" purity="9.7055834531784058e-01" nType="0">
            <Node pos="l" depth="3" NCoef="0" IVar="-1" Cut="0.0000000000000000e+00" cType="1" res="5.6421853601932526e-02" rms="1.5345115959644318e-01" purity="9.7383093833923340e-01" nType="-99"/>
            <Node pos="r" depth="3" NCoef="0" IVar="-1" Cut="0.0000000000000000e+00" cType="1" res="5.9663048014044762e-03" rms="4.0075403451919556e-01" purity="7.7952754497528076e-01" nType="-99"/>
          </Node>
          <Node pos="r" depth="2" NCoef="0" IVar="6" Cut="1.3935581445693970e+00" cType="1" res="-3.8645152002573013e-02" rms="4.6841269731521606e-01" purity="3.9860141277313232e-01" nType="0">
            <Node pos="l" depth="3" NCoef="0" IVar="-1" Cut="0.0000000000000000e+00" cType="1" res="2.1699003409594297e-03" rms="4.9261245131492615e-01" purity="5.0402575731277466e-01" nType="-99"/>
            <Node pos="r" depth="3" NCoef="0" IVar="-1" Cut="0.0000000000000000e+00" cType="1" res="-2.6521256193518639e-02" rms="4.1337490081787109e-01" purity="2.2631579637527466e-01" nType="-99"/>
          </Node>
        </Node>
        <Node pos="r" depth="1" NCoef="0" IVar="2" Cut="4.3333334922790527e+00" cType="0" res="-1.5932443737983704e-01" rms="2.8479424118995667e-01" purity="9.5393873751163483e-02" nType="0">
          <Node pos="l" depth="2" NCoef="0" IVar="8" Cut="3.1428570747375488e+00" cType="0" res="-1.3607116043567657e-01" rms="3.5656666755676270e-01" purity="1.5300677716732025e-01" nType="0">
            <Node pos="l" depth="3" NCoef="0" IVar="-1" Cut="0.0000000000000000e+00" cType="1" res="-1.3969755731523037e-02" rms="4.6434104442596436e-01" purity="3.1716886162757874e-01" nType="-99"/>
            <Node pos="r" depth="3" NCoef="0" IVar="-1" Cut="0.0000000000000000e+00" cType="1" res="-3.5642080008983612e-02" rms="3.4242516756057739e-01" purity="1.3572455942630768e-01" nType="-99"/>
          </Node>
          <Node pos="r" depth="2" NCoef="0" IVar="2" Cut="3.0476191043853760e+00" cType="1" res="-1.8976950645446777e-01" rms="1.3857869803905487e-01" purity="1.9962424412369728e-02" nType="0">
            <Node pos="l" depth="3" NCoef="0" IVar="-1" Cut="0.0000000000000000e+00" cType="1" res="-4.3059367686510086e-02" rms="2.7218908071517944e-01" purity="8.0877311527729034e-02" nType="-99"/>
            <Node pos="r" depth="3" NCoef="0" IVar="-1" Cut="0.0000000000000000e+00" cType="1" res="-5.9300035238265991e-02" rms="1.0934022068977356e-01" purity="1.2107821181416512e-02" nType="-99"/>
          </Node>
        </Node>
      </Node>
    </BinaryTree>
    <BinaryTree type="DecisionTree" boostWeight="1.0000000000000000e+00" itree="10">
      <Node pos="s" depth="0" NCoef="0" IVar="2" Cut="7.7619047164916992e+00" cType="0" res="-9.4306975603103638e-02" rms="2.9290807247161865e-01" purity="2.3506522178649902e-01" nType="0">
        <Node pos="l" depth="1" NCoef="0" IVar="9" Cut="5.3333334922790527e+00" cType="0" res="1.7231391370296478e-01" rms="1.5375491976737976e-01" purity="9.7412759065628052e-01" nType="0">
          <Node pos="l" depth="2" NCoef="0" IVar="8" Cut="4.5714287757873535e+00" cType="0" res="1.7894659936428070e-01" rms="9.2912986874580383e-02" purity="9.9104130268096924e-01" nType="0">
            <Node pos="l" depth="3" NCoef="0" IVar="-1" Cut="0.0000000000000000e+00" cType="1" res="5.9540063142776489e-02" rms="7.5568199157714844e-02" purity="9.9423897266387939e-01" nType="-99"/>
            <Node pos="r" depth="3" NCoef="0" IVar="-1" Cut="0.0000000000000000e+00" cType="1" res="5.1396090537309647e-02" rms="1.9928686320781708e-01" purity="9.5673668384552002e-01" nType="-99"/>
          </Node>
          <Node pos="r" depth="2" NCoef="0" IVar="5" Cut="1.2462388277053833e+00" cType="1" res="1.2647931277751923e-01" rms="3.5347637534141541e-01" purity="8.5724687576293945e-01" nType="0">
            <Node pos="l" depth="3" NCoef="0" IVar="-1" Cut="0.0000000000000000e+00" cType="1" res="4.3328151106834412e-02" rms="3.0565968155860901e-01" purity="9.0075188875198364e-01" nType="-99"/>
            <Node pos="r" depth="3" NCoef="0" IVar="-1" Cut="0.0000000000000000e+00" cType="1" res="5.3478470072150230e-03" rms="4.3980357050895691e-01" purity="7.4167776107788086e-01" nType="-99"/>
          </Node>
        </Node>
        <Node pos="r" depth="1" NCoef="0" IVar="8" Cut="3.0952382087707520e+00" cType="0" res="-1.4272069931030273e-01" rms="2.8605827689170837e-01" purity="1.0086435824632645e-01" nType="0">
          <Node pos="l" depth="2" NCoef="0" IVar="10" Cut="6.1428570747375488e+00" cType="1" res="-3.9239589124917984e-02" rms="4.5859870314598083e-01" purity="3.7452229857444763e-01" nType="0">
            <Node pos="l" depth="3" NCoef="0" IVar="-1" Cut="0.0000000000000000e+00" cType="1" res="4.7931160777807236e-02" rms="4.2620873451232910e-01" purity="7.3363000154495239e-01" nType="-99"/>
            <Node pos="r" depth="3" NCoef="0" IVar="-1" Cut="0.0000000000000000e+00" cType="1" res="-2.3674730211496353e-02" rms="4.4212824106216431e-01" purity="2.7166786789894104e-01" nType="-99"/>
          </Node>
          <Node pos="r" depth="2" NCoef="0" IVar="10" Cut="3.2380952835083008e+00" cType="0" res="-1.4921578764915466e-01" rms="2.7027884125709534e-01" purity="8.3687953650951385e-02" nType="0">
            <Node pos="l" depth="3" NCoef="0" IVar="-1" Cut="0.0000000000000000e+00" cType="1" res="-3.2711628824472427e-02" rms="3.4520056843757629e-01" purity="1.3927932083606720e-01" nType="-99"/>
            <Node pos="r" depth="3" NCoef="0" IVar="-1" Cut="0.0000000000000000e+00" cType="1" res="-5.4684150964021683e-02" rms="1.5141305327415466e-01" purity="2.4474818259477615e-02" nType="-99"/>
          </Node>
        </Node>
      </Node>
    </BinaryTree>
    <BinaryTree type="DecisionTree" boostWeight="1.0000000000000000e+00" itree="11">
      <Node pos="s" depth="0" NCoef="0" IVar="2" Cut="7.7619047164916992e+00" cType="0" res="-8.3888359367847443e-02" rms="2.8932788968086243e-01" purity="2.3656810820102692e-01" nType="0">
        <Node pos="l" depth="1" NCoef="0" IVar="9" Cut="5.3333334922790527e+00" cType="0" res="1.5532636642456055e-01" rms="1.5493641793727875e-01" purity="9.7363108396530151e-01" nType="0">
          <Node pos="l" depth="2" NCoef="0" IVar="2" Cut="1.0142857551574707e+01" cType="0" res="1.6112683713436127e-01" rms="9.5332808792591095e-02" purity="9.9063205718994141e-01" nType="0">
            <Node pos="l" depth="3" NCoef="0" IVar="-1" Cut="0.0000000000000000e+00" cType="1" res="5.8441918343305588e-02" rms="7.0482380688190460e-02" purity="9.9503177404403687e-01" nType="-99"/>
            <Node pos="r" depth="3" NCoef="0" IVar="-1" Cut="0.0000000000000000e+00" cType="1" res="5.2146550267934799e-02" rms="1.5769520401954651e-01" purity="9.7362357378005981e-01" nType="-99"/>
          </Node>
          <Node pos="r" depth="2" NCoef="0" IVar="5" Cut="1.1497496366500854e+00" cType="1" res="1.1603413522243500e-01" rms="3.5111328959465027e-01" purity="8.5846704244613647e-01" nType="0">
            <Node pos="l" depth="3" NCoef="0" IVar="-1" Cut="0.0000000000000000e+00" cType="1" res="4.2383398860692978e-02" rms="2.9737365245819092e-01" purity="9.0693920850753784e-01" nType="-99"/>
            <Node pos="r" depth="3" NCoef="0" IVar="-1" Cut="0.0000000000000000e+00" cType="1" res="9.7444662824273109e-03" rms="4.2734831571578979e-01" purity="7.6321351528167725e-01" nType="-99"/>
          </Node>
        </Node>
        <Node pos="r" depth="1" NCoef="0" IVar="2" Cut="4.1428570747375488e+00" cType="0" res="-1.2744477391242981e-01" rms="2.8681933879852295e-01" purity="1.0236305743455887e-01" nType="0">
          <Node pos="l" depth="2" NCoef="0" IVar="8" Cut="3.0952382087707520e+00" cType="0" res="-1.0663484036922455e-01" rms="3.5845118761062622e-01" purity="1.6404461860656738e-01" nType="0">
            <Node pos="l" depth="3" NCoef="0" IVar="-1" Cut="0.0000000000000000e+00" cType="1" res="-7.4222385883331299e-03" rms="4.5270782709121704e-01" purity="3.7788340449333191e-01" nType="-99"/>
            <Node pos="r" depth="3" NCoef="0" IVar="-1" Cut="0.0000000000000000e+00" cType="1" res="-3.0420823022723198e-02" rms="3.4481519460678101e-01" purity="1.3914571702480316e-01" nType="-99"/>
          </Node>
          <Node pos="r" depth="2" NCoef="0" IVar="2" Cut="3.0476191043853760e+00" cType="1" res="-1.5533435344696045e-01" rms="1.3769628107547760e-01" purity="1.9697118550539017e-02" nType="0">
            <Node pos="l" depth="3" NCoef="0" IVar="-1" Cut="0.0000000000000000e+00" cType="1" res="-3.8567256182432175e-02" rms="2.6793953776359558e-01" purity="7.8114248812198639e-02" nType="-99"/>
            <Node pos="r" depth="3" NCoef="0" IVar="-1" Cut="0.0000000000000000e+00" cType="1" res="-5.6049957871437073e-02" rms="1.0979949682950974e-01" purity="1.2212595902383327e-02" nType="-99"/>
          </Node>
        </Node>
      </Node>
    </BinaryTree>
    <BinaryTree type="DecisionTree" boostWeight="1.0000000000000000e+00" itree="12">
      <Node pos="s" depth="0" NCoef="0" IVar="2" Cut="7.7619047164916992e+00" cType="0" res="-7.5436674058437347e-02" rms="2.8614556789398193e-01" purity="2.3679104447364807e-01" nType="0">
        <Node pos="l" depth="1" NCoef="0" IVar="6" Cut="1.2834513187408447e+00" cType="1" res="1.4027456939220428e-01" rms="1.5580615401268005e-01" purity="9.7322583198547363e-01" nType="0">
          <Node pos="l" depth="2" NCoef="0" IVar="6" Cut="9.3762886524200439e-01" cType="1" res="1.4753806591033936e-01" rms="1.2436384707689285e-01" purity="9.8391127586364746e-01" nType="0">
            <Node pos="l" depth="3" NCoef="0" IVar="-1" Cut="0.0000000000000000e+00" cType="1" res="5.6402388960123062e-02" rms="9.8875433206558228e-02" purity="9.9018204212188721e-01" nType="-99"/>
            <Node pos="r" depth="3" NCoef="0" IVar="-1" Cut="0.0000000000000000e+00" cType="1" res="4.9265574663877487e-02" rms="1.7444403469562531e-01" purity="9.6725058555603027e-01" nType="-99"/>
          </Node>
          <Node pos="r" depth="2" NCoef="0" IVar="8" Cut="4.2857141494750977e+00" cType="0" res="8.4339275956153870e-02" rms="2.9762232303619385e-01" purity="8.9093822240829468e-01" nType="0">
            <Node pos="l" depth="3" NCoef="0" IVar="-1" Cut="0.0000000000000000e+00" cType="1" res="4.5933462679386139e-02" rms="1.8276321887969971e-01" purity="9.6370464563369751e-01" nType="-99"/>
            <Node pos="r" depth="3" NCoef="0" IVar="-1" Cut="0.0000000000000000e+00" cType="1" res="4.5819543302059174e-03" rms="4.2409673333168030e-01" purity="7.6116073131561279e-01" nType="-99"/>
          </Node>
        </Node>
        <Node pos="r" depth="1" NCoef="0" IVar="2" Cut="4.1428570747375488e+00" cType="0" res="-1.1477853357791901e-01" rms="2.8696846961975098e-01" purity="1.0247854888439178e-01" nType="0">
          <Node pos="l" depth="2" NCoef="0" IVar="8" Cut="3.0952382087707520e+00" cType="0" res="-9.5960505306720734e-02" rms="3.5857069492340088e-01" purity="1.6396017372608185e-01" nType="0">
            <Node pos="l" depth="3" NCoef="0" IVar="-1" Cut="0.0000000000000000e+00" cType="1" res="-6.4006214961409569e-03" rms="4.5525053143501282e-01" purity="3.7824723124504089e-01" nType="-99"/>
            <Node pos="r" depth="3" NCoef="0" IVar="-1" Cut="0.0000000000000000e+00" cType="1" res="-2.8229150921106339e-02" rms="3.4493714570999146e-01" purity="1.3938987255096436e-01" nType="-99"/>
          </Node>
          <Node pos="r" depth="2" NCoef="0" IVar="2" Cut="3.0476191043853760e+00" cType="1" res="-1.3997182250022888e-01" rms="1.3914290070533752e-01" purity="2.0167868584394455e-02" nType="0">
            <Node pos="l" depth="3" NCoef="0" IVar="-1" Cut="0.0000000000000000e+00" cType="1" res="-3.5398181527853012e-02" rms="2.7307891845703125e-01" purity="8.1415027379989624e-02" nType="-99"/>
            <Node pos="r" depth="3" NCoef="0" IVar="-1" Cut="0.0000000000000000e+00" cType="1" res="-5.4651409387588501e-02" rms="1.0938964784145355e-01" purity="1.2120538391172886e-02" nType="-99"/>
          </Node>
        </Node>
      </Node>
    </BinaryTree>
    <BinaryTree type="DecisionTree" boostWeight="1.0000000000000000e+00" itree="13">
      <Node pos="s" depth="0" NCoef="0" IVar="9" Cut="4.2380952835083008e+00" cType="0" res="-6.9119721651077271e-02" rms="2.8176641464233398e-01" purity="2.3672352731227875e-01" nType="0">
        <Node pos="l" depth="1" NCoef="0" IVar="9" Cut="5.6190476417541504e+00" cType="0" res="1.1988823860883713e-01" rms="1.8645374476909637e-01" purity="9.4644522666931152e-01" nType="0">
          <Node pos="l" depth="2" NCoef="0" IVar="1" Cut="1.4285714924335480e-01" cType="1" res="1.3263092935085297e-01" rms="1.0094220191240311e-01" purity="9.8885661363601685e-01" nType="0">
            <Node pos="l" depth="3" NCoef="0" IVar="-1" Cut="0.0000000000000000e+00" cType="1" res="5.5297568440437317e-02" rms="8.8073730468750000e-02" purity="9.9213063716888428e-01" nType="-99"/>
            <Node pos="r" depth="3" NCoef="0" IVar="-1" Cut="0.0000000000000000e+00" cType="1" res="4.7587960958480835e-02" rms="1.6820296645164490e-01" purity="9.6425420045852661e-01" nType="-99"/>
          </Node>
          <Node pos="r" depth="2" NCoef="0" IVar="6" Cut="1.6101009845733643e+00" cType="1" res="6.2066655606031418e-02" rms="3.7709435820579529e-01" purity="7.5399810075759888e-01" nType="0">
            <Node pos="l" depth="3" NCoef="0" IVar="-1" Cut="0.0000000000000000e+00" cType="1" res="2.4419976398348808e-02" rms="3.5599294304847717e-01" purity="8.0516624450683594e-01" nType="-99"/>
            <Node pos="r" depth="3" NCoef="0" IVar="-1" Cut="0.0000000000000000e+00" cType="1" res="-2.7255605906248093e-02" rms="4.4708070158958435e-01" purity="4.5024469494819641e-01" nType="-99"/>
          </Node>
        </Node>
        <Node pos="r" depth="1" NCoef="0" IVar="4" Cut="-2.3783595561981201e+00" cType="1" res="-1.0696116834878922e-01" rms="2.8238782286643982e-01" purity="9.4629526138305664e-02" nType="0">
          <Node pos="l" depth="2" NCoef="0" IVar="1" Cut="1.4285714924335480e-01" cType="1" res="-5.5383130908012390e-02" rms="3.7823259830474854e-01" purity="1.8006619811058044e-01" nType="0">
            <Node pos="l" depth="3" NCoef="0" IVar="-1" Cut="0.0000000000000000e+00" cType="1" res="-4.6687535941600800e-03" rms="4.0767639875411987e-01" purity="2.2366522252559662e-01" nType="-99"/>
            <Node pos="r" depth="3" NCoef="0" IVar="-1" Cut="0.0000000000000000e+00" cType="1" res="-2.5011988356709480e-02" rms="3.4801548719406128e-01" purity="1.4310954511165619e-01" nType="-99"/>
          </Node>
          <Node pos="r" depth="2" NCoef="0" IVar="4" Cut="2.2862880229949951e+00" cType="0" res="-1.1370279639959335e-01" rms="2.6659652590751648e-01" purity="8.3462327718734741e-02" nType="0">
            <Node pos="l" depth="3" NCoef="0" IVar="-1" Cut="0.0000000000000000e+00" cType="1" res="-1.8680540844798088e-02" rms="3.6934903264045715e-01" purity="1.6877333819866180e-01" nType="-99"/>
            <Node pos="r" depth="3" NCoef="0" IVar="-1" Cut="0.0000000000000000e+00" cType="1" res="-4.2512428015470505e-02" rms="2.2921267151832581e-01" purity="6.0271460562944412e-02" nType="-99"/>
          </Node>
        </Node>
      </Node>
    </BinaryTree>
    <BinaryTree type="DecisionTree" boostWeight="1.0000000000000000e+00" itree="14">
      <Node pos="s" depth="0" NCoef="0" IVar="9" Cut="4.2380952835083008e+00" cType="0" res="-6.2178026884794235e-02" rms="2.7849596738815308e-01" purity="2.3563022911548615e-01" nType="0">
        <Node pos="l" depth="1" NCoef="0" IVar="9" Cut="5.6190476417541504e+00" cType="0" res="1.1067496240139008e-01" rms="1.8175710737705231e-01" purity="9.4842624664306641e-01" nType="0">
          <Node pos="l" depth="2" NCoef="0" IVar="10" Cut="6.5238094329833984e+00" cType="0" res="1.2084304541349411e-01" rms="9.8146289587020874e-02" purity="9.8958384990692139e-01" nType="0">
            <Node pos="l" depth="3" NCoef="0" IVar="-1" Cut="0.0000000000000000e+00" cType="1" res="5.3482100367546082e-02" rms="9.2759467661380768e-02" purity="9.9067944288253784e-01" nType="-99"/>
            <Node pos="r" depth="3" NCoef="0" IVar="-1" Cut="0.0000000000000000e+00" cType="1" res="5.4534181952476501e-02" rms="1.6277587413787842e-01" purity="9.7100090980529785e-01" nType="-99"/>
          </Node>
          <Node pos="r" depth="2" NCoef="0" IVar="5" Cut="1.4482449293136597e+00" cType="1" res="6.4000926911830902e-02" rms="3.7122485041618347e-01" purity="7.5950276851654053e-01" nType="0">
            <Node pos="l" depth="3" NCoef="0" IVar="-1" Cut="0.0000000000000000e+00" cType="1" res="2.7812473475933075e-02" rms="3.3712619543075562e-01" purity="8.3670961856842041e-01" nType="-99"/>
            <Node pos="r" depth="3" NCoef="0" IVar="-1" Cut="0.0000000000000000e+00" cType="1" res="-1.5930937603116035e-02" rms="4.4925498962402344e-01" purity="4.8756757378578186e-01" nType="-99"/>
          </Node>
        </Node>
        <Node pos="r" depth="1" NCoef="0" IVar="6" Cut="1.8935434818267822e+00" cType="1" res="-9.6425250172615051e-02" rms="2.8158298134803772e-01" purity="9.4404526054859161e-02" nType="0">
          <Node pos="l" depth="2" NCoef="0" IVar="8" Cut="3.0476191043853760e+00" cType="0" res="-8.4132991731166840e-02" rms="3.0914539098739624e-01" purity="1.1612334102392197e-01" nType="0">
            <Node pos="l" depth="3" NCoef="0" IVar="-1" Cut="0.0000000000000000e+00" cType="1" res="1.2995239812880754e-03" rms="4.7417688369750977e-01" purity="3.5792893171310425e-01" nType="-99"/>
            <Node pos="r" depth="3" NCoef="0" IVar="-1" Cut="0.0000000000000000e+00" cType="1" res="-2.9845610260963440e-02" rms="2.9268306493759155e-01" purity="9.8758876323699951e-02" nType="-99"/>
          </Node>
          <Node pos="r" depth="2" NCoef="0" IVar="9" Cut="3.1428570747375488e+00" cType="0" res="-1.2523977458477020e-01" rms="1.9984440505504608e-01" purity="4.3493043631315231e-02" nType="0">
            <Node pos="l" depth="3" NCoef="0" IVar="-1" Cut="0.0000000000000000e+00" cType="1" res="-5.4611980915069580e-02" rms="2.2106546163558960e-01" purity="5.0375133752822876e-02" nType="-99"/>
            <Node pos="r" depth="3" NCoef="0" IVar="-1" Cut="0.0000000000000000e+00" cType="1" res="-4.4295925647020340e-02" rms="1.9654169678688049e-01" purity="4.2900227010250092e-02" nType="-99"/>
          </Node>
        </Node>
      </Node>
    </BinaryTree>
    <BinaryTree type="DecisionTree" boostWeight="1.0000000000000000e+00" itree="15">
      <Node pos="s" depth="0" NCoef="0" IVar="9" Cut="4.2380952835083008e+00" cType="0" res="-5.6231983006000519e-02" rms="2.7600985765457153e-01" purity="2.3616614937782288e-01" nType="0">
        <Node pos="l" depth="1" NCoef="0" IVar="8" Cut="4.2857141494750977e+00" cType="0" res="9.9077060818672180e-02" rms="1.8310478329658508e-01" purity="9.4716054201126099e-01" nType="0">
          <Node pos="l" depth="2" NCoef="0" IVar="2" Cut="8.2380952835083008e+00" cType="0" res="1.1071993410587311e-01" rms="9.1727800667285919e-02" purity="9.9129337072372437e-01" nType="0">
            <Node pos="l" depth="3" NCoef="0" IVar="-1" Cut="0.0000000000000000e+00" cType="1" res="5.3149688988924026e-02" rms="8.4499381482601166e-02" purity="9.9262702465057373e-01" nType="-99"/>
            <Node pos="r" depth="3" NCoef="0" IVar="-1" Cut="0.0000000000000000e+00" cType="1" res="4.6310827136039734e-02" rms="2.0880821347236633e-01" purity="9.5396822690963745e-01" nType="-99"/>
          </Node>
          <Node pos="r" depth="2" NCoef="0" IVar="6" Cut="2.1678853034973145e+00" cType="1" res="5.8815333992242813e-02" rms="3.4392014145851135e-01" purity="7.9454648494720459e-01" nType="0">
            <Node pos="l" depth="3" NCoef="0" IVar="-1" Cut="0.0000000000000000e+00" cType="1" res="2.1467935293912888e-02" rms="3.3368569612503052e-01" purity="8.1878787279129028e-01" nType="-99"/>
            <Node pos="r" depth="3" NCoef="0" IVar="-1" Cut="0.0000000000000000e+00" cType="1" res="-2.6621244847774506e-02" rms="4.4040265679359436e-01" purity="4.3202418088912964e-01" nType="-99"/>
          </Node>
        </Node>
        <Node pos="r" depth="1" NCoef="0" IVar="4" Cut="-2.3818426132202148e+00" cType="1" res="-8.7277442216873169e-02" rms="2.8093114495277405e-01" purity="9.4042129814624786e-02" nType="0">
          <Node pos="l" depth="2" NCoef="0" IVar="2" Cut="4.1428570747375488e+00" cType="0" res="-3.1947255134582520e-02" rms="3.8311049342155457e-01" purity="1.8779270350933075e-01" nType="0">
            <Node pos="l" depth="3" NCoef="0" IVar="-1" Cut="0.0000000000000000e+00" cType="1" res="-5.8067077770829201e-03" rms="4.0119153261184692e-01" purity="2.0793853700160980e-01" nType="-99"/>
            <Node pos="r" depth="3" NCoef="0" IVar="-1" Cut="0.0000000000000000e+00" cType="1" res="-5.5509638041257858e-02" rms="8.8157147169113159e-02" purity="7.6335878111422062e-03" nType="-99"/>
          </Node>
          <Node pos="r" depth="2" NCoef="0" IVar="4" Cut="2.2857928276062012e+00" cType="0" res="-9.4157271087169647e-02" rms="2.6468396186828613e-01" purity="8.2385063171386719e-02" nType="0">
            <Node pos="l" depth="3" NCoef="0" IVar="-1" Cut="0.0000000000000000e+00" cType="1" res="-1.5688288956880569e-02" rms="3.6656543612480164e-01" purity="1.6527150571346283e-01" nType="-99"/>
            <Node pos="r" depth="3" NCoef="0" IVar="-1" Cut="0.0000000000000000e+00" cType="1" res="-3.8969095796346664e-02" rms="2.2811597585678101e-01" purity="5.9917733073234558e-02" nType="-99"/>
          </Node>
        </Node>
      </Node>
    </BinaryTree>
    <BinaryTree type="DecisionTree" boostWeight="1.0000000000000000e+00" itree="16">
      <Node pos="s" depth="0" NCoef="0" IVar="2" Cut="7.7619047164916992e+00" cType="0" res="-5.0657778978347778e-02" rms="2.7468734979629517e-01" purity="2.3669634759426117e-01" nType="0">
        <Node pos="l" depth="1" NCoef="0" IVar="9" Cut="5.3333334922790527e+00" cType="0" res="9.5706671476364136e-02" rms="1.5129666030406952e-01" purity="9.7447097301483154e-01" nType="0">
          <Node pos="l" depth="2" NCoef="0" IVar="9" Cut="9.4285717010498047e+00" cType="0" res="9.8652675747871399e-02" rms="9.1517537832260132e-02" purity="9.9111294746398926e-01" nType="0">
            <Node pos="l" depth="3" NCoef="0" IVar="-1" Cut="0.0000000000000000e+00" cType="1" res="5.5339284241199493e-02" rms="3.5873394459486008e-02" purity="9.9881517887115479e-01" nType="-99"/>
            <Node pos="r" depth="3" NCoef="0" IVar="-1" Cut="0.0000000000000000e+00" cType="1" res="4.9574054777622223e-02" rms="1.1051877588033676e-01" purity="9.8691117763519287e-01" nType="-99"/>
          </Node>
          <Node pos="r" depth="2" NCoef="0" IVar="6" Cut="1.1318826675415039e+00" cType="1" res="7.5905516743659973e-02" rms="3.4641352295875549e-01" purity="8.6261421442031860e-01" nType="0">
            <Node pos="l" depth="3" NCoef="0" IVar="-1" Cut="0.0000000000000000e+00" cType="1" res="3.3438414335250854e-02" rms="2.9750731587409973e-01" purity="9.0914005041122437e-01" nType="-99"/>
            <Node pos="r" depth="3" NCoef="0" IVar="-1" Cut="0.0000000000000000e+00" cType="1" res="8.0869039520621300e-03" rms="4.1847980022430420e-01" purity="7.7632898092269897e-01" nType="-99"/>
          </Node>
        </Node>
        <Node pos="r" depth="1" NCoef="0" IVar="2" Cut="4.1428570747375488e+00" cType="0" res="-7.7558286488056183e-02" rms="2.8364193439483643e-01" purity="1.0109981894493103e-01" nType="0">
          <Node pos="l" depth="2" NCoef="0" IVar="6" Cut="2.0531675815582275e+00" cType="1" res="-6.0377631336450577e-02" rms="3.5460215806961060e-01" purity="1.6191643476486206e-01" nType="0">
            <Node pos="l" depth="3" NCoef="0" IVar="-1" Cut="0.0000000000000000e+00" cType="1" res="-1.5623986721038818e-02" rms="3.6262530088424683e-01" purity="1.7290337383747101e-01" nType="-99"/>
            <Node pos="r" depth="3" NCoef="0" IVar="-1" Cut="0.0000000000000000e+00" cType="1" res="-3.2388508319854736e-02" rms="3.0188623070716858e-01" purity="1.0013531893491745e-01" nType="-99"/>
          </Node>
          <Node pos="r" depth="2" NCoef="0" IVar="8" Cut="2.0952382087707520e+00" cType="0" res="-1.0062301158905029e-01" rms="1.3683393597602844e-01" purity="1.9454566761851311e-02" nType="0">
            <Node pos="l" depth="3" NCoef="0" IVar="-1" Cut="0.0000000000000000e+00" cType="1" res="-4.6884812414646149e-02" rms="1.3830864429473877e-01" purity="2.0091630518436432e-02" nType="-99"/>
            <Node pos="r" depth="3" NCoef="0" IVar="-1" Cut="0.0000000000000000e+00" cType="1" res="-5.2370138466358185e-02" rms="1.2229259312152863e-01" purity="1.4927743002772331e-02" nType="-99"/>
          </Node>
        </Node>
      </Node>
    </BinaryTree>
    <BinaryTree type="DecisionTree" boostWeight="1.0000000000000000e+00" itree="17">
      <Node pos="s" depth="0" NCoef="0" IVar="9" Cut="4.2380952835083008e+00" cType="0" res="-4.4731482863426208e-02" rms="2.7543067932128906e-01" purity="2.3682589828968048e-01" nType="0">
        <Node pos="l" depth="1" NCoef="0" IVar="6" Cut="1.2853997945785522e+00" cType="1" res="7.9778961837291718e-02" rms="1.8508757650852203e-01" purity="9.4513106346130371e-01" nType="0">
          <Node pos="l" depth="2" NCoef="0" IVar="10" Cut="4.6190476417541504e+00" cType="0" res="9.0303190052509308e-02" rms="1.4861330389976501e-01" purity="9.7025275230407715e-01" nType="0">
            <Node pos="l" depth="3" NCoef="0" IVar="-1" Cut="0.0000000000000000e+00" cType="1" res="4.5081086456775665e-02" rms="1.3959217071533203e-01" purity="9.7371339797973633e-01" nType="-99"/>
            <Node pos="r" depth="3" NCoef="0" IVar="-1" Cut="0.0000000000000000e+00" cType="1" res="4.3673656880855560e-02" rms="3.3603474497795105e-01" purity="8.3783781528472900e-01" nType="-99"/>
          </Node>
          <Node pos="r" depth="2" NCoef="0" IVar="2" Cut="9.0000000000000000e+00" cType="0" res="9.4860810786485672e-03" rms="3.3146911859512329e-01" purity="7.7733987569808960e-01" nType="0">
            <Node pos="l" depth="3" NCoef="0" IVar="-1" Cut="0.0000000000000000e+00" cType="1" res="3.6907479166984558e-02" rms="1.8768639862537384e-01" purity="9.6385544538497925e-01" nType="-99"/>
            <Node pos="r" depth="3" NCoef="0" IVar="-1" Cut="0.0000000000000000e+00" cType="1" res="-1.4752751216292381e-02" rms="4.2711454629898071e-01" purity="5.7697546482086182e-01" nType="-99"/>
          </Node>
        </Node>
        <Node pos="r" depth="1" NCoef="0" IVar="2" Cut="4.3333334922790527e+00" cType="0" res="-6.9441869854927063e-02" rms="2.8360471129417419e-01" purity="9.6255369484424591e-02" nType="0">
          <Node pos="l" depth="2" NCoef="0" IVar="4" Cut="-2.2568128108978271e+00" cType="1" res="-5.3744737058877945e-02" rms="3.5509419441223145e-01" purity="1.5389668941497803e-01" nType="0">
            <Node pos="l" depth="3" NCoef="0" IVar="-1" Cut="0.0000000000000000e+00" cType="1" res="-9.5523754134774208e-03" rms="3.7913802266120911e-01" purity="1.7802947759628296e-01" nType="-99"/>
            <Node pos="r" depth="3" NCoef="0" IVar="-1" Cut="0.0000000000000000e+00" cType="1" res="-2.0145539194345474e-02" rms="3.4138643741607666e-01" purity="1.4138689637184143e-01" nType="-99"/>
          </Node>
          <Node pos="r" depth="2" NCoef="0" IVar="2" Cut="3.0476191043853760e+00" cType="1" res="-9.0121515095233917e-02" rms="1.3973501324653625e-01" purity="2.0317846909165382e-02" nType="0">
            <Node pos="l" depth="3" NCoef="0" IVar="-1" Cut="0.0000000000000000e+00" cType="1" res="-2.2892734035849571e-02" rms="2.7511638402938843e-01" purity="8.2734413444995880e-02" nType="-99"/>
            <Node pos="r" depth="3" NCoef="0" IVar="-1" Cut="0.0000000000000000e+00" cType="1" res="-4.9709200859069824e-02" rms="1.0880509763956070e-01" purity="1.1993134394288063e-02" nType="-99"/>
          </Node>
        </Node>
      </Node>
    </BinaryTree>
    <BinaryTree type="DecisionTree" boostWeight="1.0000000000000000e+00" itree="18">
      <Node pos="s" depth="0" NCoef="0" IVar="2" Cut="7.6666665077209473e+00" cType="0" res="-4.1030991822481155e-02" rms="2.7318307757377625e-01" purity="2.3614126443862915e-01" nType="0">
        <Node pos="l" depth="1" NCoef="0" IVar="6" Cut="2.1916072368621826e+00" cType="1" res="7.7466554939746857e-02" rms="1.5473949909210205e-01" purity="9.7293692827224731e-01" nType="0">
          <Node pos="l" depth="2" NCoef="0" IVar="6" Cut="1.3550305366516113e+00" cType="1" res="7.8774541616439819e-02" rms="1.4829774200916290e-01" purity="9.7567594051361084e-01" nType="0">
            <Node pos="l" depth="3" NCoef="0" IVar="-1" Cut="0.0000000000000000e+00" cType="1" res="4.6447768807411194e-02" rms="1.2825427949428558e-01" purity="9.8261755704879761e-01" nType="-99"/>
            <Node pos="r" depth="3" NCoef="0" IVar="-1" Cut="0.0000000000000000e+00" cType="1" res="1.8659701570868492e-02" rms="2.9106619954109192e-01" purity="8.9547854661941528e-01" nType="-99"/>
          </Node>
          <Node pos="r" depth="2" NCoef="0" IVar="-1" Cut="0.0000000000000000e+00" cType="1" res="-9.3139195814728737e-04" rms="3.7012910842895508e-01" purity="8.0515760183334351e-01" nType="-99"/>
        </Node>
        <Node pos="r" depth="1" NCoef="0" IVar="2" Cut="4.1428570747375488e+00" cType="0" res="-6.2624335289001465e-02" rms="2.8432384133338928e-01" purity="1.0187786817550659e-01" nType="0">
          <Node pos="l" depth="2" NCoef="0" IVar="8" Cut="3.0952382087707520e+00" cType="0" res="-4.8481032252311707e-02" rms="3.5551434755325317e-01" purity="1.6304570436477661e-01" nType="0">
            <Node pos="l" depth="3" NCoef="0" IVar="-1" Cut="0.0000000000000000e+00" cType="1" res="3.9467282476834953e-04" rms="4.4702965021133423e-01" purity="3.7379252910614014e-01" nType="-99"/>
            <Node pos="r" depth="3" NCoef="0" IVar="-1" Cut="0.0000000000000000e+00" cType="1" res="-1.7569523304700851e-02" rms="3.4274101257324219e-01" purity="1.3839629292488098e-01" nType="-99"/>
          </Node>
          <Node pos="r" depth="2" NCoef="0" IVar="1" Cut="1.9047619402408600e-01" cType="1" res="-8.1535123288631439e-02" rms="1.3896128535270691e-01" purity="2.0091341808438301e-02" nType="0">
            <Node pos="l" depth="3" NCoef="0" IVar="-1" Cut="0.0000000000000000e+00" cType="1" res="-3.0824279412627220e-02" rms="2.1591450273990631e-01" purity="5.0175029784440994e-02" nType="-99"/>
            <Node pos="r" depth="3" NCoef="0" IVar="-1" Cut="0.0000000000000000e+00" cType="1" res="-4.8982623964548111e-02" rms="1.0734429955482483e-01" purity="1.1686227284371853e-02" nType="-99"/>
          </Node>
        </Node>
      </Node>
    </BinaryTree>
    <BinaryTree type="DecisionTree" boostWeight="1.0000000000000000e+00" itree="19">
      <Node pos="s" depth="0" NCoef="0" IVar="2" Cut="7.7619047164916992e+00" cType="0" res="-3.7809140980243683e-02" rms="2.7090814709663391e-01" purity="2.3575969040393829e-01" nType="0">
        <Node pos="l" depth="1" NCoef="0" IVar="9" Cut="5.3333334922790527e+00" cType="0" res="7.1123115718364716e-02" rms="1.5164041519165039e-01" purity="9.7420626878738403e-01" nType="0">
          <Node pos="l" depth="2" NCoef="0" IVar="9" Cut="8.2857141494750977e+00" cType="0" res="7.4295282363891602e-02" rms="9.3876555562019348e-02" purity="9.9053180217742920e-01" nType="0">
            <Node pos="l" depth="3" NCoef="0" IVar="-1" Cut="0.0000000000000000e+00" cType="1" res="5.2811488509178162e-02" rms="4.9950398504734039e-02" purity="9.9750512838363647e-01" nType="-99"/>
            <Node pos="r" depth="3" NCoef="0" IVar="-1" Cut="0.0000000000000000e+00" cType="1" res="4.4794309884309769e-02" rms="1.2132354825735092e-01" purity="9.8396652936935425e-01" nType="-99"/>
          </Node>
          <Node pos="r" depth="2" NCoef="0" IVar="4" Cut="2.3489573001861572e+00" cType="0" res="4.9707606434822083e-02" rms="3.4381961822509766e-01" purity="8.6399149894714355e-01" nType="0">
            <Node pos="l" depth="3" NCoef="0" IVar="-1" Cut="0.0000000000000000e+00" cType="1" res="2.9973786324262619e-02" rms="2.9319328069686890e-01" purity="9.0243899822235107e-01" nType="-99"/>
            <Node pos="r" depth="3" NCoef="0" IVar="-1" Cut="0.0000000000000000e+00" cType="1" res="7.5779031030833721e-03" rms="3.7409102916717529e-01" purity="8.3589428663253784e-01" nType="-99"/>
          </Node>
        </Node>
        <Node pos="r" depth="1" NCoef="0" IVar="2" Cut="4.1428570747375488e+00" cType="0" res="-5.7738602161407471e-02" rms="2.8291913866996765e-01" purity="1.0065881907939911e-01" nType="0">
          <Node pos="l" depth="2" NCoef="0" IVar="5" Cut="2.0092108249664307e+00" cType="1" res="-4.6108447015285492e-02" rms="3.5326918959617615e-01" purity="1.6050702333450317e-01" nType="0">
            <Node pos="l" depth="3" NCoef="0" IVar="-1" Cut="0.0000000000000000e+00" cType="1" res="-1.1972824111580849e-02" rms="3.6230075359344482e-01" purity="1.7245396971702576e-01" nType="-99"/>
            <Node pos="r" depth="3" NCoef="0" IVar="-1" Cut="0.0000000000000000e+00" cType="1" res="-2.8322298079729080e-02" rms="3.0277055501937866e-01" purity="1.0253554582595825e-01" nType="-99"/>
          </Node>
          <Node pos="r" depth="2" NCoef="0" IVar="2" Cut="3.0476191043853760e+00" cType="1" res="-7.3323868215084076e-02" rms="1.4015312492847443e-01" purity="2.0457800477743149e-02" nType="0">
            <Node pos="l" depth="3" NCoef="0" IVar="-1" Cut="0.0000000000000000e+00" cType="1" res="-1.9959867000579834e-02" rms="2.7104717493057251e-01" purity="8.0199211835861206e-02" nType="-99"/>
            <Node pos="r" depth="3" NCoef="0" IVar="-1" Cut="0.0000000000000000e+00" cType="1" res="-4.7157350927591324e-02" rms="1.1211758852005005e-01" purity="1.2754649855196476e-02" nType="-99"/>
          </Node>
        </Node>
      </Node>
    </BinaryTree>
    <BinaryTree type="DecisionTree" boostWeight="1.0000000000000000e+00" itree="20">
      <Node pos="s" depth="0" NCoef="0" IVar="8" Cut="3.4285714626312256e+00" cType="0" res="-3.3374477177858353e-02" rms="2.7066552639007568e-01" purity="2.3631529510021210e-01" nType="0">
        <Node pos="l" depth="1" NCoef="0" IVar="10" Cut="5.5238094329833984e+00" cType="0" res="5.0428111106157303e-02" rms="2.5749504566192627e-01" purity="8.2685708999633789e-01" nType="0">
          <Node pos="l" depth="2" NCoef="0" IVar="2" Cut="8.1904764175415039e+00" cType="0" res="3.8743853569030762e-02" rms="2.4129906296730042e-01" purity="8.2883417606353760e-01" nType="0">
            <Node pos="l" depth="3" NCoef="0" IVar="-1" Cut="0.0000000000000000e+00" cType="1" res="4.8124760389328003e-02" rms="9.5031641423702240e-02" purity="9.9087870121002197e-01" nType="-99"/>
            <Node pos="r" depth="3" NCoef="0" IVar="-1" Cut="0.0000000000000000e+00" cType="1" res="-8.1986123695969582e-03" rms="4.0698620676994324e-01" purity="4.5210209488868713e-01" nType="-99"/>
          </Node>
          <Node pos="r" depth="2" NCoef="0" IVar="10" Cut="3.0952382087707520e+00" cType="0" res="2.1794599294662476e-01" rms="3.9000698924064636e-01" purity="7.9851144552230835e-01" nType="0">
            <Node pos="l" depth="3" NCoef="0" IVar="-1" Cut="0.0000000000000000e+00" cType="1" res="3.5253264009952545e-02" rms="3.0969914793968201e-01" purity="8.4838157892227173e-01" nType="-99"/>
            <Node pos="r" depth="3" NCoef="0" IVar="-1" Cut="0.0000000000000000e+00" cType="1" res="8.8372416794300079e-02" rms="4.4595792889595032e-01" purity="7.1570014953613281e-01" nType="-99"/>
          </Node>
        </Node>
        <Node pos="r" depth="1" NCoef="0" IVar="4" Cut="2.3654348850250244e+00" cType="0" res="-5.4851461201906204e-02" rms="2.6978039741516113e-01" purity="8.4970861673355103e-02" nType="0">
          <Node pos="l" depth="2" NCoef="0" IVar="2" Cut="4.1904764175415039e+00" cType="0" res="-1.0169167071580887e-02" rms="3.7158769369125366e-01" purity="1.6851611435413361e-01" nType="0">
            <Node pos="l" depth="3" NCoef="0" IVar="-1" Cut="0.0000000000000000e+00" cType="1" res="-6.5125699620693922e-04" rms="3.8731482625007629e-01" purity="1.8434385955333710e-01" nType="-99"/>
            <Node pos="r" depth="3" NCoef="0" IVar="-1" Cut="0.0000000000000000e+00" cType="1" res="-4.7803308814764023e-02" rms="1.2555903196334839e-01" purity="1.5510204248130322e-02" nType="-99"/>
          </Node>
          <Node pos="r" depth="2" NCoef="0" IVar="4" Cut="-2.1949896812438965e+00" cType="1" res="-6.0719378292560577e-02" rms="2.5280392169952393e-01" purity="7.3999255895614624e-02" nType="0">
            <Node pos="l" depth="3" NCoef="0" IVar="-1" Cut="0.0000000000000000e+00" cType="1" res="-1.3877813704311848e-02" rms="3.3554932475090027e-01" purity="1.3442815840244293e-01" nType="-99"/>
            <Node pos="r" depth="3" NCoef="0" IVar="-1" Cut="0.0000000000000000e+00" cType="1" res="-3.4120310097932816e-02" rms="2.0917102694511414e-01" purity="4.9307737499475479e-02" nType="-99"/>
          </Node>
        </Node>
      </Node>
    </BinaryTree>
    <BinaryTree type="DecisionTree" boostWeight="1.0000000000000000e+00" itree="21">
      <Node pos="s" depth="0" NCoef="0" IVar="2" Cut="7.6666665077209473e+00" cType="0" res="-3.0623568221926689e-02" rms="2.6914355158805847e-01" purity="2.3677997291088104e-01" nType="0">
        <Node pos="l" depth="1" NCoef="0" IVar="9" Cut="5.3333334922790527e+00" cType="0" res="5.8542303740978241e-02" rms="1.5135863423347473e-01" purity="9.7433674335479736e-01" nType="0">
          <Node pos="l" depth="2" NCoef="0" IVar="0" Cut="4.7619048506021500e-02" cType="1" res="6.1419099569320679e-02" rms="9.2251382768154144e-02" purity="9.9104070663452148e-01" nType="0">
            <Node pos="l" depth="3" NCoef="0" IVar="-1" Cut="0.0000000000000000e+00" cType="1" res="4.7579929232597351e-02" rms="8.8552869856357574e-02" purity="9.9172335863113403e-01" nType="-99"/>
            <Node pos="r" depth="3" NCoef="0" IVar="-1" Cut="0.0000000000000000e+00" cType="1" res="1.8444381654262543e-02" rms="2.5079905986785889e-01" purity="9.3449783325195312e-01" nType="-99"/>
          </Node>
          <Node pos="r" depth="2" NCoef="0" IVar="1" Cut="1.9047619402408600e-01" cType="0" res="3.8385830819606781e-02" rms="3.5118883848190308e-01" purity="8.5729926824569702e-01" nType="0">
            <Node pos="l" depth="3" NCoef="0" IVar="-1" Cut="0.0000000000000000e+00" cType="1" res="3.9231915026903152e-02" rms="3.1353330612182617e-01" purity="9.1291290521621704e-01" nType="-99"/>
            <Node pos="r" depth="3" NCoef="0" IVar="-1" Cut="0.0000000000000000e+00" cType="1" res="1.0033695958554745e-02" rms="3.5495722293853760e-01" purity="8.4960532188415527e-01" nType="-99"/>
          </Node>
        </Node>
        <Node pos="r" depth="1" NCoef="0" IVar="4" Cut="-2.3818426132202148e+00" cType="1" res="-4.7045413404703140e-02" rms="2.8253516554832458e-01" purity="1.0094276815652847e-01" nType="0">
          <Node pos="l" depth="2" NCoef="0" IVar="1" Cut="1.4285714924335480e-01" cType="1" res="-6.5219379030168056e-03" rms="3.8191553950309753e-01" purity="1.8872694671154022e-01" nType="0">
            <Node pos="l" depth="3" NCoef="0" IVar="-1" Cut="0.0000000000000000e+00" cType="1" res="1.0136515833437443e-02" rms="4.1191163659095764e-01" purity="2.3876723647117615e-01" nType="-99"/>
            <Node pos="r" depth="3" NCoef="0" IVar="-1" Cut="0.0000000000000000e+00" cType="1" res="-1.3198064640164375e-02" rms="3.5121840238571167e-01" purity="1.4636825025081635e-01" nType="-99"/>
          </Node>
          <Node pos="r" depth="2" NCoef="0" IVar="4" Cut="2.2857928276062012e+00" cType="0" res="-5.2202645689249039e-02" rms="2.6680850982666016e-01" purity="8.9770890772342682e-02" nType="0">
            <Node pos="l" depth="3" NCoef="0" IVar="-1" Cut="0.0000000000000000e+00" cType="1" res="-6.7041595466434956e-03" rms="3.6749422550201416e-01" purity="1.6683027148246765e-01" nType="-99"/>
            <Node pos="r" depth="3" NCoef="0" IVar="-1" Cut="0.0000000000000000e+00" cType="1" res="-2.8873672708868980e-02" rms="2.3160463571548462e-01" purity="6.9027230143547058e-02" nType="-99"/>
          </Node>
        </Node>
      </Node>
    </BinaryTree>
    <BinaryTree type="DecisionTree" boostWeight="1.0000000000000000e+00" itree="22">
      <Node pos="s" depth="0" NCoef="0" IVar="8" Cut="3.4285714626312256e+00" cType="0" res="-2.7265872806310654e-02" rms="2.6928985118865967e-01" purity="2.3542435467243195e-01" nType="0">
        <Node pos="l" depth="1" NCoef="0" IVar="10" Cut="5.4761905670166016e+00" cType="0" res="4.2064897716045380e-02" rms="2.5838825106620789e-01" purity="8.2383257150650024e-01" nType="0">
          <Node pos="l" depth="2" NCoef="0" IVar="2" Cut="8.0952377319335938e+00" cType="0" res="3.0781149864196777e-02" rms="2.4197192490100861e-01" purity="8.2663547992706299e-01" nType="0">
            <Node pos="l" depth="3" NCoef="0" IVar="-1" Cut="0.0000000000000000e+00" cType="1" res="4.5722674578428268e-02" rms="9.8116233944892883e-02" purity="9.9013966321945190e-01" nType="-99"/>
            <Node pos="r" depth="3" NCoef="0" IVar="-1" Cut="0.0000000000000000e+00" cType="1" res="-7.0966728962957859e-03" rms="4.0740245580673218e-01" purity="4.5193600654602051e-01" nType="-99"/>
          </Node>
          <Node pos="r" depth="2" NCoef="0" IVar="2" Cut="5.1904764175415039e+00" cType="1" res="1.9713155925273895e-01" rms="3.9223843812942505e-01" purity="7.8531360626220703e-01" nType="0">
            <Node pos="l" depth="3" NCoef="0" IVar="-1" Cut="0.0000000000000000e+00" cType="1" res="9.5655955374240875e-02" rms="4.0519756078720093e-01" purity="7.8680205345153809e-01" nType="-99"/>
            <Node pos="r" depth="3" NCoef="0" IVar="-1" Cut="0.0000000000000000e+00" cType="1" res="3.8891587406396866e-02" rms="3.6541318893432617e-01" purity="7.8493934869766235e-01" nType="-99"/>
          </Node>
        </Node>
        <Node pos="r" depth="1" NCoef="0" IVar="4" Cut="-2.3818426132202148e+00" cType="1" res="-4.5016229152679443e-02" rms="2.6915439963340759e-01" purity="8.4777586162090302e-02" nType="0">
          <Node pos="l" depth="2" NCoef="0" IVar="4" Cut="-2.5456261634826660e+00" cType="0" res="-7.7019180171191692e-03" rms="3.7132185697555542e-01" purity="1.7366443574428558e-01" nType="0">
            <Node pos="l" depth="3" NCoef="0" IVar="-1" Cut="0.0000000000000000e+00" cType="1" res="1.9655507057905197e-03" rms="3.8348352909088135e-01" purity="1.8938857316970825e-01" nType="-99"/>
            <Node pos="r" depth="3" NCoef="0" IVar="-1" Cut="0.0000000000000000e+00" cType="1" res="-2.2850833833217621e-02" rms="3.0850052833557129e-01" purity="1.0737111419439316e-01" nType="-99"/>
          </Node>
          <Node pos="r" depth="2" NCoef="0" IVar="4" Cut="2.2857902050018311e+00" cType="0" res="-4.9553532153367996e-02" rms="2.5356933474540710e-01" purity="7.3969230055809021e-02" nType="0">
            <Node pos="l" depth="3" NCoef="0" IVar="-1" Cut="0.0000000000000000e+00" cType="1" res="-7.4846241623163223e-03" rms="3.5537257790565491e-01" purity="1.5149749815464020e-01" nType="-99"/>
            <Node pos="r" depth="3" NCoef="0" IVar="-1" Cut="0.0000000000000000e+00" cType="1" res="-2.9586767777800560e-02" rms="2.1929118037223816e-01" purity="5.4023679345846176e-02" nType="-99"/>
          </Node>
        </Node>
      </Node>
    </BinaryTree>
    <BinaryTree type="DecisionTree" boostWeight="1.0000000000000000e+00" itree="23">
      <Node pos="s" depth="0" NCoef="0" IVar="8" Cut="3.3333332538604736e+00" cType="0" res="-2.4321692064404488e-02" rms="2.6834130287170410e-01" purity="2.3670600354671478e-01" nType="0">
        <Node pos="l" depth="1" NCoef="0" IVar="10" Cut="5.5714287757873535e+00" cType="0" res="3.8593716919422150e-02" rms="2.5453734397888184e-01" purity="8.2710927724838257e-01" nType="0">
          <Node pos="l" depth="2" NCoef="0" IVar="9" Cut="4.6666665077209473e+00" cType="0" res="2.8540113940834999e-02" rms="2.3896315693855286e-01" purity="8.2996368408203125e-01" nType="0">
            <Node pos="l" depth="3" NCoef="0" IVar="-1" Cut="0.0000000000000000e+00" cType="1" res="3.4760721027851105e-02" rms="1.5197788178920746e-01" purity="9.7264719009399414e-01" nType="-99"/>
            <Node pos="r" depth="3" NCoef="0" IVar="-1" Cut="0.0000000000000000e+00" cType="1" res="-9.4320634379982948e-03" rms="4.3152403831481934e-01" purity="2.6379689574241638e-01" nType="-99"/>
          </Node>
          <Node pos="r" depth="2" NCoef="0" IVar="10" Cut="3.0952382087707520e+00" cType="0" res="1.8044722080230713e-01" rms="3.8946908712387085e-01" purity="7.8683388233184814e-01" nType="0">
            <Node pos="l" depth="3" NCoef="0" IVar="-1" Cut="0.0000000000000000e+00" cType="1" res="2.7927484363317490e-02" rms="3.1457844376564026e-01" purity="8.3734941482543945e-01" nType="-99"/>
            <Node pos="r" depth="3" NCoef="0" IVar="-1" Cut="0.0000000000000000e+00" cType="1" res="6.9090329110622406e-02" rms="4.4550207257270813e-01" purity="7.0877659320831299e-01" nType="-99"/>
          </Node>
        </Node>
        <Node pos="r" depth="1" NCoef="0" IVar="10" Cut="3.3333332538604736e+00" cType="0" res="-4.0479347109794617e-02" rms="2.6941242814064026e-01" purity="8.5081256926059723e-02" nType="0">
          <Node pos="l" depth="2" NCoef="0" IVar="4" Cut="-2.2568128108978271e+00" cType="1" res="-2.6819009333848953e-02" rms="3.4570974111557007e-01" purity="1.4271490275859833e-01" nType="0">
            <Node pos="l" depth="3" NCoef="0" IVar="-1" Cut="0.0000000000000000e+00" cType="1" res="-1.8588618841022253e-03" rms="3.7268027663230896e-01" purity="1.7026446759700775e-01" nType="-99"/>
            <Node pos="r" depth="3" NCoef="0" IVar="-1" Cut="0.0000000000000000e+00" cType="1" res="-1.4184662140905857e-02" rms="3.2893374562263489e-01" purity="1.2720051407814026e-01" nType="-99"/>
          </Node>
          <Node pos="r" depth="2" NCoef="0" IVar="2" Cut="3.1904761791229248e+00" cType="1" res="-5.5116698145866394e-02" rms="1.4791892468929291e-01" purity="2.3325545713305473e-02" nType="0">
            <Node pos="l" depth="3" NCoef="0" IVar="-1" Cut="0.0000000000000000e+00" cType="1" res="-1.2633247300982475e-02" rms="2.7154830098152161e-01" purity="8.0054737627506256e-02" nType="-99"/>
            <Node pos="r" depth="3" NCoef="0" IVar="-1" Cut="0.0000000000000000e+00" cType="1" res="-4.2604897171258926e-02" rms="1.2448099255561829e-01" purity="1.6489746049046516e-02" nType="-99"/>
          </Node>
        </Node>
      </Node>
    </BinaryTree>
    <BinaryTree type="DecisionTree" boostWeight="1.0000000000000000e+00" itree="24">
      <Node pos="s" depth="0" NCoef="0" IVar="8" Cut="3.4285714626312256e+00" cType="0" res="-2.2591289132833481e-02" rms="2.6713597774505615e-01" purity="2.3535434901714325e-01" nType="0">
        <Node pos="l" depth="1" NCoef="0" IVar="10" Cut="5.5714287757873535e+00" cType="0" res="3.4789744764566422e-02" rms="2.5444287061691284e-01" purity="8.2492548227310181e-01" nType="0">
          <Node pos="l" depth="2" NCoef="0" IVar="2" Cut="8.2380952835083008e+00" cType="0" res="2.5802182033658028e-02" rms="2.3938937485218048e-01" purity="8.2779389619827271e-01" nType="0">
            <Node pos="l" depth="3" NCoef="0" IVar="-1" Cut="0.0000000000000000e+00" cType="1" res="4.4544715434312820e-02" rms="9.5596298575401306e-02" purity="9.9069494009017944e-01" nType="-99"/>
            <Node pos="r" depth="3" NCoef="0" IVar="-1" Cut="0.0000000000000000e+00" cType="1" res="-6.5599749796092510e-03" rms="4.0709453821182251e-01" purity="4.4914102554321289e-01" nType="-99"/>
          </Node>
          <Node pos="r" depth="2" NCoef="0" IVar="6" Cut="1.1955583095550537e+00" cType="1" res="1.5787906944751740e-01" rms="3.8767915964126587e-01" purity="7.8564155101776123e-01" nType="0">
            <Node pos="l" depth="3" NCoef="0" IVar="-1" Cut="0.0000000000000000e+00" cType="1" res="6.3845947384834290e-02" rms="3.2703682780265808e-01" purity="8.8789546489715576e-01" nType="-99"/>
            <Node pos="r" depth="3" NCoef="0" IVar="-1" Cut="0.0000000000000000e+00" cType="1" res="-1.2395809404551983e-02" rms="4.6360215544700623e-01" purity="4.9411764740943909e-01" nType="-99"/>
          </Node>
        </Node>
        <Node pos="r" depth="1" NCoef="0" IVar="10" Cut="4.0000000000000000e+00" cType="0" res="-3.7282031029462814e-02" rms="2.6832407712936401e-01" purity="8.4411837160587311e-02" nType="0">
          <Node pos="l" depth="2" NCoef="0" IVar="4" Cut="-2.2581713199615479e+00" cType="1" res="-2.7062380686402321e-02" rms="3.4282836318016052e-01" purity="1.3973979651927948e-01" nType="0">
            <Node pos="l" depth="3" NCoef="0" IVar="-1" Cut="0.0000000000000000e+00" cType="1" res="-3.0640643090009689e-03" rms="3.6893731355667114e-01" purity="1.6642037034034729e-01" nType="-99"/>
            <Node pos="r" depth="3" NCoef="0" IVar="-1" Cut="0.0000000000000000e+00" cType="1" res="-1.3902277685701847e-02" rms="3.2670572400093079e-01" purity="1.2466672062873840e-01" nType="-99"/>
          </Node>
          <Node pos="r" depth="2" NCoef="0" IVar="2" Cut="5.1428570747375488e+00" cType="0" res="-4.8153307288885117e-02" rms="1.5274737775325775e-01" purity="2.5556063279509544e-02" nType="0">
            <Node pos="l" depth="3" NCoef="0" IVar="-1" Cut="0.0000000000000000e+00" cType="1" res="4.5664817094802856e-02" rms="4.6662014722824097e-01" purity="4.7660818696022034e-01" nType="-99"/>
            <Node pos="r" depth="3" NCoef="0" IVar="-1" Cut="0.0000000000000000e+00" cType="1" res="-3.7153761833906174e-02" rms="1.4759160578250885e-01" purity="2.2714294493198395e-02" nType="-99"/>
          </Node>
        </Node>
      </Node>
    </BinaryTree>
    <BinaryTree type="DecisionTree" boostWeight="1.0000000000000000e+00" itree="25">
      <Node pos="s" depth="0" NCoef="0" IVar="8" Cut="3.4285714626312256e+00" cType="0" res="-1.9863998517394066e-02" rms="2.6684087514877319e-01" purity="2.3704649507999420e-01" nType="0">
        <Node pos="l" depth="1" NCoef="0" IVar="6" Cut="1.2890758514404297e+00" cType="1" res="3.2257754355669022e-02" rms="2.5332719087600708e-01" purity="8.2735854387283325e-01" nType="0">
          <Node pos="l" depth="2" NCoef="0" IVar="10" Cut="5.5714287757873535e+00" cType="0" res="4.9870647490024567e-02" rms="2.2715255618095398e-01" purity="8.8145226240158081e-01" nType="0">
            <Node pos="l" depth="3" NCoef="0" IVar="-1" Cut="0.0000000000000000e+00" cType="1" res="2.5558814406394958e-02" rms="2.1475569903850555e-01" purity="8.8224607706069946e-01" nType="-99"/>
            <Node pos="r" depth="3" NCoef="0" IVar="-1" Cut="0.0000000000000000e+00" cType="1" res="5.4122969508171082e-02" rms="3.3285304903984070e-01" purity="8.6979168653488159e-01" nType="-99"/>
          </Node>
          <Node pos="r" depth="2" NCoef="0" IVar="10" Cut="9.2857141494750977e+00" cType="0" res="-5.5678997188806534e-02" rms="3.4305062890052795e-01" purity="5.5728197097778320e-01" nType="0">
            <Node pos="l" depth="3" NCoef="0" IVar="-1" Cut="0.0000000000000000e+00" cType="1" res="5.1600844599306583e-03" rms="2.8555068373680115e-01" purity="8.9740079641342163e-01" nType="-99"/>
            <Node pos="r" depth="3" NCoef="0" IVar="-1" Cut="0.0000000000000000e+00" cType="1" res="-2.8455510735511780e-02" rms="3.7591144442558289e-01" purity="2.7410781383514404e-01" nType="-99"/>
          </Node>
        </Node>
        <Node pos="r" depth="1" NCoef="0" IVar="10" Cut="3.7142856121063232e+00" cType="0" res="-3.3318869769573212e-02" rms="2.6858204603195190e-01" purity="8.4661513566970825e-02" nType="0">
          <Node pos="l" depth="2" NCoef="0" IVar="4" Cut="2.2306358814239502e+00" cType="0" res="-2.2647183388471603e-02" rms="3.4437865018844604e-01" purity="1.4166493713855743e-01" nType="0">
            <Node pos="l" depth="3" NCoef="0" IVar="-1" Cut="0.0000000000000000e+00" cType="1" res="-2.7057647239416838e-03" rms="3.6439108848571777e-01" purity="1.5898999571800232e-01" nType="-99"/>
            <Node pos="r" depth="3" NCoef="0" IVar="-1" Cut="0.0000000000000000e+00" cType="1" res="-1.1958105489611626e-02" rms="3.3086672425270081e-01" purity="1.3080750405788422e-01" nType="-99"/>
          </Node>
          <Node pos="r" depth="2" NCoef="0" IVar="8" Cut="2.1428570747375488e+00" cType="0" res="-4.4718127697706223e-02" rms="1.4918729662895203e-01" purity="2.3771733045578003e-02" nType="0">
            <Node pos="l" depth="3" NCoef="0" IVar="-1" Cut="0.0000000000000000e+00" cType="1" res="-3.3731549978256226e-02" rms="1.5112994611263275e-01" purity="2.4684906005859375e-02" nType="-99"/>
            <Node pos="r" depth="3" NCoef="0" IVar="-1" Cut="0.0000000000000000e+00" cType="1" res="-4.4657770544290543e-02" rms="1.3035936653614044e-01" purity="1.6879634931683540e-02" nType="-99"/>
          </Node>
        </Node>
      </Node>
    </BinaryTree>
    <BinaryTree type="DecisionTree" boostWeight="1.0000000000000000e+00" itree="26">
      <Node pos="s" depth="0" NCoef="0" IVar="9" Cut="4.2380952835083008e+00" cType="0" res="-1.8000930547714233e-02" rms="2.6622876524925232e-01" purity="2.3657548427581787e-01" nType="0">
        <Node pos="l" depth="1" NCoef="0" IVar="6" Cut="1.3008319139480591e+00" cType="1" res="3.5992998629808426e-02" rms="1.8128743767738342e-01" purity="9.4674885272979736e-01" nType="0">
          <Node pos="l" depth="2" NCoef="0" IVar="10" Cut="4.6190476417541504e+00" cType="0" res="4.1850790381431580e-02" rms="1.4899623394012451e-01" purity="9.6986317634582520e-01" nType="0">
            <Node pos="l" depth="3" NCoef="0" IVar="-1" Cut="0.0000000000000000e+00" cType="1" res="3.4673798829317093e-02" rms="1.4030316472053528e-01" purity="9.7338575124740601e-01" nType="-99"/>
            <Node pos="r" depth="3" NCoef="0" IVar="-1" Cut="0.0000000000000000e+00" cType="1" res="3.7916578352451324e-02" rms="3.3727428317070007e-01" purity="8.2936507463455200e-01" nType="-99"/>
          </Node>
          <Node pos="r" depth="2" NCoef="0" IVar="2" Cut="9.0000000000000000e+00" cType="0" res="-5.2880072034895420e-03" rms="3.2569819688796997e-01" purity="7.8385770320892334e-01" nType="0">
            <Node pos="l" depth="3" NCoef="0" IVar="-1" Cut="0.0000000000000000e+00" cType="1" res="2.5137512013316154e-02" rms="1.7526784539222717e-01" purity="9.6906524896621704e-01" nType="-99"/>
            <Node pos="r" depth="3" NCoef="0" IVar="-1" Cut="0.0000000000000000e+00" cType="1" res="-1.1775409802794456e-02" rms="4.2646056413650513e-01" purity="5.9220600128173828e-01" nType="-99"/>
          </Node>
        </Node>
        <Node pos="r" depth="1" NCoef="0" IVar="2" Cut="4.3333334922790527e+00" cType="0" res="-2.8775995597243309e-02" rms="2.7886500954627991e-01" purity="9.4852812588214874e-02" nType="0">
          <Node pos="l" depth="2" NCoef="0" IVar="5" Cut="1.9045176506042480e+00" cType="1" res="-1.9722232595086098e-02" rms="3.4998080134391785e-01" purity="1.5218429267406464e-01" nType="0">
            <Node pos="l" depth="3" NCoef="0" IVar="-1" Cut="0.0000000000000000e+00" cType="1" res="-4.1569522581994534e-03" rms="3.6055853962898254e-01" purity="1.6477410495281219e-01" nType="-99"/>
            <Node pos="r" depth="3" NCoef="0" IVar="-1" Cut="0.0000000000000000e+00" cType="1" res="-2.0348701626062393e-02" rms="3.0080464482307434e-01" purity="1.0075165331363678e-01" nType="-99"/>
          </Node>
          <Node pos="r" depth="2" NCoef="0" IVar="2" Cut="3.0476191043853760e+00" cType="1" res="-4.0682360529899597e-02" rms="1.3676586747169495e-01" purity="1.9457697868347168e-02" nType="0">
            <Node pos="l" depth="3" NCoef="0" IVar="-1" Cut="0.0000000000000000e+00" cType="1" res="-4.1758245788514614e-03" rms="2.7246567606925964e-01" purity="8.0891177058219910e-02" nType="-99"/>
            <Node pos="r" depth="3" NCoef="0" IVar="-1" Cut="0.0000000000000000e+00" cType="1" res="-4.2227316647768021e-02" rms="1.0653840005397797e-01" purity="1.1508781462907791e-02" nType="-99"/>
          </Node>
        </Node>
      </Node>
    </BinaryTree>
    <BinaryTree type="DecisionTree" boostWeight="1.0000000000000000e+00" itree="27">
      <Node pos="s" depth="0" NCoef="0" IVar="9" Cut="4.2380952835083008e+00" cType="0" res="-1.6300773248076439e-02" rms="2.6536011695861816e-01" purity="2.3792105913162231e-01" nType="0">
        <Node pos="l" depth="1" NCoef="0" IVar="9" Cut="5.6190476417541504e+00" cType="0" res="3.3086821436882019e-02" rms="1.8031543493270874e-01" purity="9.4699007272720337e-01" nType="0">
          <Node pos="l" depth="2" NCoef="0" IVar="10" Cut="6.4761905670166016e+00" cType="0" res="3.8022708147764206e-02" rms="9.7877986729145050e-02" purity="9.8905444145202637e-01" nType="0">
            <Node pos="l" depth="3" NCoef="0" IVar="-1" Cut="0.0000000000000000e+00" cType="1" res="4.2318578809499741e-02" rms="9.1808222234249115e-02" purity="9.9060958623886108e-01" nType="-99"/>
            <Node pos="r" depth="3" NCoef="0" IVar="-1" Cut="0.0000000000000000e+00" cType="1" res="3.9765216410160065e-02" rms="1.7187407612800598e-01" purity="9.6142721176147461e-01" nType="-99"/>
          </Node>
          <Node pos="r" depth="2" NCoef="0" IVar="5" Cut="5.0478273630142212e-01" cType="1" res="1.0893591679632664e-02" rms="3.6746129393577576e-01" purity="7.5785583257675171e-01" nType="0">
            <Node pos="l" depth="3" NCoef="0" IVar="-1" Cut="0.0000000000000000e+00" cType="1" res="3.2364115118980408e-02" rms="2.8344243764877319e-01" purity="8.8539326190948486e-01" nType="-99"/>
            <Node pos="r" depth="3" NCoef="0" IVar="-1" Cut="0.0000000000000000e+00" cType="1" res="5.9426313964650035e-04" rms="3.7480455636978149e-01" purity="7.4323976039886475e-01" nType="-99"/>
          </Node>
        </Node>
        <Node pos="r" depth="1" NCoef="0" IVar="6" Cut="1.8868492841720581e+00" cType="1" res="-2.6294836774468422e-02" rms="2.7837464213371277e-01" purity="9.4434000551700592e-02" nType="0">
          <Node pos="l" depth="2" NCoef="0" IVar="4" Cut="2.3846833705902100e+00" cType="0" res="-1.8943818286061287e-02" rms="3.0471420288085938e-01" purity="1.1536409705877304e-01" nType="0">
            <Node pos="l" depth="3" NCoef="0" IVar="-1" Cut="0.0000000000000000e+00" cType="1" res="1.1958190239965916e-02" rms="4.0612721443176270e-01" purity="2.2002176940441132e-01" nType="-99"/>
            <Node pos="r" depth="3" NCoef="0" IVar="-1" Cut="0.0000000000000000e+00" cType="1" res="-1.2117700651288033e-02" rms="2.8878179192543030e-01" purity="1.0224047303199768e-01" nType="-99"/>
          </Node>
          <Node pos="r" depth="2" NCoef="0" IVar="8" Cut="3.0476191043853760e+00" cType="0" res="-4.3580576777458191e-02" rms="2.0236580073833466e-01" purity="4.5217391103506088e-02" nType="0">
            <Node pos="l" depth="3" NCoef="0" IVar="-1" Cut="0.0000000000000000e+00" cType="1" res="-4.6363975852727890e-02" rms="2.6687711477279663e-01" purity="8.1180810928344727e-02" nType="-99"/>
            <Node pos="r" depth="3" NCoef="0" IVar="-1" Cut="0.0000000000000000e+00" cType="1" res="-2.6696810498833656e-02" rms="1.9952414929866791e-01" purity="4.4364020228385925e-02" nType="-99"/>
          </Node>
        </Node>
      </Node>
    </BinaryTree>
    <BinaryTree type="DecisionTree" boostWeight="1.0000000000000000e+00" itree="28">
      <Node pos="s" depth="0" NCoef="0" IVar="2" Cut="7.7619047164916992e+00" cType="0" res="-1.5057020820677280e-02" rms="2.6532563567161560e-01" purity="2.3690564930438995e-01" nType="0">
        <Node pos="l" depth="1" NCoef="0" IVar="6" Cut="1.3814868927001953e+00" cType="1" res="3.1048033386468887e-02" rms="1.5326508879661560e-01" purity="9.7343403100967407e-01" nType="0">
          <Node pos="l" depth="2" NCoef="0" IVar="5" Cut="1.1421397924423218e+00" cType="1" res="3.3870961517095566e-02" rms="1.3069182634353638e-01" purity="9.8168277740478516e-01" nType="0">
            <Node pos="l" depth="3" NCoef="0" IVar="-1" Cut="0.0000000000000000e+00" cType="1" res="3.9679817855358124e-02" rms="1.1399487406015396e-01" purity="9.8667943477630615e-01" nType="-99"/>
            <Node pos="r" depth="3" NCoef="0" IVar="-1" Cut="0.0000000000000000e+00" cType="1" res="1.0357441380620003e-02" rms="2.1531572937965393e-01" purity="9.4522237777709961e-01" nType="-99"/>
          </Node>
          <Node pos="r" depth="2" NCoef="0" IVar="4" Cut="-8.6886334419250488e-01" cType="0" res="1.0796260903589427e-04" rms="3.0446529388427734e-01" purity="8.8302505016326904e-01" nType="0">
            <Node pos="l" depth="3" NCoef="0" IVar="-1" Cut="0.0000000000000000e+00" cType="1" res="1.1243121698498726e-02" rms="2.8010120987892151e-01" purity="9.0747332572937012e-01" nType="-99"/>
            <Node pos="r" depth="3" NCoef="0" IVar="-1" Cut="0.0000000000000000e+00" cType="1" res="-1.6230557113885880e-02" rms="3.3694231510162354e-01" purity="8.4453779458999634e-01" nType="-99"/>
          </Node>
        </Node>
        <Node pos="r" depth="1" NCoef="0" IVar="4" Cut="-2.3947985172271729e+00" cType="1" res="-2.3556772619485855e-02" rms="2.8032347559928894e-01" purity="1.0112208873033524e-01" nType="0">
          <Node pos="l" depth="2" NCoef="0" IVar="1" Cut="1.4285714924335480e-01" cType="1" res="1.0749713517725468e-02" rms="3.8106611371040344e-01" purity="1.9119590520858765e-01" nType="0">
            <Node pos="l" depth="3" NCoef="0" IVar="-1" Cut="0.0000000000000000e+00" cType="1" res="1.8771687522530556e-02" rms="4.1523775458335876e-01" purity="2.5153717398643494e-01" nType="-99"/>
            <Node pos="r" depth="3" NCoef="0" IVar="-1" Cut="0.0000000000000000e+00" cType="1" res="-9.3654850497841835e-03" rms="3.4716677665710449e-01" purity="1.4315383136272430e-01" nType="-99"/>
          </Node>
          <Node pos="r" depth="2" NCoef="0" IVar="4" Cut="2.4207863807678223e+00" cType="0" res="-2.7434000745415688e-02" rms="2.6627588272094727e-01" purity="9.0942181646823883e-02" nType="0">
            <Node pos="l" depth="3" NCoef="0" IVar="-1" Cut="0.0000000000000000e+00" cType="1" res="1.9873469136655331e-03" rms="3.7717121839523315e-01" purity="1.8163818120956421e-01" nType="-99"/>
            <Node pos="r" depth="3" NCoef="0" IVar="-1" Cut="0.0000000000000000e+00" cType="1" res="-1.6854230314493179e-02" rms="2.5251632928848267e-01" purity="8.2019314169883728e-02" nType="-99"/>
          </Node>
        </Node>
      </Node>
    </BinaryTree>
    <BinaryTree type="DecisionTree" boostWeight="1.0000000000000000e+00" itree="29">
      <Node pos="s" depth="0" NCoef="0" IVar="2" Cut="7.6666665077209473e+00" cType="0" res="-1.3359270058572292e-02" rms="2.6469856500625610e-01" purity="2.3709723353385925e-01" nType="0">
        <Node pos="l" depth="1" NCoef="0" IVar="6" Cut="2.1948826313018799e+00" cType="1" res="2.8737992048263550e-02" rms="1.5093834698200226e-01" purity="9.7452402114868164e-01" nType="0">
          <Node pos="l" depth="2" NCoef="0" IVar="6" Cut="1.4508072137832642e+00" cType="1" res="2.9571756720542908e-02" rms="1.4554402232170105e-01" purity="9.7667139768600464e-01" nType="0">
            <Node pos="l" depth="3" NCoef="0" IVar="-1" Cut="0.0000000000000000e+00" cType="1" res="3.4755297005176544e-02" rms="1.2921452522277832e-01" purity="9.8220193386077881e-01" nType="-99"/>
            <Node pos="r" depth="3" NCoef="0" IVar="-1" Cut="0.0000000000000000e+00" cType="1" res="-3.1560377683490515e-03" rms="3.1431534886360168e-01" purity="8.7938410043716431e-01" nType="-99"/>
          </Node>
          <Node pos="r" depth="2" NCoef="0" IVar="-1" Cut="0.0000000000000000e+00" cType="1" res="-1.2349920347332954e-02" rms="3.5490745306015015e-01" purity="8.3180427551269531e-01" nType="-99"/>
        </Node>
        <Node pos="r" depth="1" NCoef="0" IVar="2" Cut="4.1428570747375488e+00" cType="0" res="-2.1133132278919220e-02" rms="2.8001627326011658e-01" purity="1.0092081129550934e-01" nType="0">
          <Node pos="l" depth="2" NCoef="0" IVar="10" Cut="4.0476188659667969e+00" cType="1" res="-1.1915287002921104e-02" rms="3.5078573226928711e-01" purity="1.6206008195877075e-01" nType="0">
            <Node pos="l" depth="3" NCoef="0" IVar="-1" Cut="0.0000000000000000e+00" cType="1" res="1.1541288346052170e-02" rms="3.3091834187507629e-01" purity="2.6260831952095032e-01" nType="-99"/>
            <Node pos="r" depth="3" NCoef="0" IVar="-1" Cut="0.0000000000000000e+00" cType="1" res="-5.4888646118342876e-03" rms="3.5195589065551758e-01" purity="1.5496732294559479e-01" nType="-99"/>
          </Node>
          <Node pos="r" depth="2" NCoef="0" IVar="2" Cut="3.0476191043853760e+00" cType="1" res="-3.3442575484514236e-02" rms="1.3612550497055054e-01" purity="1.9275883212685585e-02" nType="0">
            <Node pos="l" depth="3" NCoef="0" IVar="-1" Cut="0.0000000000000000e+00" cType="1" res="-1.9197156652808189e-03" rms="2.7029550075531006e-01" purity="7.9389572143554688e-02" nType="-99"/>
            <Node pos="r" depth="3" NCoef="0" IVar="-1" Cut="0.0000000000000000e+00" cType="1" res="-4.0175344794988632e-02" rms="1.0666538029909134e-01" purity="1.1540158651769161e-02" nType="-99"/>
          </Node>
        </Node>
      </Node>
    </BinaryTree>
    <BinaryTree type="DecisionTree" boostWeight="1.0000000000000000e+00" itree="30">
      <Node pos="s" depth="0" NCoef="0" IVar="8" Cut="3.4285714626312256e+00" cType="0" res="-1.1208966374397278e-02" rms="2.6643151044845581e-01" purity="2.3719684779644012e-01" nType="0">
        <Node pos="l" depth="1" NCoef="0" IVar="10" Cut="5.5714287757873535e+00" cType="0" res="2.1695898845791817e-02" rms="2.5089472532272339e-01" purity="8.2539844512939453e-01" nType="0">
          <Node pos="l" depth="2" NCoef="0" IVar="2" Cut="8.2380952835083008e+00" cType="0" res="1.3332393951714039e-02" rms="2.3712605237960815e-01" purity="8.2810872793197632e-01" nType="0">
