<?xml version="1.0"?>
<MethodSetup Method="BDT::BDTG">
  <GeneralInfo>
    <Info name="TMVA Release" value="4.1.3 [262403]"/>
    <Info name="ROOT Release" value="5.34/01 [336385]"/>
    <Info name="Creator" value="mwalker"/>
    <Info name="Date" value="Mon Feb  4 10:52:49 2013"/>
    <Info name="Host" value="Linux lxbuild168.cern.ch 2.6.18-308.1.1.el5 #1 SMP Wed Mar 7 19:25:07 CET 2012 x86_64 x86_64 x86_64 GNU/Linux"/>
    <Info name="Dir" value="/afs/cern.ch/work/m/mwalker/Tracking/20121212_mvaPurity/PURITYV00ITER3"/>
    <Info name="Training events" value="80573"/>
    <Info name="TrainingTime" value="1.32568094e+02"/>
    <Info name="AnalysisType" value="Classification"/>
  </GeneralInfo>
  <Options>
    <Option name="V" modified="Yes">False</Option>
    <Option name="VerbosityLevel" modified="No">Default</Option>
    <Option name="VarTransform" modified="No">None</Option>
    <Option name="H" modified="Yes">False</Option>
    <Option name="CreateMVAPdfs" modified="No">False</Option>
    <Option name="IgnoreNegWeightsInTraining" modified="No">False</Option>
    <Option name="NTrees" modified="Yes">1000</Option>
    <Option name="RenormByClass" modified="No">False</Option>
    <Option name="BoostType" modified="Yes">Grad</Option>
    <Option name="AdaBoostR2Loss" modified="No">quadratic</Option>
    <Option name="UseBaggedGrad" modified="Yes">True</Option>
    <Option name="GradBaggingFraction" modified="Yes">5.000000e-01</Option>
    <Option name="Shrinkage" modified="Yes">1.000000e-01</Option>
    <Option name="AdaBoostBeta" modified="No">1.000000e+00</Option>
    <Option name="UseRandomisedTrees" modified="No">False</Option>
    <Option name="UseNvars" modified="No">3</Option>
    <Option name="UsePoissonNvars" modified="No">True</Option>
    <Option name="UseNTrainEvents" modified="No">80573</Option>
    <Option name="UseWeightedTrees" modified="No">True</Option>
    <Option name="UseYesNoLeaf" modified="No">True</Option>
    <Option name="NodePurityLimit" modified="No">5.000000e-01</Option>
    <Option name="SeparationType" modified="No">giniindex</Option>
    <Option name="nEventsMin" modified="No">66</Option>
    <Option name="nCuts" modified="Yes">20</Option>
    <Option name="UseFisherCuts" modified="No">False</Option>
    <Option name="MinLinCorrForFisher" modified="No">8.000000e-01</Option>
    <Option name="UseExclusiveVars" modified="No">False</Option>
    <Option name="PruneStrength" modified="No">0.000000e+00</Option>
    <Option name="PruneMethod" modified="No">nopruning</Option>
    <Option name="PruneBeforeBoost" modified="No">False</Option>
    <Option name="PruningValFraction" modified="No">5.000000e-01</Option>
    <Option name="NNodesMax" modified="Yes">15</Option>
    <Option name="MaxDepth" modified="Yes">3</Option>
    <Option name="DoBoostMonitor" modified="No">False</Option>
    <Option name="NegWeightTreatment" modified="No">ignorenegweights</Option>
  </Options>
  <Variables NVar="11">
    <Variable VarIndex="0" Expression="lostmidfrac" Label="lostmidfrac" Title="lostmidfrac" Unit="" Internal="lostmidfrac" Type="F" Min="0.00000000e+00" Max="4.28571433e-01"/>
    <Variable VarIndex="1" Expression="minlost" Label="minlost" Title="minlost" Unit="" Internal="minlost" Type="F" Min="0.00000000e+00" Max="3.00000000e+00"/>
    <Variable VarIndex="2" Expression="nhits" Label="nhits" Title="nhits" Unit="" Internal="nhits" Type="F" Min="3.00000000e+00" Max="6.60000000e+01"/>
    <Variable VarIndex="3" Expression="relpterr" Label="relpterr" Title="relpterr" Unit="" Internal="relpterr" Type="F" Min="2.88245175e-03" Max="2.43791107e+02"/>
    <Variable VarIndex="4" Expression="eta" Label="eta" Title="eta" Unit="" Internal="eta" Type="F" Min="-3.21384954e+00" Max="3.22638226e+00"/>
    <Variable VarIndex="5" Expression="chi2n_no1Dmod" Label="chi2n_no1Dmod" Title="chi2n_no1Dmod" Unit="" Internal="chi2n_no1Dmod" Type="F" Min="-3.77265692e+00" Max="1.29128311e+02"/>
    <Variable VarIndex="6" Expression="chi2n" Label="chi2n" Title="chi2n" Unit="" Internal="chi2n" Type="F" Min="3.13055637e-07" Max="1.01949577e+02"/>
    <Variable VarIndex="7" Expression="nlayerslost" Label="nlayerslost" Title="nlayerslost" Unit="" Internal="nlayerslost" Type="F" Min="0.00000000e+00" Max="3.00000000e+00"/>
    <Variable VarIndex="8" Expression="nlayers3D" Label="nlayers3D" Title="nlayers3D" Unit="" Internal="nlayers3D" Type="F" Min="0.00000000e+00" Max="1.30000000e+01"/>
    <Variable VarIndex="9" Expression="nlayers" Label="nlayers" Title="nlayers" Unit="" Internal="nlayers" Type="F" Min="1.00000000e+00" Max="2.00000000e+01"/>
    <Variable VarIndex="10" Expression="ndof" Label="ndof" Title="ndof" Unit="" Internal="ndof" Type="F" Min="-2.00000000e+00" Max="7.00000000e+01"/>
  </Variables>
  <Spectators NSpec="0"/>
  <Classes NClass="2">
    <Class Name="Signal" Index="0"/>
    <Class Name="Background" Index="1"/>
  </Classes>
  <Transformations NTransformations="0"/>
  <MVAPdfs/>
  <Weights NTrees="1000" AnalysisType="1">
    <BinaryTree type="DecisionTree" boostWeight="1.0000000000000000e+00" itree="0">
      <Node pos="s" depth="0" NCoef="0" IVar="8" Cut="4.3333334922790527e+00" cType="0" res="5.3451396524906158e-03" rms="4.9997141957283020e-01" purity="5.0534516572952271e-01" nType="0">
        <Node pos="l" depth="1" NCoef="0" IVar="0" Cut="1.0714285820722580e-01" cType="1" res="4.0517711639404297e-01" rms="2.9297015070915222e-01" purity="9.0517711639404297e-01" nType="0">
          <Node pos="l" depth="2" NCoef="0" IVar="2" Cut="1.3428571701049805e+01" cType="0" res="4.2377898097038269e-01" rms="2.6535144448280334e-01" purity="9.2377895116806030e-01" nType="0">
            <Node pos="l" depth="3" NCoef="0" IVar="-1" Cut="0.0000000000000000e+00" cType="1" res="9.5293529331684113e-02" rms="1.5158689022064209e-01" purity="9.7646766901016235e-01" nType="-99"/>
            <Node pos="r" depth="3" NCoef="0" IVar="-1" Cut="0.0000000000000000e+00" cType="1" res="7.0808485150337219e-02" rms="3.5306370258331299e-01" purity="8.5404241085052490e-01" nType="-99"/>
          </Node>
          <Node pos="r" depth="2" NCoef="0" IVar="3" Cut="2.1226033568382263e-02" cType="1" res="6.8702287971973419e-03" rms="4.9995279312133789e-01" purity="5.0687021017074585e-01" nType="0">
            <Node pos="l" depth="3" NCoef="0" IVar="-1" Cut="0.0000000000000000e+00" cType="1" res="5.1367782056331635e-02" rms="4.2899158596992493e-01" purity="7.5683891773223877e-01" nType="-99"/>
            <Node pos="r" depth="3" NCoef="0" IVar="-1" Cut="0.0000000000000000e+00" cType="1" res="-4.9079753458499908e-02" rms="4.3563681840896606e-01" purity="2.5460124015808105e-01" nType="-99"/>
          </Node>
        </Node>
        <Node pos="r" depth="1" NCoef="0" IVar="2" Cut="5.2857141494750977e+00" cType="0" res="-2.2360260784626007e-01" rms="4.4721570611000061e-01" purity="2.7639740705490112e-01" nType="0">
          <Node pos="l" depth="2" NCoef="0" IVar="10" Cut="5.5714287757873535e+00" cType="1" res="5.0315149128437042e-02" rms="4.9746194481849670e-01" purity="5.5031514167785645e-01" nType="0">
            <Node pos="l" depth="3" NCoef="0" IVar="-1" Cut="0.0000000000000000e+00" cType="1" res="3.0610561370849609e-02" rms="4.7599878907203674e-01" purity="6.5305280685424805e-01" nType="-99"/>
            <Node pos="r" depth="3" NCoef="0" IVar="-1" Cut="0.0000000000000000e+00" cType="1" res="-1.2815801426768303e-02" rms="4.9587687849998474e-01" purity="4.3592098355293274e-01" nType="-99"/>
          </Node>
          <Node pos="r" depth="2" NCoef="0" IVar="7" Cut="1.4285714924335480e-01" cType="1" res="-2.8351396322250366e-01" rms="4.1184926033020020e-01" purity="2.1648602187633514e-01" nType="0">
            <Node pos="l" depth="3" NCoef="0" IVar="-1" Cut="0.0000000000000000e+00" cType="1" res="-4.7573193907737732e-02" rms="4.3979516625404358e-01" purity="2.6213401556015015e-01" nType="-99"/>
            <Node pos="r" depth="3" NCoef="0" IVar="-1" Cut="0.0000000000000000e+00" cType="1" res="-8.1468410789966583e-02" rms="2.8995251655578613e-01" purity="9.2657960951328278e-02" nType="-99"/>
          </Node>
        </Node>
      </Node>
    </BinaryTree>
    <BinaryTree type="DecisionTree" boostWeight="1.0000000000000000e+00" itree="1">
      <Node pos="s" depth="0" NCoef="0" IVar="8" Cut="4.3333334922790527e+00" cType="0" res="1.2394866207614541e-03" rms="4.7863683104515076e-01" purity="5.0161081552505493e-01" nType="0">
        <Node pos="l" depth="1" NCoef="0" IVar="0" Cut="7.6923079788684845e-02" cType="1" res="3.6299684643745422e-01" rms="2.9117351770401001e-01" purity="9.0344542264938354e-01" nType="0">
          <Node pos="l" depth="2" NCoef="0" IVar="2" Cut="1.4571428298950195e+01" cType="0" res="3.9018517732620239e-01" rms="2.4907535314559937e-01" purity="9.3283003568649292e-01" nType="0">
            <Node pos="l" depth="3" NCoef="0" IVar="-1" Cut="0.0000000000000000e+00" cType="1" res="8.7697476148605347e-02" rms="1.3283300399780273e-01" purity="9.8203253746032715e-01" nType="-99"/>
            <Node pos="r" depth="3" NCoef="0" IVar="-1" Cut="0.0000000000000000e+00" cType="1" res="6.7363582551479340e-02" rms="3.3436083793640137e-01" purity="8.7159329652786255e-01" nType="-99"/>
          </Node>
          <Node pos="r" depth="2" NCoef="0" IVar="2" Cut="7.3809523582458496e+00" cType="0" res="1.5666750073432922e-01" rms="4.5738205313682556e-01" purity="6.8044888973236084e-01" nType="0">
            <Node pos="l" depth="3" NCoef="0" IVar="-1" Cut="0.0000000000000000e+00" cType="1" res="4.3229460716247559e-02" rms="4.3242123723030090e-01" purity="7.4420148134231567e-01" nType="-99"/>
            <Node pos="r" depth="3" NCoef="0" IVar="-1" Cut="0.0000000000000000e+00" cType="1" res="-6.4713120460510254e-02" rms="3.6530393362045288e-01" purity="1.5760870277881622e-01" nType="-99"/>
          </Node>
        </Node>
        <Node pos="r" depth="1" NCoef="0" IVar="2" Cut="5.2857141494750977e+00" cType="0" res="-2.0256175100803375e-01" rms="4.4173687696456909e-01" purity="2.7523148059844971e-01" nType="0">
          <Node pos="l" depth="2" NCoef="0" IVar="6" Cut="2.2167034149169922e+00" cType="1" res="3.6846794188022614e-02" rms="4.9604830145835876e-01" purity="5.4194098711013794e-01" nType="0">
            <Node pos="l" depth="3" NCoef="0" IVar="-1" Cut="0.0000000000000000e+00" cType="1" res="1.8254647031426430e-02" rms="4.8824775218963623e-01" purity="5.9717869758605957e-01" nType="-99"/>
            <Node pos="r" depth="3" NCoef="0" IVar="-1" Cut="0.0000000000000000e+00" cType="1" res="-3.9897505193948746e-02" rms="4.5909485220909119e-01" purity="3.0192962288856506e-01" nType="-99"/>
          </Node>
          <Node pos="r" depth="2" NCoef="0" IVar="6" Cut="1.8884698152542114e+00" cType="1" res="-2.5598677992820740e-01" rms="4.1002565622329712e-01" purity="2.1571415662765503e-01" nType="0">
            <Node pos="l" depth="3" NCoef="0" IVar="-1" Cut="0.0000000000000000e+00" cType="1" res="-3.8980185985565186e-02" rms="4.4587114453315735e-01" purity="2.7729809284210205e-01" nType="-99"/>
            <Node pos="r" depth="3" NCoef="0" IVar="-1" Cut="0.0000000000000000e+00" cType="1" res="-7.1606785058975220e-02" rms="3.1879076361656189e-01" purity="1.1515907943248749e-01" nType="-99"/>
          </Node>
        </Node>
      </Node>
    </BinaryTree>
    <BinaryTree type="DecisionTree" boostWeight="1.0000000000000000e+00" itree="2">
      <Node pos="s" depth="0" NCoef="0" IVar="8" Cut="4.3333334922790527e+00" cType="0" res="2.5221446994692087e-03" rms="4.5978578925132751e-01" purity="5.0325465202331543e-01" nType="0">
        <Node pos="l" depth="1" NCoef="0" IVar="0" Cut="7.4074074625968933e-02" cType="1" res="3.3079940080642700e-01" rms="2.8218632936477661e-01" purity="9.0712922811508179e-01" nType="0">
          <Node pos="l" depth="2" NCoef="0" IVar="2" Cut="8.8571424484252930e+00" cType="0" res="3.6030969023704529e-01" rms="2.3204793035984039e-01" purity="9.4191861152648926e-01" nType="0">
            <Node pos="l" depth="3" NCoef="0" IVar="-1" Cut="0.0000000000000000e+00" cType="1" res="7.8109495341777802e-02" rms="1.8689846992492676e-01" purity="9.6332681179046631e-01" nType="-99"/>
            <Node pos="r" depth="3" NCoef="0" IVar="-1" Cut="0.0000000000000000e+00" cType="1" res="5.1717296242713928e-02" rms="3.8220810890197754e-01" purity="8.2236152887344360e-01" nType="-99"/>
          </Node>
          <Node pos="r" depth="2" NCoef="0" IVar="2" Cut="7.4761905670166016e+00" cType="0" res="1.4857588708400726e-01" rms="4.4749674201011658e-01" purity="6.9230771064758301e-01" nType="0">
            <Node pos="l" depth="3" NCoef="0" IVar="-1" Cut="0.0000000000000000e+00" cType="1" res="3.9629030972719193e-02" rms="4.2959070205688477e-01" purity="7.4932324886322021e-01" nType="-99"/>
            <Node pos="r" depth="3" NCoef="0" IVar="-1" Cut="0.0000000000000000e+00" cType="1" res="-6.0500919818878174e-02" rms="3.5832259058952332e-01" purity="1.4948453009128571e-01" nType="-99"/>
          </Node>
        </Node>
        <Node pos="r" depth="1" NCoef="0" IVar="8" Cut="3.0476191043853760e+00" cType="0" res="-1.8521870672702789e-01" rms="4.3575957417488098e-01" purity="2.7227994799613953e-01" nType="0">
          <Node pos="l" depth="2" NCoef="0" IVar="3" Cut="2.2833950817584991e-02" cType="1" res="-2.1060453727841377e-02" rms="4.8732891678810120e-01" purity="4.5817491412162781e-01" nType="0">
            <Node pos="l" depth="3" NCoef="0" IVar="-1" Cut="0.0000000000000000e+00" cType="1" res="1.1979646980762482e-02" rms="4.8843872547149658e-01" purity="5.4813981056213379e-01" nType="-99"/>
            <Node pos="r" depth="3" NCoef="0" IVar="-1" Cut="0.0000000000000000e+00" cType="1" res="-3.8507230579853058e-02" rms="4.3897417187690735e-01" purity="2.6879182457923889e-01" nType="-99"/>
          </Node>
          <Node pos="r" depth="2" NCoef="0" IVar="0" Cut="1.8367347121238708e-01" cType="1" res="-2.5832822918891907e-01" rms="3.8902360200881958e-01" purity="1.8948972225189209e-01" nType="0">
            <Node pos="l" depth="3" NCoef="0" IVar="-1" Cut="0.0000000000000000e+00" cType="1" res="-4.5847896486520767e-02" rms="4.1499143838882446e-01" purity="2.2423185408115387e-01" nType="-99"/>
            <Node pos="r" depth="3" NCoef="0" IVar="-1" Cut="0.0000000000000000e+00" cType="1" res="-7.4865512549877167e-02" rms="2.5114935636520386e-01" purity="6.8371742963790894e-02" nType="-99"/>
          </Node>
        </Node>
      </Node>
    </BinaryTree>
    <BinaryTree type="DecisionTree" boostWeight="1.0000000000000000e+00" itree="3">
      <Node pos="s" depth="0" NCoef="0" IVar="8" Cut="4.3333334922790527e+00" cType="0" res="2.6104554999619722e-03" rms="4.4446715712547302e-01" purity="5.0353521108627319e-01" nType="0">
        <Node pos="l" depth="1" NCoef="0" IVar="0" Cut="7.1428574621677399e-02" cType="1" res="2.9385802149772644e-01" rms="2.8529381752014160e-01" purity="9.0254205465316772e-01" nType="0">
          <Node pos="l" depth="2" NCoef="0" IVar="9" Cut="5.7142858505249023e+00" cType="0" res="3.2183215022087097e-01" rms="2.3729380965232849e-01" purity="9.3863618373870850e-01" nType="0">
            <Node pos="l" depth="3" NCoef="0" IVar="-1" Cut="0.0000000000000000e+00" cType="1" res="7.1365982294082642e-02" rms="2.0471577346324921e-01" purity="9.5548725128173828e-01" nType="-99"/>
            <Node pos="r" depth="3" NCoef="0" IVar="-1" Cut="0.0000000000000000e+00" cType="1" res="3.8282025605440140e-02" rms="4.1391414403915405e-01" purity="7.7961891889572144e-01" nType="-99"/>
          </Node>
          <Node pos="r" depth="2" NCoef="0" IVar="2" Cut="7.3809523582458496e+00" cType="0" res="1.2411334365606308e-01" rms="4.4725802540779114e-01" purity="6.8352603912353516e-01" nType="0">
            <Node pos="l" depth="3" NCoef="0" IVar="-1" Cut="0.0000000000000000e+00" cType="1" res="3.4105215221643448e-02" rms="4.3542566895484924e-01" purity="7.4030804634094238e-01" nType="-99"/>
            <Node pos="r" depth="3" NCoef="0" IVar="-1" Cut="0.0000000000000000e+00" cType="1" res="-5.9663124382495880e-02" rms="3.3550596237182617e-01" purity="1.2953367829322815e-01" nType="-99"/>
          </Node>
        </Node>
        <Node pos="r" depth="1" NCoef="0" IVar="8" Cut="3.0476191043853760e+00" cType="0" res="-1.6408777236938477e-01" rms="4.3323975801467896e-01" purity="2.7515992522239685e-01" nType="0">
          <Node pos="l" depth="2" NCoef="0" IVar="3" Cut="2.2804493084549904e-02" cType="1" res="-1.8326545134186745e-02" rms="4.8500701785087585e-01" purity="4.5894205570220947e-01" nType="0">
            <Node pos="l" depth="3" NCoef="0" IVar="-1" Cut="0.0000000000000000e+00" cType="1" res="1.1233652010560036e-02" rms="4.8839825391769409e-01" purity="5.5039048194885254e-01" nType="-99"/>
            <Node pos="r" depth="3" NCoef="0" IVar="-1" Cut="0.0000000000000000e+00" cType="1" res="-3.5398639738559723e-02" rms="4.3870744109153748e-01" purity="2.6697891950607300e-01" nType="-99"/>
          </Node>
          <Node pos="r" depth="2" NCoef="0" IVar="8" Cut="2.1428570747375488e+00" cType="0" res="-2.2948922216892242e-01" rms="3.9058655500411987e-01" purity="1.9269891083240509e-01" nType="0">
            <Node pos="l" depth="3" NCoef="0" IVar="-1" Cut="0.0000000000000000e+00" cType="1" res="-4.0675967931747437e-02" rms="4.1444265842437744e-01" purity="2.2554685175418854e-01" nType="-99"/>
            <Node pos="r" depth="3" NCoef="0" IVar="-1" Cut="0.0000000000000000e+00" cType="1" res="-6.9034025073051453e-02" rms="2.7018165588378906e-01" purity="8.1201888620853424e-02" nType="-99"/>
          </Node>
        </Node>
      </Node>
    </BinaryTree>
    <BinaryTree type="DecisionTree" boostWeight="1.0000000000000000e+00" itree="4">
      <Node pos="s" depth="0" NCoef="0" IVar="2" Cut="7.7619047164916992e+00" cType="0" res="3.2707112841308117e-03" rms="4.3160876631736755e-01" purity="5.0385093688964844e-01" nType="0">
        <Node pos="l" depth="1" NCoef="0" IVar="0" Cut="7.7922083437442780e-02" cType="1" res="2.7165293693542480e-01" rms="2.8024142980575562e-01" purity="9.0376770496368408e-01" nType="0">
          <Node pos="l" depth="2" NCoef="0" IVar="6" Cut="3.2429440021514893e+00" cType="1" res="3.0019629001617432e-01" rms="2.2225080430507660e-01" purity="9.4586431980133057e-01" nType="0">
            <Node pos="l" depth="3" NCoef="0" IVar="-1" Cut="0.0000000000000000e+00" cType="1" res="6.7001774907112122e-02" rms="2.1139171719551086e-01" purity="9.5134633779525757e-01" nType="-99"/>
            <Node pos="r" depth="3" NCoef="0" IVar="-1" Cut="0.0000000000000000e+00" cType="1" res="2.4978302419185638e-02" rms="4.3160808086395264e-01" purity="7.4539875984191895e-01" nType="-99"/>
          </Node>
          <Node pos="r" depth="2" NCoef="0" IVar="2" Cut="1.1857142448425293e+01" cType="0" res="1.1404668539762497e-01" rms="4.5836302638053894e-01" purity="6.7132550477981567e-01" nType="0">
            <Node pos="l" depth="3" NCoef="0" IVar="-1" Cut="0.0000000000000000e+00" cType="1" res="7.6881736516952515e-02" rms="2.0954065024852753e-01" purity="9.5470380783081055e-01" nType="-99"/>
            <Node pos="r" depth="3" NCoef="0" IVar="-1" Cut="0.0000000000000000e+00" cType="1" res="1.5470475889742374e-02" rms="4.7271385788917542e-01" purity="6.2920767068862915e-01" nType="-99"/>
          </Node>
        </Node>
        <Node pos="r" depth="1" NCoef="0" IVar="8" Cut="3.0952382087707520e+00" cType="0" res="-1.4728771150112152e-01" rms="4.2855307459831238e-01" purity="2.7950358390808105e-01" nType="0">
          <Node pos="l" depth="2" NCoef="0" IVar="6" Cut="2.0458891391754150e+00" cType="1" res="-1.7756314948201180e-02" rms="4.7734797000885010e-01" purity="4.6856305003166199e-01" nType="0">
            <Node pos="l" depth="3" NCoef="0" IVar="-1" Cut="0.0000000000000000e+00" cType="1" res="9.4446698203682899e-03" rms="4.7800439596176147e-01" purity="5.4148471355438232e-01" nType="-99"/>
            <Node pos="r" depth="3" NCoef="0" IVar="-1" Cut="0.0000000000000000e+00" cType="1" res="-5.0852175801992416e-02" rms="3.9664825797080994e-01" purity="2.0573355257511139e-01" nType="-99"/>
          </Node>
          <Node pos="r" depth="2" NCoef="0" IVar="5" Cut="5.8840042352676392e-01" cType="1" res="-2.0759187638759613e-01" rms="3.8939785957336426e-01" purity="1.9148573279380798e-01" nType="0">
            <Node pos="l" depth="3" NCoef="0" IVar="-1" Cut="0.0000000000000000e+00" cType="1" res="-2.1807555109262466e-02" rms="4.5233103632926941e-01" purity="2.9916158318519592e-01" nType="-99"/>
            <Node pos="r" depth="3" NCoef="0" IVar="-1" Cut="0.0000000000000000e+00" cType="1" res="-5.2562162280082703e-02" rms="3.5031965374946594e-01" purity="1.4571520686149597e-01" nType="-99"/>
          </Node>
        </Node>
      </Node>
    </BinaryTree>
    <BinaryTree type="DecisionTree" boostWeight="1.0000000000000000e+00" itree="5">
      <Node pos="s" depth="0" NCoef="0" IVar="2" Cut="6.0000000000000000e+00" cType="0" res="2.6572889182716608e-03" rms="4.1999301314353943e-01" purity="5.0365883111953735e-01" nType="0">
        <Node pos="l" depth="1" NCoef="0" IVar="0" Cut="7.1428574621677399e-02" cType="1" res="2.2114244103431702e-01" rms="3.1582850217819214e-01" purity="8.6314857006072998e-01" nType="0">
          <Node pos="l" depth="2" NCoef="0" IVar="2" Cut="1.5428571701049805e+01" cType="0" res="2.6139223575592041e-01" rms="2.4934609234333038e-01" purity="9.2779809236526489e-01" nType="0">
            <Node pos="l" depth="3" NCoef="0" IVar="-1" Cut="0.0000000000000000e+00" cType="1" res="6.9315493106842041e-02" rms="1.1755047738552094e-01" purity="9.8600965738296509e-01" nType="-99"/>
            <Node pos="r" depth="3" NCoef="0" IVar="-1" Cut="0.0000000000000000e+00" cType="1" res="5.0535440444946289e-02" rms="3.2344853878021240e-01" purity="8.7399423122406006e-01" nType="-99"/>
          </Node>
          <Node pos="r" depth="2" NCoef="0" IVar="3" Cut="1.6129231080412865e-02" cType="1" res="7.0016674697399139e-02" rms="4.6033188700675964e-01" purity="6.2040930986404419e-01" nType="0">
            <Node pos="l" depth="3" NCoef="0" IVar="-1" Cut="0.0000000000000000e+00" cType="1" res="3.6866325885057449e-02" rms="4.2520377039909363e-01" purity="7.4491477012634277e-01" nType="-99"/>
            <Node pos="r" depth="3" NCoef="0" IVar="-1" Cut="0.0000000000000000e+00" cType="1" res="-8.9104054495692253e-03" rms="4.6813291311264038e-01" purity="4.9084669351577759e-01" nType="-99"/>
          </Node>
        </Node>
        <Node pos="r" depth="1" NCoef="0" IVar="0" Cut="1.6326530277729034e-01" cType="1" res="-1.5509103238582611e-01" rms="4.1519078612327576e-01" purity="2.4410387873649597e-01" nType="0">
          <Node pos="l" depth="2" NCoef="0" IVar="5" Cut="2.1633679866790771e+00" cType="1" res="-1.1771015077829361e-01" rms="4.4112730026245117e-01" purity="2.9156255722045898e-01" nType="0">
            <Node pos="l" depth="3" NCoef="0" IVar="-1" Cut="0.0000000000000000e+00" cType="1" res="-9.8068015649914742e-03" rms="4.7116449475288391e-01" purity="3.7390303611755371e-01" nType="-99"/>
            <Node pos="r" depth="3" NCoef="0" IVar="-1" Cut="0.0000000000000000e+00" cType="1" res="-5.1489643752574921e-02" rms="3.4815877676010132e-01" purity="1.4484283328056335e-01" nType="-99"/>
          </Node>
          <Node pos="r" depth="2" NCoef="0" IVar="2" Cut="4.1428570747375488e+00" cType="0" res="-2.6709377765655518e-01" rms="2.9850536584854126e-01" purity="1.0190541297197342e-01" nType="0">
            <Node pos="l" depth="3" NCoef="0" IVar="-1" Cut="0.0000000000000000e+00" cType="1" res="-4.5011959969997406e-02" rms="3.8476169109344482e-01" purity="1.8332566320896149e-01" nType="-99"/>
            <Node pos="r" depth="3" NCoef="0" IVar="-1" Cut="0.0000000000000000e+00" cType="1" res="-6.5340526401996613e-02" rms="2.2806996107101440e-01" purity="5.4221741855144501e-02" nType="-99"/>
          </Node>
        </Node>
      </Node>
    </BinaryTree>
    <BinaryTree type="DecisionTree" boostWeight="1.0000000000000000e+00" itree="6">
      <Node pos="s" depth="0" NCoef="0" IVar="2" Cut="6.0000000000000000e+00" cType="0" res="9.0867403196170926e-04" rms="4.0894579887390137e-01" purity="5.0255119800567627e-01" nType="0">
        <Node pos="l" depth="1" NCoef="0" IVar="0" Cut="8.5714288055896759e-02" cType="1" res="2.0138703286647797e-01" rms="3.1161022186279297e-01" purity="8.6513859033584595e-01" nType="0">
          <Node pos="l" depth="2" NCoef="0" IVar="2" Cut="1.5428571701049805e+01" cType="0" res="2.3239988088607788e-01" rms="2.5916793942451477e-01" purity="9.2090678215026855e-01" nType="0">
            <Node pos="l" depth="3" NCoef="0" IVar="-1" Cut="0.0000000000000000e+00" cType="1" res="6.6112630069255829e-02" rms="1.2036251276731491e-01" purity="9.8534852266311646e-01" nType="-99"/>
            <Node pos="r" depth="3" NCoef="0" IVar="-1" Cut="0.0000000000000000e+00" cType="1" res="4.5812901109457016e-02" rms="3.3193516731262207e-01" purity="8.6584079265594482e-01" nType="-99"/>
          </Node>
          <Node pos="r" depth="2" NCoef="0" IVar="3" Cut="1.5628311783075333e-02" cType="1" res="4.6190463006496429e-02" rms="4.6689850091934204e-01" purity="5.8605974912643433e-01" nType="0">
            <Node pos="l" depth="3" NCoef="0" IVar="-1" Cut="0.0000000000000000e+00" cType="1" res="3.6503829061985016e-02" rms="4.2448961734771729e-01" purity="7.4414974451065063e-01" nType="-99"/>
            <Node pos="r" depth="3" NCoef="0" IVar="-1" Cut="0.0000000000000000e+00" cType="1" res="-1.3030852191150188e-02" rms="4.7247409820556641e-01" purity="4.5359477400779724e-01" nType="-99"/>
          </Node>
        </Node>
        <Node pos="r" depth="1" NCoef="0" IVar="5" Cut="6.6429519653320312e-01" cType="1" res="-1.4440865814685822e-01" rms="4.0966406464576721e-01" purity="2.3972867429256439e-01" nType="0">
          <Node pos="l" depth="2" NCoef="0" IVar="8" Cut="2.1428570747375488e+00" cType="0" res="-4.0799908339977264e-02" rms="4.6067783236503601e-01" purity="3.6036288738250732e-01" nType="0">
            <Node pos="l" depth="3" NCoef="0" IVar="-1" Cut="0.0000000000000000e+00" cType="1" res="7.3551605455577374e-03" rms="4.8299017548561096e-01" purity="4.4860145449638367e-01" nType="-99"/>
            <Node pos="r" depth="3" NCoef="0" IVar="-1" Cut="0.0000000000000000e+00" cType="1" res="-6.9056287407875061e-02" rms="1.9823904335498810e-01" purity="4.1237112134695053e-02" nType="-99"/>
          </Node>
          <Node pos="r" depth="2" NCoef="0" IVar="2" Cut="5.1428570747375488e+00" cType="0" res="-1.9043771922588348e-01" rms="3.7578204274177551e-01" purity="1.8613591790199280e-01" nType="0">
            <Node pos="l" depth="3" NCoef="0" IVar="-1" Cut="0.0000000000000000e+00" cType="1" res="-1.5427488833665848e-02" rms="4.7425752878189087e-01" purity="4.0640810132026672e-01" nType="-99"/>
            <Node pos="r" depth="3" NCoef="0" IVar="-1" Cut="0.0000000000000000e+00" cType="1" res="-4.4472485780715942e-02" rms="3.5918176174163818e-01" purity="1.5882639586925507e-01" nType="-99"/>
          </Node>
        </Node>
      </Node>
    </BinaryTree>
    <BinaryTree type="DecisionTree" boostWeight="1.0000000000000000e+00" itree="7">
      <Node pos="s" depth="0" NCoef="0" IVar="2" Cut="7.7619047164916992e+00" cType="0" res="3.3272763248533010e-03" rms="4.0101906657218933e-01" purity="5.0453424453735352e-01" nType="0">
        <Node pos="l" depth="1" NCoef="0" IVar="0" Cut="6.4935065805912018e-02" cType="1" res="2.0213240385055542e-01" rms="2.7420398592948914e-01" purity="9.0376853942871094e-01" nType="0">
          <Node pos="l" depth="2" NCoef="0" IVar="6" Cut="3.2429440021514893e+00" cType="1" res="2.2739893198013306e-01" rms="2.0617341995239258e-01" purity="9.5318371057510376e-01" nType="0">
            <Node pos="l" depth="3" NCoef="0" IVar="-1" Cut="0.0000000000000000e+00" cType="1" res="5.8256570249795914e-02" rms="1.9838790595531464e-01" purity="9.5701134204864502e-01" nType="-99"/>
            <Node pos="r" depth="3" NCoef="0" IVar="-1" Cut="0.0000000000000000e+00" cType="1" res="2.3794593289494514e-02" rms="4.0180504322052002e-01" purity="7.8846156597137451e-01" nType="-99"/>
          </Node>
          <Node pos="r" depth="2" NCoef="0" IVar="2" Cut="1.2190476417541504e+01" cType="0" res="1.1093554645776749e-01" rms="4.2722705006599426e-01" purity="7.2540986537933350e-01" nType="0">
            <Node pos="l" depth="3" NCoef="0" IVar="-1" Cut="0.0000000000000000e+00" cType="1" res="5.1539599895477295e-02" rms="2.9711270332336426e-01" purity="9.0551179647445679e-01" nType="-99"/>
            <Node pos="r" depth="3" NCoef="0" IVar="-1" Cut="0.0000000000000000e+00" cType="1" res="1.4386625029146671e-02" rms="4.6136486530303955e-01" purity="6.5527814626693726e-01" nType="-99"/>
          </Node>
        </Node>
        <Node pos="r" depth="1" NCoef="0" IVar="5" Cut="5.8840042352676392e-01" cType="1" res="-1.0864660143852234e-01" rms="4.1742792725563049e-01" purity="2.7967178821563721e-01" nType="0">
          <Node pos="l" depth="2" NCoef="0" IVar="8" Cut="2.1428570747375488e+00" cType="0" res="-2.4317929055541754e-03" rms="4.5704689621925354e-01" purity="4.1143089532852173e-01" nType="0">
            <Node pos="l" depth="3" NCoef="0" IVar="-1" Cut="0.0000000000000000e+00" cType="1" res="1.4598942361772060e-02" rms="4.7591075301170349e-01" purity="5.0628185272216797e-01" nType="-99"/>
            <Node pos="r" depth="3" NCoef="0" IVar="-1" Cut="0.0000000000000000e+00" cType="1" res="-6.5026357769966125e-02" rms="1.9954973459243774e-01" purity="4.1694242507219315e-02" nType="-99"/>
          </Node>
          <Node pos="r" depth="2" NCoef="0" IVar="2" Cut="5.0952382087707520e+00" cType="0" res="-1.5100546181201935e-01" rms="3.9260128140449524e-01" purity="2.2712576389312744e-01" nType="0">
            <Node pos="l" depth="3" NCoef="0" IVar="-1" Cut="0.0000000000000000e+00" cType="1" res="-8.6032114923000336e-03" rms="4.7108742594718933e-01" purity="4.7368422150611877e-01" nType="-99"/>
            <Node pos="r" depth="3" NCoef="0" IVar="-1" Cut="0.0000000000000000e+00" cType="1" res="-3.9688438177108765e-02" rms="3.6556577682495117e-01" purity="1.6601668298244476e-01" nType="-99"/>
          </Node>
        </Node>
      </Node>
    </BinaryTree>
    <BinaryTree type="DecisionTree" boostWeight="1.0000000000000000e+00" itree="8">
      <Node pos="s" depth="0" NCoef="0" IVar="2" Cut="5.6190476417541504e+00" cType="0" res="4.0682624094188213e-03" rms="3.9336520433425903e-01" purity="5.0561767816543579e-01" nType="0">
        <Node pos="l" depth="1" NCoef="0" IVar="0" Cut="7.6190479099750519e-02" cType="1" res="1.4663876593112946e-01" rms="3.3651727437973022e-01" purity="8.2021254301071167e-01" nType="0">
          <Node pos="l" depth="2" NCoef="0" IVar="2" Cut="8.4761905670166016e+00" cType="0" res="1.8825773894786835e-01" rms="2.6585450768470764e-01" purity="9.0835142135620117e-01" nType="0">
            <Node pos="l" depth="3" NCoef="0" IVar="-1" Cut="0.0000000000000000e+00" cType="1" res="5.5971153080463409e-02" rms="1.9318678975105286e-01" purity="9.5997053384780884e-01" nType="-99"/>
            <Node pos="r" depth="3" NCoef="0" IVar="-1" Cut="0.0000000000000000e+00" cType="1" res="2.7377840131521225e-02" rms="4.1484585404396057e-01" purity="7.4307602643966675e-01" nType="-99"/>
          </Node>
          <Node pos="r" depth="2" NCoef="0" IVar="3" Cut="2.0208973437547684e-02" cType="1" res="3.0783217400312424e-02" rms="4.6204909682273865e-01" purity="5.7485848665237427e-01" nType="0">
            <Node pos="l" depth="3" NCoef="0" IVar="-1" Cut="0.0000000000000000e+00" cType="1" res="1.6734441742300987e-02" rms="4.5652642846107483e-01" purity="6.4219683408737183e-01" nType="-99"/>
            <Node pos="r" depth="3" NCoef="0" IVar="-1" Cut="0.0000000000000000e+00" cType="1" res="-1.9856732338666916e-02" rms="4.5182862877845764e-01" purity="4.0346020460128784e-01" nType="-99"/>
          </Node>
        </Node>
        <Node pos="r" depth="1" NCoef="0" IVar="7" Cut="1.4285714924335480e-01" cType="1" res="-1.2682676315307617e-01" rms="3.9627677202224731e-01" purity="2.1678586304187775e-01" nType="0">
          <Node pos="l" depth="2" NCoef="0" IVar="6" Cut="1.7677191495895386e+00" cType="1" res="-9.3889251351356506e-02" rms="4.2526480555534363e-01" purity="2.6262167096138000e-01" nType="0">
            <Node pos="l" depth="3" NCoef="0" IVar="-1" Cut="0.0000000000000000e+00" cType="1" res="-7.8811459243297577e-03" rms="4.6279019117355347e-01" purity="3.4626007080078125e-01" nType="-99"/>
            <Node pos="r" depth="3" NCoef="0" IVar="-1" Cut="0.0000000000000000e+00" cType="1" res="-4.0338188409805298e-02" rms="3.4964308142662048e-01" purity="1.4357604086399078e-01" nType="-99"/>
          </Node>
          <Node pos="r" depth="2" NCoef="0" IVar="2" Cut="4.0476188659667969e+00" cType="0" res="-2.1582677960395813e-01" rms="2.8606471419334412e-01" purity="9.2933543026447296e-02" nType="0">
            <Node pos="l" depth="3" NCoef="0" IVar="-1" Cut="0.0000000000000000e+00" cType="1" res="-4.0973011404275894e-02" rms="3.6599901318550110e-01" purity="1.6332820057868958e-01" nType="-99"/>
            <Node pos="r" depth="3" NCoef="0" IVar="-1" Cut="0.0000000000000000e+00" cType="1" res="-5.6713018566370010e-02" rms="2.3244655132293701e-01" purity="5.6443024426698685e-02" nType="-99"/>
          </Node>
        </Node>
      </Node>
    </BinaryTree>
    <BinaryTree type="DecisionTree" boostWeight="1.0000000000000000e+00" itree="9">
      <Node pos="s" depth="0" NCoef="0" IVar="2" Cut="5.6190476417541504e+00" cType="0" res="2.3882901296019554e-03" rms="3.8808485865592957e-01" purity="5.0465899705886841e-01" nType="0">
        <Node pos="l" depth="1" NCoef="0" IVar="2" Cut="8.4761905670166016e+00" cType="0" res="1.3057072460651398e-01" rms="3.3738431334495544e-01" purity="8.1827569007873535e-01" nType="0">
          <Node pos="l" depth="2" NCoef="0" IVar="2" Cut="1.3666666984558105e+01" cType="0" res="1.7566025257110596e-01" rms="2.4989204108715057e-01" purity="9.2420935630798340e-01" nType="0">
            <Node pos="l" depth="3" NCoef="0" IVar="-1" Cut="0.0000000000000000e+00" cType="1" res="5.7538911700248718e-02" rms="1.5466883778572083e-01" purity="9.7555500268936157e-01" nType="-99"/>
            <Node pos="r" depth="3" NCoef="0" IVar="-1" Cut="0.0000000000000000e+00" cType="1" res="3.3754255622625351e-02" rms="3.5243368148803711e-01" purity="8.3879667520523071e-01" nType="-99"/>
          </Node>
          <Node pos="r" depth="2" NCoef="0" IVar="10" Cut="6.2380952835083008e+00" cType="1" res="4.1951727122068405e-02" rms="4.5051699876785278e-01" purity="6.1007350683212280e-01" nType="0">
            <Node pos="l" depth="3" NCoef="0" IVar="-1" Cut="0.0000000000000000e+00" cType="1" res="2.8134534135460854e-02" rms="4.2129799723625183e-01" purity="7.2350651025772095e-01" nType="-99"/>
            <Node pos="r" depth="3" NCoef="0" IVar="-1" Cut="0.0000000000000000e+00" cType="1" res="-2.9119562357664108e-02" rms="4.5404994487762451e-01" purity="3.8095238804817200e-01" nType="-99"/>
          </Node>
        </Node>
        <Node pos="r" depth="1" NCoef="0" IVar="8" Cut="2.0952382087707520e+00" cType="0" res="-1.1594618111848831e-01" rms="3.9420074224472046e-01" purity="2.1513678133487701e-01" nType="0">
          <Node pos="l" depth="2" NCoef="0" IVar="6" Cut="2.1733868122100830e+00" cType="1" res="-9.3288943171501160e-02" rms="4.1618001461029053e-01" purity="2.4844141304492950e-01" nType="0">
            <Node pos="l" depth="3" NCoef="0" IVar="-1" Cut="0.0000000000000000e+00" cType="1" res="-1.1571578681468964e-02" rms="4.4985258579254150e-01" purity="3.1369727849960327e-01" nType="-99"/>
            <Node pos="r" depth="3" NCoef="0" IVar="-1" Cut="0.0000000000000000e+00" cType="1" res="-4.0183797478675842e-02" rms="3.3340191841125488e-01" purity="1.2839178740978241e-01" nType="-99"/>
          </Node>
          <Node pos="r" depth="2" NCoef="0" IVar="0" Cut="2.0408162847161293e-02" cType="0" res="-2.1777023375034332e-01" rms="2.5034353137016296e-01" purity="6.5462164580821991e-02" nType="0">
            <Node pos="l" depth="3" NCoef="0" IVar="-1" Cut="0.0000000000000000e+00" cType="1" res="-4.7628983855247498e-02" rms="2.6083263754844666e-01" purity="7.3454916477203369e-02" nType="-99"/>
            <Node pos="r" depth="3" NCoef="0" IVar="-1" Cut="0.0000000000000000e+00" cType="1" res="-5.9847388416528702e-02" rms="2.3202668130397797e-01" purity="5.6910570710897446e-02" nType="-99"/>
          </Node>
        </Node>
      </Node>
    </BinaryTree>
    <BinaryTree type="DecisionTree" boostWeight="1.0000000000000000e+00" itree="10">
      <Node pos="s" depth="0" NCoef="0" IVar="2" Cut="5.6190476417541504e+00" cType="0" res="1.9138518255203962e-03" rms="3.8100421428680420e-01" purity="5.0403779745101929e-01" nType="0">
        <Node pos="l" depth="1" NCoef="0" IVar="0" Cut="9.5238097012042999e-02" cType="1" res="1.1938321590423584e-01" rms="3.3172747492790222e-01" purity="8.2033318281173706e-01" nType="0">
          <Node pos="l" depth="2" NCoef="0" IVar="2" Cut="1.5904762268066406e+01" cType="0" res="1.4938130974769592e-01" rms="2.8187415003776550e-01" purity="8.9449125528335571e-01" nType="0">
            <Node pos="l" depth="3" NCoef="0" IVar="-1" Cut="0.0000000000000000e+00" cType="1" res="5.8313768357038498e-02" rms="1.1408319324254990e-01" purity="9.8688071966171265e-01" nType="-99"/>
            <Node pos="r" depth="3" NCoef="0" IVar="-1" Cut="0.0000000000000000e+00" cType="1" res="3.0849374830722809e-02" rms="3.5489079356193542e-01" purity="8.2761704921722412e-01" nType="-99"/>
          </Node>
          <Node pos="r" depth="2" NCoef="0" IVar="3" Cut="2.1041329950094223e-02" cType="1" res="-1.1873891344293952e-03" rms="4.6350726485252380e-01" purity="5.2227145433425903e-01" nType="0">
            <Node pos="l" depth="3" NCoef="0" IVar="-1" Cut="0.0000000000000000e+00" cType="1" res="1.1019796133041382e-02" rms="4.6470835804939270e-01" purity="6.0290473699569702e-01" nType="-99"/>
            <Node pos="r" depth="3" NCoef="0" IVar="-1" Cut="0.0000000000000000e+00" cType="1" res="-3.1971085816621780e-02" rms="4.2471215128898621e-01" purity="2.9822835326194763e-01" nType="-99"/>
          </Node>
        </Node>
        <Node pos="r" depth="1" NCoef="0" IVar="7" Cut="1.4285714924335480e-01" cType="1" res="-1.0599600523710251e-01" rms="3.9128834009170532e-01" purity="2.1348208189010620e-01" nType="0">
          <Node pos="l" depth="2" NCoef="0" IVar="5" Cut="1.2441846132278442e+00" cType="1" res="-7.8395977616310120e-02" rms="4.1978278756141663e-01" purity="2.5736790895462036e-01" nType="0">
            <Node pos="l" depth="3" NCoef="0" IVar="-1" Cut="0.0000000000000000e+00" cType="1" res="-1.8193379510194063e-03" rms="4.6701961755752563e-01" purity="3.6751785874366760e-01" nType="-99"/>
            <Node pos="r" depth="3" NCoef="0" IVar="-1" Cut="0.0000000000000000e+00" cType="1" res="-3.4180063754320145e-02" rms="3.5952195525169373e-01" purity="1.5645830333232880e-01" nType="-99"/>
          </Node>
          <Node pos="r" depth="2" NCoef="0" IVar="4" Cut="-2.4348230361938477e+00" cType="1" res="-1.7923872172832489e-01" rms="2.9050016403198242e-01" purity="9.7021423280239105e-02" nType="0">
            <Node pos="l" depth="3" NCoef="0" IVar="-1" Cut="0.0000000000000000e+00" cType="1" res="1.2106944806873798e-02" rms="4.5190593600273132e-01" purity="3.0000001192092896e-01" nType="-99"/>
            <Node pos="r" depth="3" NCoef="0" IVar="-1" Cut="0.0000000000000000e+00" cType="1" res="-4.6011686325073242e-02" rms="2.8684496879577637e-01" purity="9.4515956938266754e-02" nType="-99"/>
          </Node>
        </Node>
      </Node>
    </BinaryTree>
    <BinaryTree type="DecisionTree" boostWeight="1.0000000000000000e+00" itree="11">
      <Node pos="s" depth="0" NCoef="0" IVar="2" Cut="7.9523811340332031e+00" cType="0" res="-4.3180491775274277e-04" rms="3.7593960762023926e-01" purity="5.0157582759857178e-01" nType="0">
        <Node pos="l" depth="1" NCoef="0" IVar="0" Cut="6.4935065805912018e-02" cType="1" res="1.3741588592529297e-01" rms="2.6839318871498108e-01" purity="9.0330803394317627e-01" nType="0">
          <Node pos="l" depth="2" NCoef="0" IVar="6" Cut="3.2429440021514893e+00" cType="1" res="1.5822148323059082e-01" rms="1.9865238666534424e-01" purity="9.5651787519454956e-01" nType="0">
            <Node pos="l" depth="3" NCoef="0" IVar="-1" Cut="0.0000000000000000e+00" cType="1" res="5.0347331911325455e-02" rms="1.9221271574497223e-01" purity="9.5973825454711914e-01" nType="-99"/>
            <Node pos="r" depth="3" NCoef="0" IVar="-1" Cut="0.0000000000000000e+00" cType="1" res="2.2941393777728081e-02" rms="3.5997647047042847e-01" purity="8.3391004800796509e-01" nType="-99"/>
          </Node>
          <Node pos="r" depth="2" NCoef="0" IVar="10" Cut="7.0952382087707520e+00" cType="1" res="6.4408756792545319e-02" rms="4.2365300655364990e-01" purity="7.1659415960311890e-01" nType="0">
            <Node pos="l" depth="3" NCoef="0" IVar="-1" Cut="0.0000000000000000e+00" cType="1" res="5.2488833665847778e-02" rms="3.3750590682029724e-01" purity="8.5972851514816284e-01" nType="-99"/>
            <Node pos="r" depth="3" NCoef="0" IVar="-1" Cut="0.0000000000000000e+00" cType="1" res="8.2533136010169983e-03" rms="4.2877578735351562e-01" purity="6.9380402565002441e-01" nType="-99"/>
          </Node>
        </Node>
        <Node pos="r" depth="1" NCoef="0" IVar="5" Cut="5.8840042352676392e-01" cType="1" res="-7.7996850013732910e-02" rms="4.0449211001396179e-01" purity="2.7552643418312073e-01" nType="0">
          <Node pos="l" depth="2" NCoef="0" IVar="8" Cut="2.1428570747375488e+00" cType="0" res="8.7188491597771645e-03" rms="4.4238817691802979e-01" purity="4.0907210111618042e-01" nType="0">
            <Node pos="l" depth="3" NCoef="0" IVar="-1" Cut="0.0000000000000000e+00" cType="1" res="1.3957737945020199e-02" rms="4.6859228610992432e-01" purity="5.0250649452209473e-01" nType="-99"/>
            <Node pos="r" depth="3" NCoef="0" IVar="-1" Cut="0.0000000000000000e+00" cType="1" res="-5.7150114327669144e-02" rms="1.9469067454338074e-01" purity="4.0871933102607727e-02" nType="-99"/>
          </Node>
          <Node pos="r" depth="2" NCoef="0" IVar="4" Cut="-1.3737833499908447e+00" cType="0" res="-1.1193172633647919e-01" rms="3.8335403800010681e-01" purity="2.2326534986495972e-01" nType="0">
            <Node pos="l" depth="3" NCoef="0" IVar="-1" Cut="0.0000000000000000e+00" cType="1" res="-2.1318513900041580e-02" rms="3.9914363622665405e-01" purity="2.5569227337837219e-01" nType="-99"/>
            <Node pos="r" depth="3" NCoef="0" IVar="-1" Cut="0.0000000000000000e+00" cType="1" res="-4.1802201420068741e-02" rms="3.2908329367637634e-01" purity="1.3459600508213043e-01" nType="-99"/>
          </Node>
        </Node>
      </Node>
    </BinaryTree>
    <BinaryTree type="DecisionTree" boostWeight="1.0000000000000000e+00" itree="12">
      <Node pos="s" depth="0" NCoef="0" IVar="8" Cut="4.3333334922790527e+00" cType="0" res="-1.1905989376828074e-03" rms="3.7350854277610779e-01" purity="4.9963974952697754e-01" nType="0">
        <Node pos="l" depth="1" NCoef="0" IVar="2" Cut="1.4571428298950195e+01" cType="0" res="1.2222505360841751e-01" rms="2.6796895265579224e-01" purity="9.0313214063644409e-01" nType="0">
          <Node pos="l" depth="2" NCoef="0" IVar="0" Cut="7.1428574621677399e-02" cType="1" res="1.5183712542057037e-01" rms="1.3630446791648865e-01" purity="9.8138445615768433e-01" nType="0">
            <Node pos="l" depth="3" NCoef="0" IVar="-1" Cut="0.0000000000000000e+00" cType="1" res="5.3500957787036896e-02" rms="1.3248367607593536e-01" purity="9.8197942972183228e-01" nType="-99"/>
            <Node pos="r" depth="3" NCoef="0" IVar="-1" Cut="0.0000000000000000e+00" cType="1" res="6.1766851693391800e-02" rms="1.9236138463020325e-01" purity="9.6538460254669189e-01" nType="-99"/>
          </Node>
          <Node pos="r" depth="2" NCoef="0" IVar="10" Cut="8.4285717010498047e+00" cType="1" res="9.2444613575935364e-02" rms="3.5152485966682434e-01" purity="8.2443487644195557e-01" nType="0">
            <Node pos="l" depth="3" NCoef="0" IVar="-1" Cut="0.0000000000000000e+00" cType="1" res="3.8555137813091278e-02" rms="3.0706965923309326e-01" purity="8.8547009229660034e-01" nType="-99"/>
            <Node pos="r" depth="3" NCoef="0" IVar="-1" Cut="0.0000000000000000e+00" cType="1" res="1.5195099636912346e-02" rms="3.7470918893814087e-01" purity="7.8278112411499023e-01" nType="-99"/>
          </Node>
        </Node>
        <Node pos="r" depth="1" NCoef="0" IVar="8" Cut="3.0476191043853760e+00" cType="0" res="-7.0412680506706238e-02" rms="4.0515002608299255e-01" purity="2.7332660555839539e-01" nType="0">
          <Node pos="l" depth="2" NCoef="0" IVar="10" Cut="4.2380952835083008e+00" cType="1" res="2.4407899472862482e-03" rms="4.5654064416885376e-01" purity="4.5329669117927551e-01" nType="0">
            <Node pos="l" depth="3" NCoef="0" IVar="-1" Cut="0.0000000000000000e+00" cType="1" res="2.1184490993618965e-02" rms="4.7124639153480530e-01" purity="5.3717422485351562e-01" nType="-99"/>
            <Node pos="r" depth="3" NCoef="0" IVar="-1" Cut="0.0000000000000000e+00" cType="1" res="-1.7148921266198158e-02" rms="4.2709150910377502e-01" purity="3.8322255015373230e-01" nType="-99"/>
          </Node>
          <Node pos="r" depth="2" NCoef="0" IVar="2" Cut="3.5714285373687744e+00" cType="1" res="-1.0322911292314529e-01" rms="3.7514248490333557e-01" purity="1.9226010143756866e-01" nType="0">
            <Node pos="l" depth="3" NCoef="0" IVar="-1" Cut="0.0000000000000000e+00" cType="1" res="-1.6487529501318932e-02" rms="3.9893943071365356e-01" purity="2.2822359204292297e-01" nType="-99"/>
            <Node pos="r" depth="3" NCoef="0" IVar="-1" Cut="0.0000000000000000e+00" cType="1" res="-4.2509857565164566e-02" rms="3.1355610489845276e-01" purity="1.2365064024925232e-01" nType="-99"/>
          </Node>
        </Node>
      </Node>
    </BinaryTree>
    <BinaryTree type="DecisionTree" boostWeight="1.0000000000000000e+00" itree="13">
      <Node pos="s" depth="0" NCoef="0" IVar="2" Cut="6.0000000000000000e+00" cType="0" res="7.5383455259725451e-04" rms="3.6937329173088074e-01" purity="5.0383579730987549e-01" nType="0">
        <Node pos="l" depth="1" NCoef="0" IVar="0" Cut="7.1428574621677399e-02" cType="1" res="1.0364909470081329e-01" rms="3.0081704258918762e-01" purity="8.6304193735122681e-01" nType="0">
          <Node pos="l" depth="2" NCoef="0" IVar="6" Cut="3.2121088504791260e+00" cType="1" res="1.2342036515474319e-01" rms="2.4521492421627045e-01" purity="9.2815488576889038e-01" nType="0">
            <Node pos="l" depth="3" NCoef="0" IVar="-1" Cut="0.0000000000000000e+00" cType="1" res="4.1770111769437790e-02" rms="2.3807077109813690e-01" purity="9.3315941095352173e-01" nType="-99"/>
            <Node pos="r" depth="3" NCoef="0" IVar="-1" Cut="0.0000000000000000e+00" cType="1" res="-6.4294401090592146e-04" rms="4.1750341653823853e-01" purity="7.3913043737411499e-01" nType="-99"/>
          </Node>
          <Node pos="r" depth="2" NCoef="0" IVar="3" Cut="1.4342963695526123e-02" cType="1" res="3.0187860131263733e-02" rms="4.4322475790977478e-01" purity="6.2111109495162964e-01" nType="0">
            <Node pos="l" depth="3" NCoef="0" IVar="-1" Cut="0.0000000000000000e+00" cType="1" res="3.1908251345157623e-02" rms="3.9269489049911499e-01" purity="7.9242533445358276e-01" nType="-99"/>
            <Node pos="r" depth="3" NCoef="0" IVar="-1" Cut="0.0000000000000000e+00" cType="1" res="-8.1610567867755890e-03" rms="4.5859706401824951e-01" purity="5.1549166440963745e-01" nType="-99"/>
          </Node>
        </Node>
        <Node pos="r" depth="1" NCoef="0" IVar="0" Cut="1.6326530277729034e-01" cType="1" res="-7.4628092348575592e-02" rms="3.9580041170120239e-01" purity="2.4067839980125427e-01" nType="0">
          <Node pos="l" depth="2" NCoef="0" IVar="8" Cut="2.1428570747375488e+00" cType="0" res="-4.9762137234210968e-02" rms="4.2341196537017822e-01" purity="2.8966310620307922e-01" nType="0">
            <Node pos="l" depth="3" NCoef="0" IVar="-1" Cut="0.0000000000000000e+00" cType="1" res="-7.3652840219438076e-03" rms="4.3656548857688904e-01" purity="3.1650960445404053e-01" nType="-99"/>
            <Node pos="r" depth="3" NCoef="0" IVar="-1" Cut="0.0000000000000000e+00" cType="1" res="-5.0736438482999802e-02" rms="2.4811175465583801e-01" purity="6.7343667149543762e-02" nType="-99"/>
          </Node>
          <Node pos="r" depth="2" NCoef="0" IVar="9" Cut="4.0952382087707520e+00" cType="0" res="-1.4898616075515747e-01" rms="2.8572511672973633e-01" purity="9.4196662306785583e-02" nType="0">
            <Node pos="l" depth="3" NCoef="0" IVar="-1" Cut="0.0000000000000000e+00" cType="1" res="-2.4868840351700783e-02" rms="3.6681377887725830e-01" purity="1.6623036563396454e-01" nType="-99"/>
            <Node pos="r" depth="3" NCoef="0" IVar="-1" Cut="0.0000000000000000e+00" cType="1" res="-4.3757479637861252e-02" rms="2.7039176225662231e-01" purity="8.3283759653568268e-02" nType="-99"/>
          </Node>
        </Node>
      </Node>
    </BinaryTree>
    <BinaryTree type="DecisionTree" boostWeight="1.0000000000000000e+00" itree="14">
      <Node pos="s" depth="0" NCoef="0" IVar="2" Cut="6.0000000000000000e+00" cType="0" res="1.9469771068543196e-03" rms="3.6693641543388367e-01" purity="5.0438827276229858e-01" nType="0">
        <Node pos="l" depth="1" NCoef="0" IVar="0" Cut="1.0000000149011612e-01" cType="1" res="9.4775035977363586e-02" rms="2.9832994937896729e-01" purity="8.6525577306747437e-01" nType="0">
          <Node pos="l" depth="2" NCoef="0" IVar="6" Cut="4.7697987556457520e+00" cType="1" res="1.0619057714939117e-01" rms="2.7138233184814453e-01" purity="9.0668803453445435e-01" nType="0">
            <Node pos="l" depth="3" NCoef="0" IVar="-1" Cut="0.0000000000000000e+00" cType="1" res="3.5853777080774307e-02" rms="2.6632258296012878e-01" purity="9.1122895479202271e-01" nType="-99"/>
            <Node pos="r" depth="3" NCoef="0" IVar="-1" Cut="0.0000000000000000e+00" cType="1" res="-1.5004748478531837e-02" rms="4.4102847576141357e-01" purity="6.5925925970077515e-01" nType="-99"/>
          </Node>
          <Node pos="r" depth="2" NCoef="0" IVar="10" Cut="7.1428570747375488e+00" cType="1" res="4.1403081268072128e-03" rms="4.4904679059982300e-01" purity="5.3630101680755615e-01" nType="0">
            <Node pos="l" depth="3" NCoef="0" IVar="-1" Cut="0.0000000000000000e+00" cType="1" res="2.4333445355296135e-02" rms="4.3605074286460876e-01" purity="6.9014084339141846e-01" nType="-99"/>
            <Node pos="r" depth="3" NCoef="0" IVar="-1" Cut="0.0000000000000000e+00" cType="1" res="-2.5516837835311890e-02" rms="4.3061363697052002e-01" purity="3.6506158113479614e-01" nType="-99"/>
          </Node>
        </Node>
        <Node pos="r" depth="1" NCoef="0" IVar="5" Cut="6.6429519653320312e-01" cType="1" res="-6.5110079944133759e-02" rms="3.9609521627426147e-01" purity="2.4370503425598145e-01" nType="0">
          <Node pos="l" depth="2" NCoef="0" IVar="8" Cut="2.1428570747375488e+00" cType="0" res="1.6519947675988078e-03" rms="4.3919759988784790e-01" purity="3.6388361454010010e-01" nType="0">
            <Node pos="l" depth="3" NCoef="0" IVar="-1" Cut="0.0000000000000000e+00" cType="1" res="1.0476152412593365e-02" rms="4.7371882200241089e-01" purity="4.5199793577194214e-01" nType="-99"/>
            <Node pos="r" depth="3" NCoef="0" IVar="-1" Cut="0.0000000000000000e+00" cType="1" res="-5.1938846707344055e-02" rms="1.9554729759693146e-01" purity="4.0050856769084930e-02" nType="-99"/>
          </Node>
          <Node pos="r" depth="2" NCoef="0" IVar="4" Cut="1.6502209901809692e+00" cType="1" res="-9.5799438655376434e-02" rms="3.7060856819152832e-01" purity="1.8846105039119720e-01" nType="0">
            <Node pos="l" depth="3" NCoef="0" IVar="-1" Cut="0.0000000000000000e+00" cType="1" res="-2.1054727956652641e-02" rms="3.8115102052688599e-01" purity="2.0571383833885193e-01" nType="-99"/>
            <Node pos="r" depth="3" NCoef="0" IVar="-1" Cut="0.0000000000000000e+00" cType="1" res="-3.8068603724241257e-02" rms="3.2111313939094543e-01" purity="1.2097021937370300e-01" nType="-99"/>
          </Node>
        </Node>
      </Node>
    </BinaryTree>
    <BinaryTree type="DecisionTree" boostWeight="1.0000000000000000e+00" itree="15">
      <Node pos="s" depth="0" NCoef="0" IVar="8" Cut="3.0952382087707520e+00" cType="0" res="2.5240879040211439e-03" rms="3.6447733640670776e-01" purity="5.0571781396865845e-01" nType="0">
        <Node pos="l" depth="1" NCoef="0" IVar="0" Cut="1.0000000149011612e-01" cType="1" res="6.4171016216278076e-02" rms="3.4401994943618774e-01" purity="7.4896377325057983e-01" nType="0">
          <Node pos="l" depth="2" NCoef="0" IVar="3" Cut="7.2891816496849060e-02" cType="0" res="8.6497597396373749e-02" rms="3.1713894009590149e-01" purity="8.1893002986907959e-01" nType="0">
            <Node pos="l" depth="3" NCoef="0" IVar="-1" Cut="0.0000000000000000e+00" cType="1" res="1.1219810694456100e-01" rms="3.0386972427368164e-01" purity="8.8607597351074219e-01" nType="-99"/>
            <Node pos="r" depth="3" NCoef="0" IVar="-1" Cut="0.0000000000000000e+00" cType="1" res="2.6120239868760109e-02" rms="3.1596463918685913e-01" purity="8.1864535808563232e-01" nType="-99"/>
          </Node>
          <Node pos="r" depth="2" NCoef="0" IVar="3" Cut="1.4491282403469086e-02" cType="1" res="-4.1135925799608231e-02" rms="4.3443810939788818e-01" purity="4.1895639896392822e-01" nType="0">
            <Node pos="l" depth="3" NCoef="0" IVar="-1" Cut="0.0000000000000000e+00" cType="1" res="1.0054269805550575e-02" rms="4.4673892855644226e-01" purity="5.8705806732177734e-01" nType="-99"/>
            <Node pos="r" depth="3" NCoef="0" IVar="-1" Cut="0.0000000000000000e+00" cType="1" res="-2.0936381071805954e-02" rms="4.1781187057495117e-01" purity="3.1685575842857361e-01" nType="-99"/>
          </Node>
        </Node>
        <Node pos="r" depth="1" NCoef="0" IVar="10" Cut="1.5714285373687744e+00" cType="1" res="-7.6362550258636475e-02" rms="3.7457278370857239e-01" purity="1.9444757699966431e-01" nType="0">
          <Node pos="l" depth="2" NCoef="0" IVar="8" Cut="2.1428570747375488e+00" cType="0" res="-4.2029600590467453e-02" rms="3.9840224385261536e-01" purity="2.3173739016056061e-01" nType="0">
            <Node pos="l" depth="3" NCoef="0" IVar="-1" Cut="0.0000000000000000e+00" cType="1" res="-4.8447880544699728e-04" rms="4.4028976559638977e-01" purity="3.0052244663238525e-01" nType="-99"/>
            <Node pos="r" depth="3" NCoef="0" IVar="-1" Cut="0.0000000000000000e+00" cType="1" res="-4.4747758656740189e-02" rms="2.3623469471931458e-01" purity="5.8136049658060074e-02" nType="-99"/>
          </Node>
          <Node pos="r" depth="2" NCoef="0" IVar="2" Cut="4.4761905670166016e+00" cType="0" res="-1.4406691491603851e-01" rms="3.1156554818153381e-01" purity="1.2091229110956192e-01" nType="0">
            <Node pos="l" depth="3" NCoef="0" IVar="-1" Cut="0.0000000000000000e+00" cType="1" res="-1.2356314808130264e-02" rms="4.1670688986778259e-01" purity="2.5355690717697144e-01" nType="-99"/>
            <Node pos="r" depth="3" NCoef="0" IVar="-1" Cut="0.0000000000000000e+00" cType="1" res="-5.2371591329574585e-02" rms="2.2975648939609528e-01" purity="5.5569462478160858e-02" nType="-99"/>
          </Node>
        </Node>
      </Node>
    </BinaryTree>
    <BinaryTree type="DecisionTree" boostWeight="1.0000000000000000e+00" itree="16">
      <Node pos="s" depth="0" NCoef="0" IVar="2" Cut="9.0000000000000000e+00" cType="0" res="-1.3528778799809515e-04" rms="3.6247691512107849e-01" purity="5.0275045633316040e-01" nType="0">
        <Node pos="l" depth="1" NCoef="0" IVar="10" Cut="2.1238094329833984e+01" cType="0" res="9.8750479519367218e-02" rms="2.2695951163768768e-01" purity="9.3817895650863647e-01" nType="0">
          <Node pos="l" depth="2" NCoef="0" IVar="0" Cut="9.5238097012042999e-02" cType="0" res="1.2194785475730896e-01" rms="1.1374133825302124e-01" purity="9.8799067735671997e-01" nType="0">
            <Node pos="l" depth="3" NCoef="0" IVar="-1" Cut="0.0000000000000000e+00" cType="1" res="7.8480236232280731e-02" rms="8.0766975879669189e-02" purity="1.0000000000000000e+00" nType="-99"/>
            <Node pos="r" depth="3" NCoef="0" IVar="-1" Cut="0.0000000000000000e+00" cType="1" res="5.2246786653995514e-02" rms="1.1039955168962479e-01" purity="9.8778486251831055e-01" nType="-99"/>
          </Node>
          <Node pos="r" depth="2" NCoef="0" IVar="10" Cut="1.1714285850524902e+01" cType="1" res="7.6219469308853149e-02" rms="2.9655656218528748e-01" purity="8.8979804515838623e-01" nType="0">
            <Node pos="l" depth="3" NCoef="0" IVar="-1" Cut="0.0000000000000000e+00" cType="1" res="4.6678140759468079e-02" rms="2.2608587145805359e-01" purity="9.4258934259414673e-01" nType="-99"/>
            <Node pos="r" depth="3" NCoef="0" IVar="-1" Cut="0.0000000000000000e+00" cType="1" res="1.6126150265336037e-02" rms="3.1672319769859314e-01" purity="8.6747586727142334e-01" nType="-99"/>
          </Node>
        </Node>
        <Node pos="r" depth="1" NCoef="0" IVar="4" Cut="-1.3737833499908447e+00" cType="0" res="-3.8459613919258118e-02" rms="3.9634457230567932e-01" purity="3.3399507403373718e-01" nType="0">
          <Node pos="l" depth="2" NCoef="0" IVar="4" Cut="1.4739391803741455e+00" cType="1" res="-1.3575769029557705e-02" rms="4.0588629245758057e-01" purity="3.8303667306900024e-01" nType="0">
            <Node pos="l" depth="3" NCoef="0" IVar="-1" Cut="0.0000000000000000e+00" cType="1" res="6.2119830399751663e-03" rms="4.1679918766021729e-01" purity="4.5767381787300110e-01" nType="-99"/>
            <Node pos="r" depth="3" NCoef="0" IVar="-1" Cut="0.0000000000000000e+00" cType="1" res="-2.7802217751741409e-02" rms="3.6122864484786987e-01" purity="2.0158903300762177e-01" nType="-99"/>
          </Node>
          <Node pos="r" depth="2" NCoef="0" IVar="4" Cut="-2.4253001213073730e+00" cType="1" res="-1.1466120928525925e-01" rms="3.5488778352737427e-01" purity="1.8381534516811371e-01" nType="0">
            <Node pos="l" depth="3" NCoef="0" IVar="-1" Cut="0.0000000000000000e+00" cType="1" res="-1.8507206114009023e-03" rms="3.9891174435615540e-01" purity="3.1587058305740356e-01" nType="-99"/>
            <Node pos="r" depth="3" NCoef="0" IVar="-1" Cut="0.0000000000000000e+00" cType="1" res="-3.2802969217300415e-02" rms="3.4841158986091614e-01" purity="1.7071679234504700e-01" nType="-99"/>
          </Node>
        </Node>
      </Node>
    </BinaryTree>
    <BinaryTree type="DecisionTree" boostWeight="1.0000000000000000e+00" itree="17">
      <Node pos="s" depth="0" NCoef="0" IVar="2" Cut="5.6190476417541504e+00" cType="0" res="2.3020016960799694e-03" rms="3.6016765236854553e-01" purity="5.0396853685379028e-01" nType="0">
        <Node pos="l" depth="1" NCoef="0" IVar="0" Cut="6.3492067158222198e-02" cType="1" res="6.5210439264774323e-02" rms="3.2084715366363525e-01" purity="8.2061523199081421e-01" nType="0">
          <Node pos="l" depth="2" NCoef="0" IVar="6" Cut="3.1230640411376953e+00" cType="1" res="8.6795441806316376e-02" rms="2.5854822993278503e-01" purity="9.0869116783142090e-01" nType="0">
            <Node pos="l" depth="3" NCoef="0" IVar="-1" Cut="0.0000000000000000e+00" cType="1" res="3.3804319798946381e-02" rms="2.5108301639556885e-01" purity="9.1622006893157959e-01" nType="-99"/>
            <Node pos="r" depth="3" NCoef="0" IVar="-1" Cut="0.0000000000000000e+00" cType="1" res="-1.4865293167531490e-02" rms="4.1670104861259460e-01" purity="6.5743070840835571e-01" nType="-99"/>
          </Node>
          <Node pos="r" depth="2" NCoef="0" IVar="4" Cut="-1.0674513578414917e+00" cType="0" res="1.2901974841952324e-02" rms="4.3191540241241455e-01" purity="6.0717457532882690e-01" nType="0">
            <Node pos="l" depth="3" NCoef="0" IVar="-1" Cut="0.0000000000000000e+00" cType="1" res="1.0384229011833668e-02" rms="4.2663392424583435e-01" purity="6.5313392877578735e-01" nType="-99"/>
            <Node pos="r" depth="3" NCoef="0" IVar="-1" Cut="0.0000000000000000e+00" cType="1" res="-1.9264964386820793e-02" rms="4.3338474631309509e-01" purity="4.7075405716896057e-01" nType="-99"/>
          </Node>
        </Node>
        <Node pos="r" depth="1" NCoef="0" IVar="7" Cut="1.4285714924335480e-01" cType="1" res="-5.4992053657770157e-02" rms="3.8369500637054443e-01" purity="2.1558159589767456e-01" nType="0">
          <Node pos="l" depth="2" NCoef="0" IVar="5" Cut="1.1111092567443848e+00" cType="1" res="-3.5418845713138580e-02" rms="4.1122028231620789e-01" purity="2.5922092795372009e-01" nType="0">
            <Node pos="l" depth="3" NCoef="0" IVar="-1" Cut="0.0000000000000000e+00" cType="1" res="5.7727368548512459e-03" rms="4.5766720175743103e-01" purity="3.7689033150672913e-01" nType="-99"/>
            <Node pos="r" depth="3" NCoef="0" IVar="-1" Cut="0.0000000000000000e+00" cType="1" res="-2.2520465776324272e-02" rms="3.6339834332466125e-01" purity="1.6649311780929565e-01" nType="-99"/>
          </Node>
          <Node pos="r" depth="2" NCoef="0" IVar="0" Cut="2.0000000298023224e-01" cType="1" res="-1.0794799029827118e-01" rms="2.9014348983764648e-01" purity="9.7514003515243530e-02" nType="0">
            <Node pos="l" depth="3" NCoef="0" IVar="-1" Cut="0.0000000000000000e+00" cType="1" res="-3.6873407661914825e-02" rms="2.9093366861343384e-01" purity="1.0010400414466858e-01" nType="-99"/>
            <Node pos="r" depth="3" NCoef="0" IVar="-1" Cut="0.0000000000000000e+00" cType="1" res="-2.5609619915485382e-02" rms="2.8457814455032349e-01" purity="9.2175774276256561e-02" nType="-99"/>
          </Node>
        </Node>
      </Node>
    </BinaryTree>
    <BinaryTree type="DecisionTree" boostWeight="1.0000000000000000e+00" itree="18">
      <Node pos="s" depth="0" NCoef="0" IVar="2" Cut="9.0000000000000000e+00" cType="0" res="3.5248706117272377e-03" rms="3.5826113820075989e-01" purity="5.0770074129104614e-01" nType="0">
        <Node pos="l" depth="1" NCoef="0" IVar="2" Cut="1.2666666984558105e+01" cType="0" res="8.4864750504493713e-02" rms="2.2609202563762665e-01" purity="9.3857949972152710e-01" nType="0">
          <Node pos="l" depth="2" NCoef="0" IVar="0" Cut="8.0357141792774200e-02" cType="1" res="9.7633659839630127e-02" rms="1.5932163596153259e-01" purity="9.7376292943954468e-01" nType="0">
            <Node pos="l" depth="3" NCoef="0" IVar="-1" Cut="0.0000000000000000e+00" cType="1" res="4.4728517532348633e-02" rms="1.5639431774616241e-01" purity="9.7405213117599487e-01" nType="-99"/>
            <Node pos="r" depth="3" NCoef="0" IVar="-1" Cut="0.0000000000000000e+00" cType="1" res="6.0399025678634644e-02" rms="1.9958470761775970e-01" purity="9.6399998664855957e-01" nType="-99"/>
          </Node>
          <Node pos="r" depth="2" NCoef="0" IVar="10" Cut="1.0333333015441895e+01" cType="1" res="4.3118391185998917e-02" rms="3.6465960741043091e-01" purity="8.2355153560638428e-01" nType="0">
            <Node pos="l" depth="3" NCoef="0" IVar="-1" Cut="0.0000000000000000e+00" cType="1" res="4.8357520252466202e-02" rms="2.0473942160606384e-01" purity="9.5770150423049927e-01" nType="-99"/>
            <Node pos="r" depth="3" NCoef="0" IVar="-1" Cut="0.0000000000000000e+00" cType="1" res="-1.2574943713843822e-02" rms="4.4465497136116028e-01" purity="7.0391458272933960e-01" nType="-99"/>
          </Node>
        </Node>
        <Node pos="r" depth="1" NCoef="0" IVar="5" Cut="2.0170779228210449e+00" cType="1" res="-2.8405562043190002e-02" rms="3.9376729726791382e-01" purity="3.3855679631233215e-01" nType="0">
          <Node pos="l" depth="2" NCoef="0" IVar="4" Cut="-1.4131203889846802e+00" cType="0" res="9.4531737267971039e-03" rms="4.0880268812179565e-01" purity="4.2453372478485107e-01" nType="0">
            <Node pos="l" depth="3" NCoef="0" IVar="-1" Cut="0.0000000000000000e+00" cType="1" res="9.6650151535868645e-03" rms="4.1400063037872314e-01" purity="4.8495754599571228e-01" nType="-99"/>
            <Node pos="r" depth="3" NCoef="0" IVar="-1" Cut="0.0000000000000000e+00" cType="1" res="-2.3113468661904335e-02" rms="3.7439671158790588e-01" purity="2.2305253148078918e-01" nType="-99"/>
          </Node>
          <Node pos="r" depth="2" NCoef="0" IVar="10" Cut="8.4285717010498047e+00" cType="0" res="-1.0259969532489777e-01" rms="3.5084283351898193e-01" purity="1.7006245255470276e-01" nType="0">
            <Node pos="l" depth="3" NCoef="0" IVar="-1" Cut="0.0000000000000000e+00" cType="1" res="-6.1480890959501266e-02" rms="4.0043947100639343e-01" purity="2.3308271169662476e-01" nType="-99"/>
            <Node pos="r" depth="3" NCoef="0" IVar="-1" Cut="0.0000000000000000e+00" cType="1" res="-2.7248626574873924e-02" rms="3.4682407975196838e-01" purity="1.6737830638885498e-01" nType="-99"/>
          </Node>
        </Node>
      </Node>
    </BinaryTree>
    <BinaryTree type="DecisionTree" boostWeight="1.0000000000000000e+00" itree="19">
      <Node pos="s" depth="0" NCoef="0" IVar="2" Cut="7.9523811340332031e+00" cType="0" res="2.6065701968036592e-04" rms="3.5532602667808533e-01" purity="5.0334435701370239e-01" nType="0">
        <Node pos="l" depth="1" NCoef="0" IVar="0" Cut="6.4935065805912018e-02" cType="1" res="6.8945288658142090e-02" rms="2.6343199610710144e-01" purity="9.0239560604095459e-01" nType="0">
          <Node pos="l" depth="2" NCoef="0" IVar="8" Cut="6.1904764175415039e+00" cType="0" res="8.1400014460086823e-02" rms="1.9995930790901184e-01" purity="9.5540112257003784e-01" nType="0">
            <Node pos="l" depth="3" NCoef="0" IVar="-1" Cut="0.0000000000000000e+00" cType="1" res="4.9143854528665543e-02" rms="1.1104245483875275e-01" purity="9.8720866441726685e-01" nType="-99"/>
            <Node pos="r" depth="3" NCoef="0" IVar="-1" Cut="0.0000000000000000e+00" cType="1" res="2.8608368709683418e-02" rms="2.6005113124847412e-01" purity="9.2333507537841797e-01" nType="-99"/>
          </Node>
          <Node pos="r" depth="2" NCoef="0" IVar="10" Cut="8.3809528350830078e+00" cType="1" res="2.5273082777857780e-02" rms="4.1240781545639038e-01" purity="7.1653300523757935e-01" nType="0">
            <Node pos="l" depth="3" NCoef="0" IVar="-1" Cut="0.0000000000000000e+00" cType="1" res="3.6489237099885941e-02" rms="3.5677427053451538e-01" purity="8.2205879688262939e-01" nType="-99"/>
            <Node pos="r" depth="3" NCoef="0" IVar="-1" Cut="0.0000000000000000e+00" cType="1" res="-2.4685675743967295e-03" rms="4.1912266612052917e-01" purity="6.8852460384368896e-01" nType="-99"/>
          </Node>
        </Node>
        <Node pos="r" depth="1" NCoef="0" IVar="4" Cut="-1.3873080015182495e+00" cType="0" res="-3.8927160203456879e-02" rms="3.9302760362625122e-01" purity="2.7566680312156677e-01" nType="0">
          <Node pos="l" depth="2" NCoef="0" IVar="4" Cut="1.4398211240768433e+00" cType="1" res="-1.9102798774838448e-02" rms="4.0684679150581360e-01" purity="3.1621307134628296e-01" nType="0">
            <Node pos="l" depth="3" NCoef="0" IVar="-1" Cut="0.0000000000000000e+00" cType="1" res="4.0473202243447304e-03" rms="4.2388045787811279e-01" purity="3.8216865062713623e-01" nType="-99"/>
            <Node pos="r" depth="3" NCoef="0" IVar="-1" Cut="0.0000000000000000e+00" cType="1" res="-2.4335665628314018e-02" rms="3.5987177491188049e-01" purity="1.8378722667694092e-01" nType="-99"/>
          </Node>
          <Node pos="r" depth="2" NCoef="0" IVar="4" Cut="-2.5180482864379883e+00" cType="1" res="-9.4633586704730988e-02" rms="3.4525725245475769e-01" purity="1.6173188388347626e-01" nType="0">
            <Node pos="l" depth="3" NCoef="0" IVar="-1" Cut="0.0000000000000000e+00" cType="1" res="6.3417130149900913e-03" rms="4.1431942582130432e-01" purity="3.0131003260612488e-01" nType="-99"/>
            <Node pos="r" depth="3" NCoef="0" IVar="-1" Cut="0.0000000000000000e+00" cType="1" res="-2.8993438929319382e-02" rms="3.3802992105484009e-01" purity="1.5152482688426971e-01" nType="-99"/>
          </Node>
        </Node>
      </Node>
    </BinaryTree>
    <BinaryTree type="DecisionTree" boostWeight="1.0000000000000000e+00" itree="20">
      <Node pos="s" depth="0" NCoef="0" IVar="8" Cut="3.0952382087707520e+00" cType="0" res="1.1081447592005134e-03" rms="3.5508248209953308e-01" purity="5.0252056121826172e-01" nType="0">
        <Node pos="l" depth="1" NCoef="0" IVar="0" Cut="1.5714286267757416e-01" cType="1" res="4.4266108423471451e-02" rms="3.3658683300018311e-01" purity="7.4782878160476685e-01" nType="0">
          <Node pos="l" depth="2" NCoef="0" IVar="3" Cut="5.7867072522640228e-02" cType="1" res="5.1908072084188461e-02" rms="3.3297985792160034e-01" purity="7.7863639593124390e-01" nType="0">
            <Node pos="l" depth="3" NCoef="0" IVar="-1" Cut="0.0000000000000000e+00" cType="1" res="1.5958188101649284e-02" rms="3.3100038766860962e-01" purity="7.7875351905822754e-01" nType="-99"/>
            <Node pos="r" depth="3" NCoef="0" IVar="-1" Cut="0.0000000000000000e+00" cType="1" res="9.0181700885295868e-02" rms="4.0445068478584290e-01" purity="7.6282054185867310e-01" nType="-99"/>
          </Node>
          <Node pos="r" depth="2" NCoef="0" IVar="9" Cut="4.3809523582458496e+00" cType="0" res="-8.7591975927352905e-02" rms="3.6955088376998901e-01" purity="2.1626016497612000e-01" nType="0">
            <Node pos="l" depth="3" NCoef="0" IVar="-1" Cut="0.0000000000000000e+00" cType="1" res="3.1773112714290619e-02" rms="4.7006610035896301e-01" purity="6.5803110599517822e-01" nType="-99"/>
            <Node pos="r" depth="3" NCoef="0" IVar="-1" Cut="0.0000000000000000e+00" cType="1" res="-3.4283138811588287e-02" rms="3.3022609353065491e-01" purity="1.3404050469398499e-01" nType="-99"/>
          </Node>
        </Node>
        <Node pos="r" depth="1" NCoef="0" IVar="2" Cut="3.6190476417541504e+00" cType="1" res="-5.3282611072063446e-02" rms="3.7000045180320740e-01" purity="1.9336551427841187e-01" nType="0">
          <Node pos="l" depth="2" NCoef="0" IVar="8" Cut="2.1428570747375488e+00" cType="0" res="-2.0914617925882339e-02" rms="3.9447969198226929e-01" purity="2.3144632577896118e-01" nType="0">
            <Node pos="l" depth="3" NCoef="0" IVar="-1" Cut="0.0000000000000000e+00" cType="1" res="3.4536332823336124e-03" rms="4.3611568212509155e-01" purity="2.9898265004158020e-01" nType="-99"/>
            <Node pos="r" depth="3" NCoef="0" IVar="-1" Cut="0.0000000000000000e+00" cType="1" res="-3.9887342602014542e-02" rms="2.3490457236766815e-01" purity="5.6913085281848907e-02" nType="-99"/>
          </Node>
          <Node pos="r" depth="2" NCoef="0" IVar="2" Cut="4.5714287757873535e+00" cType="0" res="-1.1350745707750320e-01" rms="3.1065142154693604e-01" purity="1.2251123785972595e-01" nType="0">
            <Node pos="l" depth="3" NCoef="0" IVar="-1" Cut="0.0000000000000000e+00" cType="1" res="-1.0836836881935596e-02" rms="4.1268694400787354e-01" purity="2.4527363479137421e-01" nType="-99"/>
            <Node pos="r" depth="3" NCoef="0" IVar="-1" Cut="0.0000000000000000e+00" cType="1" res="-4.5332230627536774e-02" rms="2.4021379649639130e-01" purity="6.4011380076408386e-02" nType="-99"/>
          </Node>
        </Node>
      </Node>
    </BinaryTree>
    <BinaryTree type="DecisionTree" boostWeight="1.0000000000000000e+00" itree="21">
      <Node pos="s" depth="0" NCoef="0" IVar="5" Cut="2.3870661258697510e+00" cType="1" res="1.7410268774256110e-03" rms="3.5377633571624756e-01" purity="5.0574368238449097e-01" nType="0">
        <Node pos="l" depth="1" NCoef="0" IVar="5" Cut="1.2137758731842041e+00" cType="1" res="2.7091788128018379e-02" rms="3.4964698553085327e-01" purity="5.9148824214935303e-01" nType="0">
          <Node pos="l" depth="2" NCoef="0" IVar="8" Cut="3.0952382087707520e+00" cType="0" res="5.6473575532436371e-02" rms="3.3457580208778381e-01" purity="6.5376341342926025e-01" nType="0">
            <Node pos="l" depth="3" NCoef="0" IVar="-1" Cut="0.0000000000000000e+00" cType="1" res="3.3879101276397705e-02" rms="2.7720078825950623e-01" purity="8.6369484663009644e-01" nType="-99"/>
            <Node pos="r" depth="3" NCoef="0" IVar="-1" Cut="0.0000000000000000e+00" cType="1" res="-4.8140310682356358e-03" rms="4.0963509678840637e-01" purity="2.6757228374481201e-01" nType="-99"/>
          </Node>
          <Node pos="r" depth="2" NCoef="0" IVar="2" Cut="1.5857142448425293e+01" cType="0" res="-5.2872858941555023e-02" rms="3.7626343965530396e-01" purity="4.2200189828872681e-01" nType="0">
            <Node pos="l" depth="3" NCoef="0" IVar="-1" Cut="0.0000000000000000e+00" cType="1" res="3.2812789082527161e-02" rms="1.9700595736503601e-01" purity="9.6023857593536377e-01" nType="-99"/>
            <Node pos="r" depth="3" NCoef="0" IVar="-1" Cut="0.0000000000000000e+00" cType="1" res="-1.8974501639604568e-02" rms="3.9210253953933716e-01" purity="3.4849306941032410e-01" nType="-99"/>
          </Node>
        </Node>
        <Node pos="r" depth="1" NCoef="0" IVar="2" Cut="1.3285714149475098e+01" cType="0" res="-8.4600649774074554e-02" rms="3.5412845015525818e-01" purity="2.1370790898799896e-01" nType="0">
          <Node pos="l" depth="2" NCoef="0" IVar="9" Cut="1.0333333015441895e+01" cType="0" res="3.7495933473110199e-02" rms="2.8692355751991272e-01" purity="9.0721648931503296e-01" nType="0">
            <Node pos="l" depth="3" NCoef="0" IVar="-1" Cut="0.0000000000000000e+00" cType="1" res="3.5013079643249512e-02" rms="2.1824760735034943e-01" purity="9.4961237907409668e-01" nType="-99"/>
            <Node pos="r" depth="3" NCoef="0" IVar="-1" Cut="0.0000000000000000e+00" cType="1" res="-1.6353510320186615e-02" rms="3.7745752930641174e-01" purity="8.2307690382003784e-01" nType="-99"/>
          </Node>
          <Node pos="r" depth="2" NCoef="0" IVar="9" Cut="8.3333330154418945e+00" cType="0" res="-9.0008586645126343e-02" rms="3.5584491491317749e-01" purity="1.8299086391925812e-01" nType="0">
            <Node pos="l" depth="3" NCoef="0" IVar="-1" Cut="0.0000000000000000e+00" cType="1" res="-1.2029347568750381e-01" rms="4.3298384547233582e-01" purity="2.6399999856948853e-01" nType="-99"/>
            <Node pos="r" depth="3" NCoef="0" IVar="-1" Cut="0.0000000000000000e+00" cType="1" res="-2.5224858894944191e-02" rms="3.5183078050613403e-01" purity="1.8181818723678589e-01" nType="-99"/>
          </Node>
        </Node>
      </Node>
    </BinaryTree>
    <BinaryTree type="DecisionTree" boostWeight="1.0000000000000000e+00" itree="22">
      <Node pos="s" depth="0" NCoef="0" IVar="2" Cut="9.0000000000000000e+00" cType="0" res="5.1794096361845732e-04" rms="3.5315972566604614e-01" purity="5.0644713640213013e-01" nType="0">
        <Node pos="l" depth="1" NCoef="0" IVar="10" Cut="1.1190476417541504e+01" cType="1" res="6.0477375984191895e-02" rms="2.2398516535758972e-01" purity="9.3729138374328613e-01" nType="0">
          <Node pos="l" depth="2" NCoef="0" IVar="4" Cut="-1.0190435647964478e+00" cType="0" res="1.1102752387523651e-01" rms="2.0967614650726318e-01" purity="9.4985252618789673e-01" nType="0">
            <Node pos="l" depth="3" NCoef="0" IVar="-1" Cut="0.0000000000000000e+00" cType="1" res="4.6491146087646484e-02" rms="1.8629573285579681e-01" purity="9.6347939968109131e-01" nType="-99"/>
            <Node pos="r" depth="3" NCoef="0" IVar="-1" Cut="0.0000000000000000e+00" cType="1" res="1.4809326268732548e-02" rms="3.3607545495033264e-01" purity="8.4126985073089600e-01" nType="-99"/>
          </Node>
          <Node pos="r" depth="2" NCoef="0" IVar="2" Cut="1.2666666984558105e+01" cType="0" res="5.1635928452014923e-02" rms="2.2523227334022522e-01" purity="9.3509441614151001e-01" nType="0">
            <Node pos="l" depth="3" NCoef="0" IVar="-1" Cut="0.0000000000000000e+00" cType="1" res="3.8998778909444809e-02" rms="1.6806197166442871e-01" purity="9.6964722871780396e-01" nType="-99"/>
            <Node pos="r" depth="3" NCoef="0" IVar="-1" Cut="0.0000000000000000e+00" cType="1" res="-2.0919062197208405e-02" rms="4.4580620527267456e-01" purity="6.8048357963562012e-01" nType="-99"/>
          </Node>
        </Node>
        <Node pos="r" depth="1" NCoef="0" IVar="5" Cut="9.9331635236740112e-01" cType="1" res="-2.3070551455020905e-02" rms="3.8997501134872437e-01" purity="3.3694976568222046e-01" nType="0">
          <Node pos="l" depth="2" NCoef="0" IVar="8" Cut="2.2857143878936768e+00" cType="0" res="3.3327706158161163e-02" rms="4.0273362398147583e-01" purity="4.6861279010772705e-01" nType="0">
            <Node pos="l" depth="3" NCoef="0" IVar="-1" Cut="0.0000000000000000e+00" cType="1" res="1.4309744350612164e-02" rms="4.2304244637489319e-01" purity="5.4462993144989014e-01" nType="-99"/>
            <Node pos="r" depth="3" NCoef="0" IVar="-1" Cut="0.0000000000000000e+00" cType="1" res="-3.9414845407009125e-02" rms="2.2070212662220001e-01" purity="6.1498709022998810e-02" nType="-99"/>
          </Node>
          <Node pos="r" depth="2" NCoef="0" IVar="10" Cut="7.2857141494750977e+00" cType="0" res="-6.4742371439933777e-02" rms="3.7486100196838379e-01" purity="2.3966594040393829e-01" nType="0">
            <Node pos="l" depth="3" NCoef="0" IVar="-1" Cut="0.0000000000000000e+00" cType="1" res="-4.0390614420175552e-02" rms="4.2670765519142151e-01" purity="3.8273614645004272e-01" nType="-99"/>
            <Node pos="r" depth="3" NCoef="0" IVar="-1" Cut="0.0000000000000000e+00" cType="1" res="-1.6429111361503601e-02" rms="3.6912408471107483e-01" purity="2.2826932370662689e-01" nType="-99"/>
          </Node>
        </Node>
      </Node>
    </BinaryTree>
    <BinaryTree type="DecisionTree" boostWeight="1.0000000000000000e+00" itree="23">
      <Node pos="s" depth="0" NCoef="0" IVar="2" Cut="7.9523811340332031e+00" cType="0" res="8.4605759184341878e-05" rms="3.4987321496009827e-01" purity="5.0579524040222168e-01" nType="0">
        <Node pos="l" depth="1" NCoef="0" IVar="10" Cut="9.2380952835083008e+00" cType="0" res="5.0405506044626236e-02" rms="2.5928962230682373e-01" purity="9.0472620725631714e-01" nType="0">
          <Node pos="l" depth="2" NCoef="0" IVar="2" Cut="1.2476190567016602e+01" cType="0" res="4.1661657392978668e-02" rms="2.4834947288036346e-01" purity="9.1044908761978149e-01" nType="0">
            <Node pos="l" depth="3" NCoef="0" IVar="-1" Cut="0.0000000000000000e+00" cType="1" res="3.7649717181921005e-02" rms="1.6939695179462433e-01" purity="9.6976268291473389e-01" nType="-99"/>
            <Node pos="r" depth="3" NCoef="0" IVar="-1" Cut="0.0000000000000000e+00" cType="1" res="-8.6219357326626778e-03" rms="4.1046604514122009e-01" purity="7.0643639564514160e-01" nType="-99"/>
          </Node>
          <Node pos="r" depth="2" NCoef="0" IVar="2" Cut="8.1904764175415039e+00" cType="0" res="7.9922191798686981e-02" rms="2.9128894209861755e-01" purity="8.8540732860565186e-01" nType="0">
            <Node pos="l" depth="3" NCoef="0" IVar="-1" Cut="0.0000000000000000e+00" cType="1" res="4.1870899498462677e-02" rms="2.2934336960315704e-01" purity="9.4596010446548462e-01" nType="-99"/>
            <Node pos="r" depth="3" NCoef="0" IVar="-1" Cut="0.0000000000000000e+00" cType="1" res="1.2164806015789509e-02" rms="3.5296219587326050e-01" purity="8.0553632974624634e-01" nType="-99"/>
          </Node>
        </Node>
        <Node pos="r" depth="1" NCoef="0" IVar="5" Cut="3.0143351554870605e+00" cType="1" res="-2.8608972206711769e-02" rms="3.8936930894851685e-01" purity="2.7832004427909851e-01" nType="0">
          <Node pos="l" depth="2" NCoef="0" IVar="5" Cut="7.9256522655487061e-01" cType="1" res="-1.1827290989458561e-02" rms="4.0477579832077026e-01" purity="3.2624369859695435e-01" nType="0">
            <Node pos="l" depth="3" NCoef="0" IVar="-1" Cut="0.0000000000000000e+00" cType="1" res="7.4764154851436615e-03" rms="4.1985845565795898e-01" purity="4.1423478722572327e-01" nType="-99"/>
            <Node pos="r" depth="3" NCoef="0" IVar="-1" Cut="0.0000000000000000e+00" cType="1" res="-1.3254471123218536e-02" rms="3.8762935996055603e-01" purity="2.5057470798492432e-01" nType="-99"/>
          </Node>
          <Node pos="r" depth="2" NCoef="0" IVar="2" Cut="5.0952382087707520e+00" cType="0" res="-8.0358490347862244e-02" rms="3.3216419816017151e-01" purity="1.3053834438323975e-01" nType="0">
            <Node pos="l" depth="3" NCoef="0" IVar="-1" Cut="0.0000000000000000e+00" cType="1" res="-3.6517329514026642e-02" rms="4.2437532544136047e-01" purity="2.4637681245803833e-01" nType="-99"/>
            <Node pos="r" depth="3" NCoef="0" IVar="-1" Cut="0.0000000000000000e+00" cType="1" res="-2.3269882425665855e-02" rms="3.1740510463714600e-01" purity="1.1628321558237076e-01" nType="-99"/>
          </Node>
        </Node>
      </Node>
    </BinaryTree>
    <BinaryTree type="DecisionTree" boostWeight="1.0000000000000000e+00" itree="24">
      <Node pos="s" depth="0" NCoef="0" IVar="5" Cut="2.4629609584808350e+00" cType="1" res="1.6310733044520020e-03" rms="3.4966686367988586e-01" purity="5.0524461269378662e-01" nType="0">
        <Node pos="l" depth="1" NCoef="0" IVar="6" Cut="1.3617202043533325e+00" cType="1" res="2.0726850256323814e-02" rms="3.4702998399734497e-01" purity="5.8833438158035278e-01" nType="0">
          <Node pos="l" depth="2" NCoef="0" IVar="8" Cut="2.4761905670166016e+00" cType="0" res="4.0416102856397629e-02" rms="3.3714559674263000e-01" purity="6.4649516344070435e-01" nType="0">
            <Node pos="l" depth="3" NCoef="0" IVar="-1" Cut="0.0000000000000000e+00" cType="1" res="1.7121130600571632e-02" rms="3.4295156598091125e-01" purity="7.0475286245346069e-01" nType="-99"/>
            <Node pos="r" depth="3" NCoef="0" IVar="-1" Cut="0.0000000000000000e+00" cType="1" res="-3.4889582544565201e-02" rms="2.3479388654232025e-01" purity="7.1306578814983368e-02" nType="-99"/>
          </Node>
          <Node pos="r" depth="2" NCoef="0" IVar="10" Cut="2.4714284896850586e+01" cType="0" res="-6.2907308340072632e-02" rms="3.7485221028327942e-01" purity="3.4128439426422119e-01" nType="0">
            <Node pos="l" depth="3" NCoef="0" IVar="-1" Cut="0.0000000000000000e+00" cType="1" res="3.4654550254344940e-02" rms="1.7637039721012115e-01" purity="9.6948355436325073e-01" nType="-99"/>
            <Node pos="r" depth="3" NCoef="0" IVar="-1" Cut="0.0000000000000000e+00" cType="1" res="-2.0984040573239326e-02" rms="3.8447082042694092e-01" purity="2.9323038458824158e-01" nType="-99"/>
          </Node>
        </Node>
        <Node pos="r" depth="1" NCoef="0" IVar="9" Cut="3.2857143878936768e+00" cType="0" res="-6.6120490431785583e-02" rms="3.5057228803634644e-01" purity="2.1044321358203888e-01" nType="0">
          <Node pos="l" depth="2" NCoef="0" IVar="9" Cut="1.0190476417541504e+01" cType="0" res="-8.5918992757797241e-02" rms="3.5913991928100586e-01" purity="2.8119546175003052e-01" nType="0">
            <Node pos="l" depth="3" NCoef="0" IVar="-1" Cut="0.0000000000000000e+00" cType="1" res="2.2094404324889183e-02" rms="2.4873173236846924e-01" purity="9.3140792846679688e-01" nType="-99"/>
            <Node pos="r" depth="3" NCoef="0" IVar="-1" Cut="0.0000000000000000e+00" cType="1" res="-2.7862811461091042e-02" rms="3.6355924606323242e-01" purity="2.3937775194644928e-01" nType="-99"/>
          </Node>
          <Node pos="r" depth="2" NCoef="0" IVar="6" Cut="7.7705821990966797e+00" cType="1" res="-4.4930588454008102e-02" rms="3.3988896012306213e-01" purity="1.3471865653991699e-01" nType="0">
            <Node pos="l" depth="3" NCoef="0" IVar="-1" Cut="0.0000000000000000e+00" cType="1" res="-6.7774546332657337e-03" rms="3.5923349857330322e-01" purity="1.5493933856487274e-01" nType="-99"/>
            <Node pos="r" depth="3" NCoef="0" IVar="-1" Cut="0.0000000000000000e+00" cType="1" res="-3.1705070286989212e-02" rms="2.8893843293190002e-01" purity="9.2989988625049591e-02" nType="-99"/>
          </Node>
        </Node>
      </Node>
    </BinaryTree>
    <BinaryTree type="DecisionTree" boostWeight="1.0000000000000000e+00" itree="25">
      <Node pos="s" depth="0" NCoef="0" IVar="8" Cut="3.0952382087707520e+00" cType="0" res="2.8407727368175983e-03" rms="3.4828239679336548e-01" purity="5.0673645734786987e-01" nType="0">
        <Node pos="l" depth="1" NCoef="0" IVar="3" Cut="5.5764786899089813e-02" cType="1" res="3.2315135002136230e-02" rms="3.2903027534484863e-01" purity="7.5036472082138062e-01" nType="0">
          <Node pos="l" depth="2" NCoef="0" IVar="3" Cut="2.8844021260738373e-02" cType="1" res="2.9904164373874664e-02" rms="3.2711637020111084e-01" purity="7.5098109245300293e-01" nType="0">
            <Node pos="l" depth="3" NCoef="0" IVar="-1" Cut="0.0000000000000000e+00" cType="1" res="1.5495306812226772e-02" rms="3.2030904293060303e-01" purity="7.9482698440551758e-01" nType="-99"/>
            <Node pos="r" depth="3" NCoef="0" IVar="-1" Cut="0.0000000000000000e+00" cType="1" res="-2.3305887356400490e-02" rms="3.5951721668243408e-01" purity="3.8464748859405518e-01" nType="-99"/>
          </Node>
          <Node pos="r" depth="2" NCoef="0" IVar="2" Cut="4.1428570747375488e+00" cType="1" res="3.0674958229064941e-01" rms="4.1860231757164001e-01" purity="6.8020302057266235e-01" nType="0">
            <Node pos="l" depth="3" NCoef="0" IVar="-1" Cut="0.0000000000000000e+00" cType="1" res="1.0963898897171021e-01" rms="2.5859463214874268e-01" purity="9.2307692766189575e-01" nType="-99"/>
            <Node pos="r" depth="3" NCoef="0" IVar="-1" Cut="0.0000000000000000e+00" cType="1" res="1.9611656665802002e-02" rms="4.4786298274993896e-01" purity="4.0860214829444885e-01" nType="-99"/>
          </Node>
        </Node>
        <Node pos="r" depth="1" NCoef="0" IVar="2" Cut="3.6190476417541504e+00" cType="1" res="-3.4866474568843842e-02" rms="3.6803454160690308e-01" purity="1.9505712389945984e-01" nType="0">
          <Node pos="l" depth="2" NCoef="0" IVar="8" Cut="2.1428570747375488e+00" cType="0" res="-6.0217054560780525e-03" rms="3.9190015196800232e-01" purity="2.3308791220188141e-01" nType="0">
            <Node pos="l" depth="3" NCoef="0" IVar="-1" Cut="0.0000000000000000e+00" cType="1" res="5.6717568077147007e-03" rms="4.3311694264411926e-01" purity="2.9955524206161499e-01" nType="-99"/>
            <Node pos="r" depth="3" NCoef="0" IVar="-1" Cut="0.0000000000000000e+00" cType="1" res="-3.2529018819332123e-02" rms="2.4253615736961365e-01" purity="6.1686299741268158e-02" nType="-99"/>
          </Node>
          <Node pos="r" depth="2" NCoef="0" IVar="2" Cut="4.5714287757873535e+00" cType="0" res="-8.9129611849784851e-02" rms="3.1116145849227905e-01" purity="1.2351311743259430e-01" nType="0">
            <Node pos="l" depth="3" NCoef="0" IVar="-1" Cut="0.0000000000000000e+00" cType="1" res="-4.3132463470101357e-03" rms="4.1130667924880981e-01" purity="2.4799598753452301e-01" nType="-99"/>
            <Node pos="r" depth="3" NCoef="0" IVar="-1" Cut="0.0000000000000000e+00" cType="1" res="-4.2179182171821594e-02" rms="2.4102853238582611e-01" purity="6.3511230051517487e-02" nType="-99"/>
          </Node>
        </Node>
      </Node>
    </BinaryTree>
    <BinaryTree type="DecisionTree" boostWeight="1.0000000000000000e+00" itree="26">
      <Node pos="s" depth="0" NCoef="0" IVar="5" Cut="2.3079340457916260e+00" cType="1" res="1.5305680790334009e-05" rms="3.4709274768829346e-01" purity="5.0242727994918823e-01" nType="0">
        <Node pos="l" depth="1" NCoef="0" IVar="0" Cut="1.6326530277729034e-01" cType="1" res="1.9342213869094849e-02" rms="3.4506487846374512e-01" purity="5.9353309869766235e-01" nType="0">
          <Node pos="l" depth="2" NCoef="0" IVar="6" Cut="1.1524512767791748e+00" cType="1" res="3.2644543796777725e-02" rms="3.4859675168991089e-01" purity="6.6421449184417725e-01" nType="0">
            <Node pos="l" depth="3" NCoef="0" IVar="-1" Cut="0.0000000000000000e+00" cType="1" res="1.7944896593689919e-02" rms="3.3065190911293030e-01" purity="7.2643995285034180e-01" nType="-99"/>
            <Node pos="r" depth="3" NCoef="0" IVar="-1" Cut="0.0000000000000000e+00" cType="1" res="-8.7690902873873711e-03" rms="3.8822549581527710e-01" purity="4.8910412192344666e-01" nType="-99"/>
          </Node>
          <Node pos="r" depth="2" NCoef="0" IVar="7" Cut="1.4285714924335480e-01" cType="1" res="-6.8505652248859406e-02" rms="3.0660191178321838e-01" purity="1.2675708532333374e-01" nType="0">
            <Node pos="l" depth="3" NCoef="0" IVar="-1" Cut="0.0000000000000000e+00" cType="1" res="5.8679401874542236e-02" rms="4.5709004998207092e-01" purity="5.1515150070190430e-01" nType="-99"/>
            <Node pos="r" depth="3" NCoef="0" IVar="-1" Cut="0.0000000000000000e+00" cType="1" res="-2.5349628180265427e-02" rms="3.0129233002662659e-01" purity="1.2033090740442276e-01" nType="-99"/>
          </Node>
        </Node>
        <Node pos="r" depth="1" NCoef="0" IVar="0" Cut="2.2857142984867096e-01" cType="1" res="-6.2450721859931946e-02" rms="3.4626671671867371e-01" purity="2.0796646177768707e-01" nType="0">
          <Node pos="l" depth="2" NCoef="0" IVar="9" Cut="1.0714285850524902e+01" cType="0" res="-6.8443991243839264e-02" rms="3.4503671526908875e-01" purity="2.1167801320552826e-01" nType="0">
            <Node pos="l" depth="3" NCoef="0" IVar="-1" Cut="0.0000000000000000e+00" cType="1" res="1.9997607916593552e-02" rms="2.4872300028800964e-01" purity="9.3238431215286255e-01" nType="-99"/>
            <Node pos="r" depth="3" NCoef="0" IVar="-1" Cut="0.0000000000000000e+00" cType="1" res="-2.2859433665871620e-02" rms="3.4718579053878784e-01" purity="1.8833564221858978e-01" nType="-99"/>
          </Node>
          <Node pos="r" depth="2" NCoef="0" IVar="4" Cut="-1.7459710836410522e+00" cType="1" res="2.9627723619341850e-02" rms="3.5204270482063293e-01" purity="1.5094339847564697e-01" nType="0">
            <Node pos="l" depth="3" NCoef="0" IVar="-1" Cut="0.0000000000000000e+00" cType="1" res="4.8444598913192749e-02" rms="4.0179258584976196e-01" purity="2.0192307233810425e-01" nType="-99"/>
            <Node pos="r" depth="3" NCoef="0" IVar="-1" Cut="0.0000000000000000e+00" cType="1" res="-2.6821570936590433e-03" rms="3.1561768054962158e-01" purity="1.2266666442155838e-01" nType="-99"/>
          </Node>
        </Node>
      </Node>
    </BinaryTree>
    <BinaryTree type="DecisionTree" boostWeight="1.0000000000000000e+00" itree="27">
      <Node pos="s" depth="0" NCoef="0" IVar="2" Cut="7.9523811340332031e+00" cType="0" res="-2.1616108715534210e-03" rms="3.4536755084991455e-01" purity="5.0102704763412476e-01" nType="0">
        <Node pos="l" depth="1" NCoef="0" IVar="10" Cut="2.1000000000000000e+01" cType="0" res="3.8266740739345551e-02" rms="2.5763779878616333e-01" purity="9.0252482891082764e-01" nType="0">
          <Node pos="l" depth="2" NCoef="0" IVar="0" Cut="9.5238097012042999e-02" cType="0" res="6.0974191874265671e-02" rms="1.1340843886137009e-01" purity="9.8748213052749634e-01" nType="0">
            <Node pos="l" depth="3" NCoef="0" IVar="-1" Cut="0.0000000000000000e+00" cType="1" res="6.3948355615139008e-02" rms="1.2998352944850922e-01" purity="9.8850572109222412e-01" nType="-99"/>
            <Node pos="r" depth="3" NCoef="0" IVar="-1" Cut="0.0000000000000000e+00" cType="1" res="4.4448543339967728e-02" rms="1.1120241880416870e-01" purity="9.8746591806411743e-01" nType="-99"/>
          </Node>
          <Node pos="r" depth="2" NCoef="0" IVar="9" Cut="6.1428570747375488e+00" cType="1" res="2.4005724117159843e-02" rms="3.1537222862243652e-01" purity="8.4916889667510986e-01" nType="0">
            <Node pos="l" depth="3" NCoef="0" IVar="-1" Cut="0.0000000000000000e+00" cType="1" res="2.5417475029826164e-02" rms="3.0030301213264465e-01" purity="8.7162929773330688e-01" nType="-99"/>
            <Node pos="r" depth="3" NCoef="0" IVar="-1" Cut="0.0000000000000000e+00" cType="1" res="1.3620648533105850e-03" rms="3.1922948360443115e-01" purity="8.3973848819732666e-01" nType="-99"/>
          </Node>
        </Node>
        <Node pos="r" depth="1" NCoef="0" IVar="4" Cut="1.3444570302963257e+00" cType="1" res="-2.4779394268989563e-02" rms="3.8399052619934082e-01" purity="2.7640768885612488e-01" nType="0">
          <Node pos="l" depth="2" NCoef="0" IVar="4" Cut="-1.2603026628494263e+00" cType="0" res="-1.0250505991280079e-02" rms="3.9170950651168823e-01" purity="3.0671074986457825e-01" nType="0">
            <Node pos="l" depth="3" NCoef="0" IVar="-1" Cut="0.0000000000000000e+00" cType="1" res="5.7433065958321095e-03" rms="4.1240295767784119e-01" purity="3.8662382960319519e-01" nType="-99"/>
            <Node pos="r" depth="3" NCoef="0" IVar="-1" Cut="0.0000000000000000e+00" cType="1" res="-1.9749410450458527e-02" rms="3.4751349687576294e-01" purity="1.7225609719753265e-01" nType="-99"/>
          </Node>
          <Node pos="r" depth="2" NCoef="0" IVar="10" Cut="4.2380952835083008e+00" cType="0" res="-6.7689932882785797e-02" rms="3.5679090023040771e-01" purity="1.8690875172615051e-01" nType="0">
            <Node pos="l" depth="3" NCoef="0" IVar="-1" Cut="0.0000000000000000e+00" cType="1" res="-3.3168900758028030e-02" rms="3.6308711767196655e-01" purity="2.1248424053192139e-01" nType="-99"/>
            <Node pos="r" depth="3" NCoef="0" IVar="-1" Cut="0.0000000000000000e+00" cType="1" res="-1.4837653376162052e-02" rms="3.5251966118812561e-01" purity="1.7874395847320557e-01" nType="-99"/>
          </Node>
        </Node>
      </Node>
    </BinaryTree>
    <BinaryTree type="DecisionTree" boostWeight="1.0000000000000000e+00" itree="28">
      <Node pos="s" depth="0" NCoef="0" IVar="2" Cut="9.0000000000000000e+00" cType="0" res="-7.7587447594851255e-04" rms="3.4396439790725708e-01" purity="5.0313508510589600e-01" nType="0">
        <Node pos="l" depth="1" NCoef="0" IVar="9" Cut="1.0714285850524902e+01" cType="0" res="4.1498724371194839e-02" rms="2.1759255230426788e-01" purity="9.3827271461486816e-01" nType="0">
          <Node pos="l" depth="2" NCoef="0" IVar="0" Cut="9.0225562453269958e-02" cType="1" res="5.6730426847934723e-02" rms="1.1384084820747375e-01" purity="9.8634147644042969e-01" nType="0">
            <Node pos="l" depth="3" NCoef="0" IVar="-1" Cut="0.0000000000000000e+00" cType="1" res="4.3186839669942856e-02" rms="1.1155072599649429e-01" purity="9.8649775981903076e-01" nType="-99"/>
            <Node pos="r" depth="3" NCoef="0" IVar="-1" Cut="0.0000000000000000e+00" cType="1" res="5.5315099656581879e-02" rms="1.5381856262683868e-01" purity="9.8013246059417725e-01" nType="-99"/>
          </Node>
          <Node pos="r" depth="2" NCoef="0" IVar="9" Cut="7.1428570747375488e+00" cType="1" res="2.3393785580992699e-02" rms="2.9600051045417786e-01" purity="8.8113647699356079e-01" nType="0">
            <Node pos="l" depth="3" NCoef="0" IVar="-1" Cut="0.0000000000000000e+00" cType="1" res="3.2284453511238098e-02" rms="2.4669687449932098e-01" purity="9.2814373970031738e-01" nType="-99"/>
            <Node pos="r" depth="3" NCoef="0" IVar="-1" Cut="0.0000000000000000e+00" cType="1" res="-1.0060457279905677e-03" rms="3.1358516216278076e-01" purity="8.5873287916183472e-01" nType="-99"/>
          </Node>
        </Node>
        <Node pos="r" depth="1" NCoef="0" IVar="4" Cut="1.3278245925903320e+00" cType="1" res="-1.7360007390379906e-02" rms="3.8101789355278015e-01" purity="3.3243262767791748e-01" nType="0">
          <Node pos="l" depth="2" NCoef="0" IVar="4" Cut="-1.4837087392807007e+00" cType="0" res="-2.0058068912476301e-03" rms="3.8574036955833435e-01" purity="3.7280982732772827e-01" nType="0">
            <Node pos="l" depth="3" NCoef="0" IVar="-1" Cut="0.0000000000000000e+00" cType="1" res="7.1053062565624714e-03" rms="3.9913177490234375e-01" purity="4.5731827616691589e-01" nType="-99"/>
            <Node pos="r" depth="3" NCoef="0" IVar="-1" Cut="0.0000000000000000e+00" cType="1" res="-2.1370818838477135e-02" rms="3.4316983819007874e-01" purity="1.7347095906734467e-01" nType="-99"/>
          </Node>
          <Node pos="r" depth="2" NCoef="0" IVar="4" Cut="2.4524290561676025e+00" cType="0" res="-6.4748495817184448e-02" rms="3.6197471618652344e-01" purity="2.0781427621841431e-01" nType="0">
            <Node pos="l" depth="3" NCoef="0" IVar="-1" Cut="0.0000000000000000e+00" cType="1" res="1.9893119111657143e-02" rms="3.8921996951103210e-01" purity="3.6381322145462036e-01" nType="-99"/>
            <Node pos="r" depth="3" NCoef="0" IVar="-1" Cut="0.0000000000000000e+00" cType="1" res="-2.2225445136427879e-02" rms="3.5764533281326294e-01" purity="1.9557252526283264e-01" nType="-99"/>
          </Node>
        </Node>
      </Node>
    </BinaryTree>
    <BinaryTree type="DecisionTree" boostWeight="1.0000000000000000e+00" itree="29">
      <Node pos="s" depth="0" NCoef="0" IVar="5" Cut="2.6124403476715088e+00" cType="1" res="-1.8996349535882473e-04" rms="3.4418803453445435e-01" purity="5.0248432159423828e-01" nType="0">
        <Node pos="l" depth="1" NCoef="0" IVar="6" Cut="1.2887516021728516e+00" cType="1" res="1.4585906639695168e-02" rms="3.4321936964988708e-01" purity="5.8295965194702148e-01" nType="0">
          <Node pos="l" depth="2" NCoef="0" IVar="8" Cut="3.0952382087707520e+00" cType="0" res="3.3305808901786804e-02" rms="3.3114743232727051e-01" purity="6.5168076753616333e-01" nType="0">
            <Node pos="l" depth="3" NCoef="0" IVar="-1" Cut="0.0000000000000000e+00" cType="1" res="2.3564044386148453e-02" rms="2.8382024168968201e-01" purity="8.5282146930694580e-01" nType="-99"/>
            <Node pos="r" depth="3" NCoef="0" IVar="-1" Cut="0.0000000000000000e+00" cType="1" res="-4.6598208136856556e-03" rms="4.0235638618469238e-01" purity="2.6371103525161743e-01" nType="-99"/>
          </Node>
          <Node pos="r" depth="2" NCoef="0" IVar="9" Cut="3.5714285373687744e+00" cType="0" res="-4.6573512256145477e-02" rms="3.7351191043853760e-01" purity="3.5844224691390991e-01" nType="0">
            <Node pos="l" depth="3" NCoef="0" IVar="-1" Cut="0.0000000000000000e+00" cType="1" res="-2.2425347939133644e-02" rms="3.6621296405792236e-01" purity="4.1780570149421692e-01" nType="-99"/>
            <Node pos="r" depth="3" NCoef="0" IVar="-1" Cut="0.0000000000000000e+00" cType="1" res="6.3070631586015224e-03" rms="3.8511911034584045e-01" purity="1.9830593466758728e-01" nType="-99"/>
          </Node>
        </Node>
        <Node pos="r" depth="1" NCoef="0" IVar="9" Cut="3.4285714626312256e+00" cType="0" res="-5.5991120636463165e-02" rms="3.4211376309394836e-01" purity="1.9856886565685272e-01" nType="0">
          <Node pos="l" depth="2" NCoef="0" IVar="9" Cut="1.0666666984558105e+01" cType="0" res="-7.6539941132068634e-02" rms="3.4792450070381165e-01" purity="2.6467123627662659e-01" nType="0">
            <Node pos="l" depth="3" NCoef="0" IVar="-1" Cut="0.0000000000000000e+00" cType="1" res="2.6828709989786148e-02" rms="1.9819098711013794e-01" purity="9.5089286565780640e-01" nType="-99"/>
            <Node pos="r" depth="3" NCoef="0" IVar="-1" Cut="0.0000000000000000e+00" cType="1" res="-2.6044869795441628e-02" rms="3.5321480035781860e-01" purity="2.2642448544502258e-01" nType="-99"/>
          </Node>
          <Node pos="r" depth="2" NCoef="0" IVar="5" Cut="6.9694628715515137e+00" cType="1" res="-3.4941229969263077e-02" rms="3.3475178480148315e-01" purity="1.3085466623306274e-01" nType="0">
            <Node pos="l" depth="3" NCoef="0" IVar="-1" Cut="0.0000000000000000e+00" cType="1" res="-3.2408274710178375e-03" rms="3.5635390877723694e-01" purity="1.5283842384815216e-01" nType="-99"/>
            <Node pos="r" depth="3" NCoef="0" IVar="-1" Cut="0.0000000000000000e+00" cType="1" res="-2.6615455746650696e-02" rms="2.9353016614913940e-01" purity="9.6734441816806793e-02" nType="-99"/>
          </Node>
        </Node>
      </Node>
    </BinaryTree>
